~o
<STREAMINFO> 1 39
<VECSIZE> 39<NULLD><MFCC_E_D_A><DIAGC>
~h "AUTO"
<BEGINHMM>
<NUMSTATES> 7
<STATE> 2
<MEAN> 39
 -6.258179e+00 -2.553488e+01 -8.170409e+00 2.286632e+00 2.750519e+00 -7.195591e+00 -7.037913e-01 -3.780789e+00 -7.831762e+00 3.479872e+00 -5.129490e+00 4.807351e+00 8.506964e-01 1.164540e+00 -1.309918e+00 -1.078334e+00 -3.374861e-01 7.752213e-01 -2.162955e+00 -7.892463e-01 -1.392044e+00 -1.157412e+00 1.580586e-01 -5.602818e-01 -1.478553e-01 -5.490863e-03 -7.521462e-02 5.776384e-01 -4.278980e-02 -2.167605e-01 -3.132057e-01 5.237749e-01 2.886850e-02 5.353497e-01 1.963633e-01 -4.240030e-02 5.492584e-01 2.010343e-01 9.817698e-03
<VARIANCE> 39
 3.459252e+01 1.037312e+02 4.289801e+01 7.242104e+01 7.259993e+01 9.758345e+01 6.620924e+01 5.596026e+01 4.919093e+01 4.630109e+01 1.003818e+02 8.104144e+01 1.927442e-02 1.757340e+00 9.094573e+00 2.033838e+00 7.948377e+00 6.736668e+00 9.389110e+00 5.909961e+00 8.545616e+00 6.953232e+00 3.499699e+00 9.139372e+00 6.099855e+00 2.835709e-03 3.293816e-01 8.123590e-01 2.970946e-01 1.435642e+00 5.317948e-01 1.628994e+00 9.089324e-01 1.509683e+00 1.200567e+00 6.014624e-01 1.063957e+00 1.193882e+00 4.697925e-04
<GCONST> 1.229966e+02
<STATE> 3
<MEAN> 39
 -1.142290e+00 -1.215821e+01 -1.209689e+01 -6.050760e+00 -1.107647e+00 -1.456359e+01 -7.556522e+00 -5.497841e+00 -2.996557e+00 -2.911925e+00 -3.599826e+00 -2.942225e+00 8.231107e-01 2.447774e-01 5.353138e-01 -2.815295e-02 -4.121872e-01 -4.970879e-01 6.097613e-02 3.905986e-02 3.183579e-02 4.608591e-01 -4.056451e-02 -1.241661e-01 1.360379e-01 -1.112943e-02 -9.307231e-02 5.455266e-03 7.507885e-02 -3.283694e-02 -4.401984e-02 8.028989e-02 2.108748e-02 -1.743170e-02 9.019723e-02 3.194055e-02 4.779455e-02 2.884612e-02 -2.319054e-03
<VARIANCE> 39
 2.116342e+01 3.701070e+01 3.011718e+01 3.517838e+01 4.789843e+01 2.914516e+01 2.043518e+01 1.783677e+01 5.364428e+01 2.395556e+01 4.732582e+01 2.645721e+01 1.897318e-02 4.836607e-01 6.348386e-01 2.044405e+00 1.547021e+00 1.490729e+00 2.452111e+00 1.708405e+00 2.718366e+00 3.467782e+00 2.596656e+00 3.541733e+00 2.289199e+00 5.880925e-04 5.300963e-02 1.218829e-01 2.096864e-01 2.483379e-01 3.173419e-01 5.105389e-01 3.383288e-01 5.263202e-01 5.757516e-01 5.344864e-01 6.146973e-01 4.324601e-01 5.445164e-05
<GCONST> 8.456261e+01
<STATE> 4
<MEAN> 39
 1.610773e+00 -1.966514e+01 -1.788880e+01 1.750898e+00 -2.970174e+00 -1.860925e+01 -1.089270e+01 -4.815177e+00 -3.534387e+00 3.002097e+00 4.713154e+00 7.347482e+00 5.517984e-01 -8.846910e-01 3.256913e-01 2.309621e-01 7.015985e-01 -1.313724e-01 3.225486e-01 -2.804497e-01 -4.362809e-01 4.555106e-01 -4.940886e-02 2.000595e-01 -3.928796e-01 -3.055430e-02 -2.327666e-01 8.007530e-02 2.150996e-01 -5.098309e-03 -2.601115e-02 1.549602e-01 3.124068e-01 -1.722284e-01 3.538672e-02 -6.099448e-02 -2.727672e-01 -3.526635e-01 4.962670e-03
<VARIANCE> 39
 3.071015e+01 4.415088e+01 7.811554e+01 1.342961e+02 4.004635e+01 5.487309e+01 5.588523e+01 6.830650e+01 6.029727e+01 1.399305e+02 7.701485e+01 8.258226e+01 4.608474e-02 1.305303e+00 1.013208e+00 2.025033e+00 5.109171e+00 3.931908e+00 3.886273e+00 5.966055e+00 3.379524e+00 3.269227e+00 4.478399e+00 7.650048e+00 3.288519e+00 8.772532e-04 2.903588e-01 2.028802e-01 5.674660e-01 8.237935e-01 8.101960e-01 8.119794e-01 1.191129e+00 5.407594e-01 9.198292e-01 6.390826e-01 1.165517e+00 8.069719e-01 2.622970e-04
<GCONST> 1.127384e+02
<STATE> 5
<MEAN> 39
 -5.942099e+00 -1.353169e+01 -1.000175e+01 -1.414550e+00 -1.116603e+01 -1.464666e+01 3.238702e+00 -7.395224e+00 8.012167e+00 -1.608552e+00 -5.377608e+00 -1.626663e+00 5.888185e-01 5.099950e-01 1.815118e-01 -4.660107e-01 -4.125816e-01 -2.550911e-01 -4.186910e-01 8.169277e-01 8.779882e-01 -2.067421e-01 -6.170490e-01 -1.010252e+00 -5.931540e-01 2.934624e-02 3.401242e-01 -1.128033e-01 -4.124760e-01 1.416790e-01 2.339833e-01 -9.924997e-02 -1.185232e-01 2.626553e-01 -1.921085e-01 -1.646560e-01 -1.902981e-01 1.372051e-01 -1.102201e-03
<VARIANCE> 39
 7.539512e+01 6.099746e+01 8.421461e+01 1.286853e+02 1.630374e+02 1.010600e+02 1.838792e+02 1.738164e+02 1.611158e+02 8.965742e+01 7.534729e+01 4.744514e+01 4.462074e-02 1.012452e+01 3.782920e+00 1.289803e+01 8.968786e+00 1.878184e+01 9.987494e+00 1.814025e+01 2.395720e+01 1.837094e+01 4.207537e+00 3.664957e+00 4.924523e+00 3.394342e-03 1.752037e+00 4.578670e-01 1.850316e+00 1.115678e+00 3.463281e+00 1.693681e+00 2.126731e+00 4.962291e+00 2.680231e+00 7.397712e-01 5.541615e-01 8.721835e-01 4.764114e-04
<GCONST> 1.423319e+02
<STATE> 6
<MEAN> 39
 -4.218840e+00 -1.120771e+01 -1.081640e+01 -6.698869e+00 -2.721675e+00 -1.021420e+01 -3.603051e+00 -4.183712e+00 1.595785e+00 -6.433799e+00 -6.819500e+00 -6.199880e+00 6.835250e-01 -2.127654e-01 -6.477100e-02 1.546436e-01 2.511905e-01 3.422949e-01 4.746966e-01 -9.641434e-03 -1.178884e-01 -1.375212e-02 -5.111986e-02 -6.723754e-02 -1.164870e-01 -1.810005e-02 -6.484875e-02 3.633163e-03 6.203322e-02 -4.392195e-02 -1.353973e-01 7.732286e-03 7.366812e-03 -2.891002e-02 -1.913389e-03 7.940170e-02 8.844407e-02 -2.853525e-02 -1.229035e-03
<VARIANCE> 39
 4.682654e+01 3.441901e+01 6.260358e+01 6.527147e+01 1.005391e+02 2.912545e+01 3.743241e+01 6.593857e+01 3.419668e+01 1.953221e+01 3.448512e+01 2.345346e+01 2.173901e-02 8.808326e-01 6.135482e-01 1.600912e+00 1.549067e+00 3.379017e+00 1.883398e+00 2.027997e+00 3.048241e+00 2.381709e+00 2.111854e+00 1.468639e+00 2.008325e+00 8.150699e-04 1.331298e-01 1.189069e-01 2.520473e-01 2.500221e-01 4.101211e-01 3.139359e-01 4.280875e-01 5.070028e-01 4.800380e-01 3.926933e-01 2.880611e-01 3.570765e-01 8.697972e-05
<GCONST> 8.831151e+01
<TRANSP> 7
 0.000000e+00 1.000000e+00 0.000000e+00 0.000000e+00 0.000000e+00 0.000000e+00 0.000000e+00
 0.000000e+00 8.680339e-01 1.319661e-01 0.000000e+00 0.000000e+00 0.000000e+00 0.000000e+00
 0.000000e+00 0.000000e+00 9.257133e-01 7.428671e-02 0.000000e+00 0.000000e+00 0.000000e+00
 0.000000e+00 0.000000e+00 0.000000e+00 8.400137e-01 1.599863e-01 0.000000e+00 0.000000e+00
 0.000000e+00 0.000000e+00 0.000000e+00 0.000000e+00 8.699318e-01 1.300682e-01 0.000000e+00
 0.000000e+00 0.000000e+00 0.000000e+00 0.000000e+00 0.000000e+00 9.388581e-01 6.114189e-02
 0.000000e+00 0.000000e+00 0.000000e+00 0.000000e+00 0.000000e+00 0.000000e+00 0.000000e+00
<ENDHMM>
