~o
<STREAMINFO> 1 39
<VECSIZE> 39<NULLD><MFCC_E_D_A><DIAGC>
~h "AUTO"
<BEGINHMM>
<NUMSTATES> 7
<STATE> 2
<MEAN> 39
 -1.343681e+01 -7.203234e+00 -9.008836e+00 -1.024212e+01 -1.287832e+01 -1.299919e+00 9.264225e+00 7.565279e+00 3.432065e-01 -4.773170e+00 -3.654455e+00 -5.610596e+00 1.764703e-01 -3.983403e-02 3.943631e-02 -1.044271e-01 -5.228041e-01 6.360124e-01 -1.480295e+00 -2.963033e-01 -1.073732e+00 -5.090865e-01 2.865783e-01 -8.453408e-01 -5.532176e-01 -5.570190e-02 4.188312e-02 -1.397599e-01 1.165347e-01 3.464430e-01 1.235399e-01 2.435911e-01 -3.121046e-02 2.770686e-01 2.661127e-02 3.888790e-02 9.578233e-02 2.902178e-01 1.883855e-02
<VARIANCE> 39
 4.238026e+01 5.168777e+01 9.826755e+01 1.003799e+02 1.073621e+02 4.264099e+01 1.033635e+02 1.389661e+02 4.417108e+01 1.914450e+02 7.845913e+01 5.788312e+01 1.195772e-01 1.628192e+00 3.284277e+00 2.460690e+00 7.034466e+00 4.637195e+00 6.190693e+00 4.281034e+00 9.608202e+00 3.112906e+00 4.705131e+00 3.116613e+00 5.353025e+00 6.638114e-03 1.989799e-01 7.033204e-01 2.906117e-01 7.673146e-01 6.157933e-01 7.198386e-01 5.414708e-01 1.506979e+00 5.359616e-01 6.386538e-01 4.218689e-01 7.077176e-01 9.850030e-04
<GCONST> 1.203049e+02
<STATE> 3
<MEAN> 39
 -9.848433e+00 -2.356622e+01 -1.077801e+01 5.164226e+00 1.301555e+01 -4.028696e+00 7.357663e-01 -5.714361e+00 -1.657994e+01 1.440854e+01 -3.430926e+00 2.537239e+00 4.501886e-01 6.546032e-01 -1.344194e+00 -2.802850e-01 1.835404e-01 6.121352e-01 -2.500907e-01 1.076924e-01 -2.600443e-01 -2.869686e-01 -1.912192e-01 -7.093349e-01 5.788501e-01 3.827254e-02 1.718155e-02 2.073959e-01 -1.144302e-01 -2.188501e-01 -2.799771e-01 -8.628526e-02 8.972266e-02 2.308046e-01 2.087259e-01 -7.102052e-02 -4.296201e-02 -2.953289e-02 1.624854e-03
<VARIANCE> 39
 3.486436e+01 1.536889e+02 8.861418e+01 7.801052e+01 1.187401e+02 5.083163e+01 5.194802e+01 2.632606e+01 1.579577e+02 1.854179e+02 8.654201e+01 7.990859e+01 1.398065e-01 2.848683e+00 1.455450e+01 4.659791e+00 1.011443e+01 7.444242e+00 7.778083e+00 8.192848e+00 4.484945e+00 1.164832e+01 7.425633e+00 5.089957e+00 7.363119e+00 1.008313e-02 4.605891e-01 2.178199e+00 5.990729e-01 1.428513e+00 7.713235e-01 1.356974e+00 1.770152e+00 9.350278e-01 2.373788e+00 1.151032e+00 9.461576e-01 1.256322e+00 1.314672e-03
<GCONST> 1.358582e+02
<STATE> 4
<MEAN> 39
 -1.455334e+00 -2.022712e+01 -1.771001e+01 3.753899e+00 -4.638910e+00 -1.734588e+01 -4.158026e-01 -3.071378e+00 2.006626e+00 2.804056e-02 -3.840408e+00 2.809235e+00 4.913239e-01 -9.411221e-02 3.649258e-01 -5.473007e-02 1.156442e-01 -9.998546e-02 -2.099506e-01 -2.048492e-01 -4.618635e-02 1.505822e-01 -1.817251e-01 -6.025201e-02 -2.625037e-01 -1.690303e-02 -3.906382e-02 3.219176e-02 9.251022e-02 1.526441e-02 2.991902e-03 1.335726e-01 1.872779e-02 -1.948155e-02 -4.946652e-02 2.066464e-02 3.698437e-02 3.241091e-02 1.723518e-03
<VARIANCE> 39
 7.680681e+01 4.687304e+01 7.955952e+01 1.191771e+02 1.126758e+02 6.779398e+01 1.688800e+02 1.579650e+02 1.380012e+02 1.065613e+02 1.631169e+02 7.068007e+01 8.578633e-02 6.250283e+00 2.381451e+00 5.438440e+00 6.795949e+00 1.028554e+01 7.713399e+00 1.168431e+01 1.263906e+01 9.793121e+00 3.782185e+00 6.382051e+00 3.715829e+00 2.897640e-03 1.057441e+00 3.439805e-01 9.045999e-01 1.012177e+00 1.734876e+00 1.287274e+00 1.682371e+00 2.506883e+00 1.667552e+00 5.904626e-01 9.838973e-01 7.984336e-01 3.974053e-04
<GCONST> 1.343173e+02
<STATE> 5
<MEAN> 39
 -6.552455e-01 -7.998800e+00 -7.841600e+00 -4.021311e+00 3.676465e+00 -1.166295e+01 -6.127845e+00 -5.967534e+00 -6.383492e-01 -3.972036e+00 -5.621442e+00 -3.855052e+00 6.422925e-01 3.160592e-03 2.126219e-01 6.582008e-02 -5.357121e-02 -1.450260e-01 1.695789e-01 -3.190756e-02 -2.823180e-02 6.939614e-02 2.606785e-02 2.499203e-02 -3.900442e-02 -4.071423e-03 -4.164097e-03 2.395381e-02 5.672266e-03 2.370412e-03 -2.911984e-02 6.723882e-02 1.415076e-02 3.325242e-02 2.442152e-02 2.878692e-02 2.967499e-02 6.813314e-03 -3.670495e-04
<VARIANCE> 39
 1.683821e+01 2.212667e+01 3.426482e+01 2.277724e+01 4.291212e+01 4.518796e+01 1.524620e+01 2.614535e+01 2.789621e+01 2.109889e+01 3.091895e+01 2.999600e+01 5.705913e-02 9.739100e-01 7.852236e-01 2.349191e+00 1.860924e+00 2.961231e+00 2.377186e+00 1.607501e+00 2.600029e+00 2.654056e+00 2.207318e+00 2.275033e+00 2.127578e+00 2.111423e-03 1.560445e-01 1.451836e-01 3.332263e-01 3.065936e-01 4.884013e-01 4.874850e-01 3.356188e-01 4.684025e-01 5.231336e-01 4.691543e-01 4.834481e-01 4.247504e-01 2.144886e-04
<GCONST> 8.914615e+01
<STATE> 6
<MEAN> 39
 -1.185075e+01 -1.248968e+01 -5.383051e+00 -8.631213e+00 -7.594775e+00 -1.027950e+01 -5.312013e+00 -8.534785e+00 -1.291515e+00 -6.865472e+00 -5.529323e+00 -5.364523e+00 3.928350e-01 -6.248364e-02 1.267928e-01 1.752516e-01 2.831238e-02 8.481025e-02 1.819307e-01 8.986944e-02 1.052808e-01 -2.502236e-02 1.652648e-01 2.149095e-01 1.099363e-01 1.035416e-02 1.154035e-03 -1.211665e-03 2.396608e-02 1.061802e-02 3.113938e-02 3.080666e-02 3.253609e-03 1.772911e-02 -1.891729e-02 2.406553e-02 4.764128e-02 2.928818e-02 3.395432e-03
<VARIANCE> 39
 1.865006e+01 4.325026e+01 3.443576e+01 4.352908e+01 2.093523e+01 1.926078e+01 4.595362e+01 3.564740e+01 4.121110e+01 4.004932e+01 5.210560e+01 1.750708e+01 6.280941e-02 6.881025e-01 1.134696e+00 1.754927e+00 1.348531e+00 1.723453e+00 1.787451e+00 2.288452e+00 3.233917e+00 3.046493e+00 3.006185e+00 3.230018e+00 2.040285e+00 3.336254e-03 9.980978e-02 1.572557e-01 2.112107e-01 2.031537e-01 3.142620e-01 3.244686e-01 4.107611e-01 5.769747e-01 5.606450e-01 5.090359e-01 4.900371e-01 4.007728e-01 2.864510e-04
<GCONST> 9.061309e+01
<TRANSP> 7
 0.000000e+00 1.000000e+00 0.000000e+00 0.000000e+00 0.000000e+00 0.000000e+00 0.000000e+00
 0.000000e+00 8.769284e-01 1.230716e-01 0.000000e+00 0.000000e+00 0.000000e+00 0.000000e+00
 0.000000e+00 0.000000e+00 8.665816e-01 1.334185e-01 0.000000e+00 0.000000e+00 0.000000e+00
 0.000000e+00 0.000000e+00 0.000000e+00 9.429754e-01 5.702462e-02 0.000000e+00 0.000000e+00
 0.000000e+00 0.000000e+00 0.000000e+00 0.000000e+00 9.521270e-01 4.787303e-02 0.000000e+00
 0.000000e+00 0.000000e+00 0.000000e+00 0.000000e+00 0.000000e+00 9.764145e-01 2.358554e-02
 0.000000e+00 0.000000e+00 0.000000e+00 0.000000e+00 0.000000e+00 0.000000e+00 0.000000e+00
<ENDHMM>
