~o
<STREAMINFO> 1 39
<VECSIZE> 39<NULLD><MFCC_E_D_A><DIAGC>
~h "AUTO"
<BEGINHMM>
<NUMSTATES> 7
<STATE> 2
<MEAN> 39
 -6.637807e+00 -2.869664e+01 -9.294403e+00 4.055781e+00 3.821600e+00 -6.738770e+00 3.541248e-01 -4.133020e+00 -8.929182e+00 5.364258e+00 -5.926582e+00 4.988487e+00 8.134041e-01 9.019450e-01 -3.942107e-01 -1.071046e+00 -8.343715e-01 3.162347e-01 -6.617573e-01 -1.825629e-01 -8.197036e-02 -8.026787e-01 -2.779861e-01 3.926085e-01 3.175681e-01 4.984299e-02 4.047470e-02 3.935596e-01 -8.019680e-02 -2.006180e-01 -1.856002e-01 -2.237034e-01 -2.418600e-01 -5.407652e-02 9.594936e-02 2.314135e-02 6.309716e-02 -1.085652e-01 -1.213253e-02
<VARIANCE> 39
 3.228866e+01 9.224951e+01 4.983838e+01 1.133938e+02 6.618777e+01 6.090655e+01 6.500581e+01 3.684422e+01 4.289215e+01 3.891492e+01 1.029903e+02 8.925196e+01 4.399000e-02 2.502877e+00 5.800496e+00 2.559174e+00 7.241899e+00 4.772818e+00 6.838779e+00 6.504419e+00 5.452525e+00 7.392580e+00 2.223082e+00 8.413408e+00 5.793184e+00 4.800628e-03 3.341338e-01 6.038748e-01 3.909415e-01 1.266497e+00 4.707129e-01 6.615976e-01 8.674034e-01 9.291955e-01 1.504875e+00 3.929016e-01 1.097133e+00 9.342004e-01 3.122164e-04
<GCONST> 1.195588e+02
<STATE> 3
<MEAN> 39
 -1.269750e+00 -1.240764e+01 -1.135818e+01 -4.910202e+00 8.770652e-02 -1.471740e+01 -7.225726e+00 -5.982713e+00 -3.145841e+00 -3.157958e+00 -3.991949e+00 -2.610342e+00 8.461606e-01 2.168137e-01 5.210922e-01 -1.121273e-01 -1.916295e-01 -3.733811e-01 -1.927792e-02 -8.848555e-02 1.324810e-01 2.529492e-01 -3.750850e-02 -1.936984e-01 9.070685e-02 -8.139665e-03 -5.465734e-02 2.731430e-03 3.862825e-02 -8.114967e-02 -3.903696e-02 6.748998e-02 1.186332e-02 3.988476e-02 7.898716e-02 5.620274e-02 5.061404e-02 3.808427e-02 -2.327137e-03
<VARIANCE> 39
 2.239148e+01 3.829044e+01 3.208039e+01 1.972763e+01 4.626464e+01 3.246388e+01 1.897664e+01 2.041630e+01 4.760401e+01 2.295595e+01 4.859657e+01 2.701461e+01 1.763293e-02 5.562285e-01 7.676251e-01 1.912863e+00 1.276768e+00 1.761465e+00 2.546918e+00 2.289172e+00 2.566435e+00 2.995065e+00 2.249736e+00 2.985937e+00 2.396148e+00 9.893655e-04 6.591156e-02 1.186374e-01 2.083603e-01 2.529702e-01 2.870194e-01 5.209609e-01 2.972624e-01 4.977392e-01 5.712264e-01 4.485286e-01 5.831014e-01 5.314483e-01 5.931936e-05
<GCONST> 8.469353e+01
<STATE> 4
<MEAN> 39
 1.694228e+00 -1.995990e+01 -1.817239e+01 2.417244e+00 -2.820222e+00 -1.914612e+01 -1.111254e+01 -4.559266e+00 -4.400476e+00 2.564398e+00 3.851615e+00 6.738042e+00 5.684223e-01 -7.211619e-01 4.032527e-01 2.761171e-01 5.097585e-01 -1.249352e-01 4.683881e-01 -1.899140e-01 -1.812333e-01 5.073340e-01 3.878968e-02 3.621931e-01 -2.684477e-01 -2.723810e-02 -2.658239e-01 5.049664e-03 2.166587e-01 -1.222893e-01 -7.852387e-02 2.204108e-01 3.483123e-01 -2.264497e-01 9.616096e-02 -7.737976e-02 -1.342732e-01 -2.446877e-01 5.915987e-03
<VARIANCE> 39
 3.432027e+01 4.943135e+01 7.740542e+01 1.251004e+02 3.406184e+01 5.686488e+01 4.704174e+01 6.259542e+01 6.099113e+01 1.257507e+02 8.534340e+01 7.481770e+01 4.573684e-02 1.996587e+00 1.144603e+00 2.722370e+00 5.581182e+00 2.844851e+00 3.338989e+00 4.945372e+00 2.898688e+00 3.738369e+00 4.558192e+00 9.066297e+00 3.555418e+00 9.550765e-04 4.760513e-01 2.617601e-01 4.879760e-01 7.432253e-01 6.035639e-01 6.817917e-01 9.617221e-01 7.978740e-01 8.236512e-01 6.746026e-01 1.496765e+00 9.006407e-01 2.470402e-04
<GCONST> 1.134418e+02
<STATE> 5
<MEAN> 39
 -4.402542e+00 -1.488352e+01 -1.294878e+01 -4.771641e-01 -1.049774e+01 -1.528801e+01 3.114995e+00 -6.030007e+00 8.131352e+00 -1.966125e+00 -5.939986e+00 -1.116565e+00 6.179609e-01 4.849817e-01 6.358185e-02 -5.231439e-01 -3.424578e-01 -1.232562e-01 -2.562152e-01 5.163416e-01 1.032096e+00 -7.296152e-02 -5.546104e-01 -1.043231e+00 -6.350462e-01 2.328736e-02 2.885927e-01 -5.971785e-02 -2.598252e-01 1.660195e-01 2.059910e-01 -3.375066e-02 -5.485068e-02 2.667182e-01 -1.250085e-01 -8.887975e-02 -1.265713e-01 6.914815e-02 -2.286293e-03
<VARIANCE> 39
 9.043330e+01 6.275185e+01 1.069030e+02 1.230471e+02 1.549695e+02 1.014059e+02 1.823358e+02 1.799058e+02 1.457435e+02 7.583382e+01 7.906572e+01 4.318481e+01 4.685996e-02 1.061145e+01 3.178794e+00 1.004023e+01 8.444857e+00 1.692856e+01 1.012922e+01 1.634551e+01 2.309722e+01 1.556133e+01 3.531195e+00 3.634896e+00 4.351125e+00 3.399806e-03 1.861278e+00 4.231166e-01 1.531860e+00 8.880091e-01 2.815054e+00 1.625006e+00 2.062220e+00 4.742193e+00 2.118128e+00 5.764022e-01 6.250997e-01 7.957220e-01 4.081784e-04
<GCONST> 1.399389e+02
<STATE> 6
<MEAN> 39
 -4.930620e+00 -1.057444e+01 -9.429732e+00 -8.515729e+00 -3.042552e+00 -9.861599e+00 -4.163665e+00 -4.973052e+00 1.222131e+00 -6.050246e+00 -6.317094e+00 -6.563287e+00 7.213362e-01 -1.997265e-01 -2.661271e-02 2.379960e-01 1.440897e-01 1.569879e-01 3.530842e-01 6.837589e-02 -3.631615e-01 -1.687337e-02 -7.041895e-02 3.662174e-02 -3.549130e-02 -1.740936e-02 -6.079401e-02 6.199966e-04 3.738774e-02 -9.789803e-04 -8.981868e-02 -8.923215e-03 -2.499572e-02 -4.936544e-03 -6.782021e-02 3.528983e-02 6.514411e-02 7.086738e-03 -1.340153e-03
<VARIANCE> 39
 3.864605e+01 2.406453e+01 3.432077e+01 5.857043e+01 1.023945e+02 2.581265e+01 2.625030e+01 5.731731e+01 2.813760e+01 2.741607e+01 3.478577e+01 1.939804e+01 2.580442e-02 8.722183e-01 6.172007e-01 1.360268e+00 1.217450e+00 2.878061e+00 1.786473e+00 1.925513e+00 2.633109e+00 2.286221e+00 2.652887e+00 1.583975e+00 1.857653e+00 8.022508e-04 1.440910e-01 1.087247e-01 2.176865e-01 2.110525e-01 3.154368e-01 3.515044e-01 4.216244e-01 4.387740e-01 4.315400e-01 4.907444e-01 3.102840e-01 3.579529e-01 9.157098e-05
<GCONST> 8.554776e+01
<TRANSP> 7
 0.000000e+00 1.000000e+00 0.000000e+00 0.000000e+00 0.000000e+00 0.000000e+00 0.000000e+00
 0.000000e+00 8.359336e-01 1.640664e-01 0.000000e+00 0.000000e+00 0.000000e+00 0.000000e+00
 0.000000e+00 0.000000e+00 9.249371e-01 7.506289e-02 0.000000e+00 0.000000e+00 0.000000e+00
 0.000000e+00 0.000000e+00 0.000000e+00 8.504199e-01 1.495801e-01 0.000000e+00 0.000000e+00
 0.000000e+00 0.000000e+00 0.000000e+00 0.000000e+00 8.855159e-01 1.144841e-01 0.000000e+00
 0.000000e+00 0.000000e+00 0.000000e+00 0.000000e+00 0.000000e+00 9.393786e-01 6.062140e-02
 0.000000e+00 0.000000e+00 0.000000e+00 0.000000e+00 0.000000e+00 0.000000e+00 0.000000e+00
<ENDHMM>
