~o
<STREAMINFO> 1 39
<VECSIZE> 39<NULLD><MFCC_E_D_A><DIAGC>
~h "KAKTUS"
<BEGINHMM>
<NUMSTATES> 7
<STATE> 2
<MEAN> 39
 -6.569387e+00 -1.752214e+01 3.041271e-01 -1.040595e+01 -6.633822e+00 -1.296679e+00 1.513996e+00 -8.338036e+00 -6.488991e+00 -5.220389e-01 -1.020030e+00 -4.345453e+00 8.138992e-01 3.466322e-01 -2.583299e-01 -5.370186e-01 -2.871136e-03 7.766172e-01 1.310058e-01 -1.654655e-01 2.916526e-03 -6.766776e-01 -1.537349e-01 3.114713e-01 -7.078850e-02 -5.970118e-03 -5.197132e-02 4.789369e-02 2.009435e-02 5.283758e-02 3.689774e-03 1.144547e-03 -9.120487e-02 -1.537431e-02 8.956762e-02 3.064423e-02 1.865862e-02 -8.841829e-03 -2.658245e-03
<VARIANCE> 39
 2.624200e+01 6.647861e+01 6.517894e+01 4.815330e+01 9.187360e+01 1.399771e+02 4.429837e+01 3.270805e+01 6.077970e+01 5.144795e+01 6.793137e+01 3.897604e+01 2.806073e-02 1.365206e+00 3.418253e+00 4.047625e+00 3.748947e+00 5.719831e+00 3.005485e+00 3.246959e+00 3.037812e+00 5.667247e+00 3.349043e+00 5.264843e+00 1.942952e+00 2.008692e-03 2.193141e-01 5.223628e-01 5.670325e-01 7.653885e-01 1.137913e+00 5.756574e-01 6.242821e-01 5.965922e-01 9.782586e-01 6.082742e-01 9.995378e-01 3.357739e-01 2.323493e-04
<GCONST> 1.103507e+02
<STATE> 3
<MEAN> 39
 -1.134231e+01 -1.925034e+01 -6.338196e+00 -4.941851e+00 -1.061458e+01 2.809066e+00 2.114639e+00 -6.867448e+00 -4.562651e+00 -2.106444e+00 -1.098447e+00 -2.766048e+00 5.076351e-01 -3.543483e-01 6.904405e-01 -7.930909e-02 2.228975e-01 -9.006529e-01 -4.819543e-01 -1.284660e-01 3.170024e-01 5.324265e-01 2.474929e-02 -1.163483e-01 1.211428e-01 -1.282945e-02 1.284684e-01 1.199096e-01 1.112933e-01 -1.510395e-01 -6.946488e-02 -2.913032e-01 -2.074939e-01 -4.087505e-03 1.198643e-01 1.840003e-01 -4.047068e-02 -2.286480e-02 8.238729e-03
<VARIANCE> 39
 1.711960e+01 6.945468e+01 5.602139e+01 7.647145e+01 6.066076e+01 1.807521e+02 2.437663e+01 2.354200e+01 5.528379e+01 4.239802e+01 3.743507e+01 5.588008e+01 5.715286e-02 1.386727e+00 1.719163e+00 6.314575e+00 6.109435e+00 4.407828e+00 4.720715e+00 4.428668e+00 3.116627e+00 3.202736e+00 5.111566e+00 3.528477e+00 3.343127e+00 3.627312e-03 3.414731e-01 3.233382e-01 1.269796e+00 8.514227e-01 1.190883e+00 9.911215e-01 9.146850e-01 7.139651e-01 8.181716e-01 1.028089e+00 8.060192e-01 6.754628e-01 6.197217e-04
<GCONST> 1.145916e+02
<STATE> 4
<MEAN> 39
 -8.074430e+00 -7.451333e+00 -2.759603e+00 -5.677161e+00 -2.013291e+01 -1.988458e+01 -5.095112e+00 -1.281756e+01 1.202395e+01 8.749872e+00 -3.275235e-01 1.193645e+01 5.021654e-01 -1.428758e-01 1.164233e+00 4.684445e-01 2.122747e-01 -1.418464e+00 -1.290404e+00 -1.763916e-01 -1.157860e+00 1.140716e+00 7.274472e-01 -1.692722e-01 2.377532e-01 2.786578e-02 -4.056117e-02 -6.433240e-02 -1.568914e-01 1.910198e-01 9.692248e-02 4.137816e-01 8.745054e-02 1.178987e-01 -1.296910e-01 -1.590774e-01 -6.417237e-02 1.526306e-02 -1.960989e-03
<VARIANCE> 39
 1.092915e+02 4.213790e+01 7.081527e+01 6.874169e+01 2.824137e+02 3.073965e+02 1.999658e+02 1.961791e+02 1.003205e+02 9.170225e+01 5.132309e+01 1.133683e+02 4.665620e-02 1.289548e+01 3.981971e+00 8.207641e+00 5.324471e+00 2.111197e+01 3.061167e+01 1.810063e+01 1.430260e+01 5.139747e+00 9.037775e+00 5.312707e+00 6.207366e+00 5.480768e-03 1.663530e+00 6.667567e-01 1.433077e+00 8.395951e-01 4.239673e+00 2.665250e+00 2.483361e+00 2.113065e+00 6.037773e-01 1.486694e+00 9.952641e-01 9.322243e-01 7.603582e-04
<GCONST> 1.441599e+02
<STATE> 5
<MEAN> 39
 -3.484488e+00 -3.392339e+00 -2.033978e+00 -7.537201e+00 -9.891593e+00 -1.612000e+01 -9.284369e+00 -5.286964e+00 7.755670e-02 1.556659e-01 -4.405455e+00 -3.657887e+00 7.607577e-01 -3.569543e-01 8.475421e-02 7.560854e-02 3.102107e-01 4.237578e-01 6.152112e-01 1.163542e-01 -9.323362e-02 -9.100793e-02 -3.477252e-01 7.782291e-02 9.212647e-02 -1.523163e-02 -1.923125e-01 -1.055317e-01 1.157147e-02 3.628764e-02 5.017413e-02 2.625585e-01 1.947761e-01 -5.094668e-02 -1.238591e-01 -3.787444e-02 1.143186e-01 -4.703160e-02 -6.282255e-03
<VARIANCE> 39
 4.348919e+01 1.096739e+01 3.578397e+01 2.662954e+01 7.770989e+01 3.826657e+01 2.942724e+01 6.522849e+01 5.924193e+01 2.572908e+01 1.989734e+01 2.610032e+01 1.793718e-02 1.333274e+00 5.734428e-01 1.282058e+00 1.271713e+00 1.269002e+00 4.074265e+00 2.209141e+00 2.794858e+00 1.671962e+00 2.066892e+00 2.074375e+00 2.879210e+00 9.551795e-04 1.183343e-01 1.185112e-01 2.238611e-01 2.373724e-01 4.866076e-01 7.031590e-01 4.122406e-01 4.327363e-01 3.502182e-01 3.417629e-01 3.722669e-01 5.543150e-01 1.330530e-04
<GCONST> 8.695587e+01
<STATE> 6
<MEAN> 39
 -1.712138e+01 -3.408281e+00 -1.070345e+00 -9.687389e-01 -1.772396e+01 1.597826e+00 -2.029428e+00 -1.332223e+01 2.923136e+00 1.992353e+00 -6.205232e+00 -7.001241e-01 4.867015e-01 -4.326418e-03 -1.811467e-01 5.432542e-02 7.970887e-02 1.497496e-01 4.660918e-01 1.736311e-03 1.691545e-01 -1.407892e-01 -1.935849e-01 -1.680643e-01 -5.228811e-02 -8.891144e-03 8.029151e-02 -2.781365e-02 8.410715e-03 -5.678801e-02 -2.369132e-02 -1.762809e-01 -6.063972e-03 -1.916172e-03 2.031649e-02 -4.856043e-02 4.220927e-02 3.107160e-02 3.269335e-04
<VARIANCE> 39
 7.124173e+01 2.757346e+01 4.551798e+01 4.300092e+01 1.339733e+02 1.514612e+02 3.713171e+01 1.016361e+02 1.007337e+02 6.887141e+01 5.517583e+01 8.570762e+01 1.418854e-02 6.114190e-01 5.857117e-01 7.625507e-01 1.209431e+00 2.365724e+00 2.842830e+00 2.123499e+00 2.433408e+00 2.123960e+00 2.495680e+00 2.675548e+00 2.198790e+00 2.873797e-04 9.030277e-02 1.134291e-01 1.269840e-01 1.834752e-01 3.526141e-01 3.625110e-01 3.726579e-01 4.403281e-01 3.669145e-01 4.400839e-01 4.401644e-01 4.288633e-01 5.385793e-05
<GCONST> 9.024503e+01
<TRANSP> 7
 0.000000e+00 1.000000e+00 0.000000e+00 0.000000e+00 0.000000e+00 0.000000e+00 0.000000e+00
 0.000000e+00 9.435875e-01 5.641251e-02 0.000000e+00 0.000000e+00 0.000000e+00 0.000000e+00
 0.000000e+00 0.000000e+00 9.094279e-01 9.057207e-02 0.000000e+00 0.000000e+00 0.000000e+00
 0.000000e+00 0.000000e+00 0.000000e+00 8.607041e-01 1.392959e-01 0.000000e+00 0.000000e+00
 0.000000e+00 0.000000e+00 0.000000e+00 0.000000e+00 8.998073e-01 1.001927e-01 0.000000e+00
 0.000000e+00 0.000000e+00 0.000000e+00 0.000000e+00 0.000000e+00 9.453397e-01 5.466030e-02
 0.000000e+00 0.000000e+00 0.000000e+00 0.000000e+00 0.000000e+00 0.000000e+00 0.000000e+00
<ENDHMM>
