~o
<STREAMINFO> 1 39
<VECSIZE> 39<NULLD><MFCC_E_D_A><DIAGC>
~h "KAKTUS"
<BEGINHMM>
<NUMSTATES> 7
<STATE> 2
<MEAN> 39
 -1.046436e+01 -2.510087e+01 -1.017284e+00 -7.825739e+00 -1.050179e+01 1.270076e+01 5.799157e+00 -6.555273e+00 -1.630946e+00 2.385957e+00 -3.943642e+00 -1.925646e-02 5.132750e-01 3.178699e-01 -4.787953e-01 -7.561277e-01 -3.590938e-01 2.338589e-01 -6.336508e-01 -1.093943e-01 -6.359972e-01 -8.089921e-01 -3.371308e-01 -2.424729e-01 -5.294716e-01 -3.751082e-02 1.780880e-02 1.328804e-01 -3.141595e-01 1.263262e-01 1.635078e-01 1.192864e-01 -1.192517e-01 2.903310e-01 -1.319970e-01 6.911816e-02 3.809418e-01 3.197697e-02 4.244047e-03
<VARIANCE> 39
 2.045283e+01 9.303865e+01 1.137744e+02 1.233169e+02 1.125564e+02 1.380194e+02 3.741562e+01 5.231914e+01 6.691276e+01 2.556966e+01 5.069879e+01 4.044661e+01 8.293235e-02 1.753546e+00 5.444804e+00 1.070067e+01 9.231955e+00 6.443341e+00 6.115340e+00 4.653976e+00 7.151091e+00 5.296148e+00 2.912088e+00 6.778522e+00 3.647825e+00 3.097537e-03 2.415377e-01 7.650322e-01 2.194422e+00 1.499030e+00 1.226529e+00 8.903330e-01 8.347328e-01 1.013044e+00 8.861480e-01 5.428510e-01 1.257989e+00 5.300602e-01 6.576575e-04
<GCONST> 1.237419e+02
<STATE> 3
<MEAN> 39
 -7.277816e+00 -1.407449e+01 -2.833018e+00 -8.829751e+00 -7.479394e+00 -6.896638e+00 -8.517708e-01 -7.991718e+00 -7.529724e+00 -2.712324e+00 5.142801e-01 -5.792140e+00 5.837459e-01 8.977472e-02 2.596160e-01 -2.436125e-02 2.882626e-02 -7.108405e-02 -3.317535e-01 -2.844124e-01 8.345395e-02 1.323196e-01 3.865702e-02 -6.407823e-02 2.873143e-02 -2.340948e-04 9.399888e-03 5.242994e-02 3.363511e-02 2.751885e-02 -4.330767e-02 -3.975036e-02 -5.172390e-02 7.522368e-02 1.267471e-01 3.884092e-02 -4.980068e-02 5.757638e-02 2.201575e-03
<VARIANCE> 39
 2.704306e+01 2.552240e+01 4.022260e+01 2.652163e+01 6.454720e+01 3.201068e+01 2.099729e+01 2.442233e+01 4.535756e+01 5.376310e+01 4.728432e+01 3.389654e+01 3.898973e-02 1.516803e+00 2.157385e+00 1.353917e+00 2.208484e+00 5.462494e+00 3.008853e+00 2.941014e+00 2.602772e+00 4.596705e+00 4.379441e+00 5.049875e+00 1.994546e+00 2.245677e-03 2.744752e-01 3.715216e-01 2.798049e-01 4.448805e-01 1.113105e+00 5.228798e-01 5.140994e-01 5.817310e-01 8.277816e-01 9.263901e-01 9.886255e-01 3.811532e-01 3.488677e-04
<GCONST> 1.020058e+02
<STATE> 4
<MEAN> 39
 -8.395209e+00 -8.733254e+00 -3.877301e+00 -5.192745e+00 -1.920300e+01 -1.683420e+01 -4.346910e+00 -1.087113e+01 1.046429e+01 7.585062e+00 -9.693539e-01 1.135183e+01 2.952580e-01 -2.204033e-01 1.199718e+00 6.504441e-01 1.255125e-01 -1.074648e+00 -9.517829e-01 -2.827584e-01 -1.134328e+00 1.127156e+00 7.970930e-01 -4.381360e-02 2.841993e-01 1.925430e-02 -8.220412e-02 -5.597168e-02 2.709290e-02 1.443239e-01 2.035212e-01 3.050898e-01 4.209772e-02 1.740476e-02 -1.256049e-02 -9.974335e-02 -5.774458e-02 -1.972764e-02 -1.619008e-04
<VARIANCE> 39
 1.058983e+02 6.291588e+01 7.801771e+01 6.792433e+01 2.775269e+02 4.111051e+02 1.853369e+02 1.774771e+02 1.217986e+02 9.069355e+01 6.173247e+01 9.812982e+01 6.060142e-02 1.177837e+01 4.560051e+00 9.613729e+00 4.699176e+00 1.815480e+01 2.763950e+01 1.672332e+01 1.248903e+01 4.645664e+00 8.272870e+00 5.304879e+00 5.027170e+00 4.620731e-03 1.557360e+00 8.412328e-01 1.872859e+00 6.604976e-01 3.980662e+00 3.084030e+00 2.632246e+00 1.817071e+00 9.197139e-01 1.250942e+00 1.008255e+00 7.390318e-01 8.584602e-04
<GCONST> 1.445686e+02
<STATE> 5
<MEAN> 39
 -8.435519e+00 -4.668192e+00 -3.305818e+00 -5.708488e+00 -1.057432e+01 -1.056606e+01 -6.854046e+00 -6.325097e+00 -1.706360e+00 -1.136534e+00 -3.228984e+00 -5.017850e+00 4.789072e-01 -2.957139e-01 -8.923548e-02 3.479486e-02 1.653493e-01 2.765983e-01 5.766408e-01 2.116003e-01 -8.080374e-02 -1.013292e-01 -1.437986e-01 4.252043e-02 1.637341e-02 -1.328862e-02 -2.170808e-02 -1.115241e-02 5.585521e-02 9.240743e-04 3.840901e-02 3.760459e-02 8.375914e-02 7.390629e-03 -2.406881e-02 2.160878e-03 3.708027e-02 3.370035e-02 4.875394e-04
<VARIANCE> 39
 6.263953e+01 1.353922e+01 3.599009e+01 2.030244e+01 6.070041e+01 5.339270e+01 2.887792e+01 4.452123e+01 4.262272e+01 2.945978e+01 2.037902e+01 3.050966e+01 2.256799e-02 6.423443e-01 4.650469e-01 1.019611e+00 1.415234e+00 1.732892e+00 2.517707e+00 1.702587e+00 2.465083e+00 1.673578e+00 2.266230e+00 1.899025e+00 2.443874e+00 4.195083e-04 8.600384e-02 1.044555e-01 2.105902e-01 2.543392e-01 2.916144e-01 4.763310e-01 3.467759e-01 4.540431e-01 3.121284e-01 4.389324e-01 3.979299e-01 4.862773e-01 1.648446e-04
<GCONST> 8.338854e+01
<STATE> 6
<MEAN> 39
 -2.186240e+01 -4.330142e-01 4.040227e+00 3.123849e+00 -2.137619e+01 9.648621e+00 1.897595e+00 -1.804089e+01 9.134657e+00 7.821249e+00 -9.251829e+00 6.623125e+00 4.020264e-01 2.467658e-01 8.334658e-02 4.693252e-01 1.399360e-01 1.787304e+00 1.022476e-01 6.266033e-02 1.706937e+00 -8.827934e-01 1.847964e-01 5.439218e-01 1.110431e-01 6.649162e-02 2.570020e-02 -2.896540e-02 -4.261714e-02 -1.116932e-01 1.833108e-01 -3.092802e-01 -7.324022e-02 3.306993e-01 -1.235395e-01 1.621041e-01 2.288045e-01 -2.469813e-02 1.500064e-02
<VARIANCE> 39
 5.533944e+01 2.377806e+01 1.979176e+01 3.417951e+01 2.107173e+02 1.245388e+02 3.026663e+01 1.590959e+02 9.411818e+01 5.212462e+01 7.007096e+01 5.071682e+01 7.754659e-02 2.467942e+00 1.508021e+00 2.072956e+00 2.412246e+00 1.021681e+01 9.322531e+00 2.498199e+00 5.766086e+00 3.754855e+00 3.319482e+00 5.288661e+00 3.289665e+00 1.099950e-02 3.294635e-01 1.845929e-01 2.120721e-01 2.593773e-01 1.265864e+00 8.107963e-01 3.776687e-01 6.678302e-01 6.211171e-01 4.512477e-01 4.515703e-01 4.819938e-01 1.072369e-03
<GCONST> 1.124788e+02
<TRANSP> 7
 0.000000e+00 1.000000e+00 0.000000e+00 0.000000e+00 0.000000e+00 0.000000e+00 0.000000e+00
 0.000000e+00 8.954015e-01 1.045986e-01 0.000000e+00 0.000000e+00 0.000000e+00 0.000000e+00
 0.000000e+00 0.000000e+00 9.489880e-01 5.101202e-02 0.000000e+00 0.000000e+00 0.000000e+00
 0.000000e+00 0.000000e+00 0.000000e+00 8.738194e-01 1.261807e-01 0.000000e+00 0.000000e+00
 0.000000e+00 0.000000e+00 0.000000e+00 0.000000e+00 9.491673e-01 5.083269e-02 0.000000e+00
 0.000000e+00 0.000000e+00 0.000000e+00 0.000000e+00 0.000000e+00 8.917657e-01 1.082344e-01
 0.000000e+00 0.000000e+00 0.000000e+00 0.000000e+00 0.000000e+00 0.000000e+00 0.000000e+00
<ENDHMM>
