~o
<STREAMINFO> 1 39
<VECSIZE> 39<NULLD><MFCC_E_D_A><DIAGC>
~h "KAKTUS"
<BEGINHMM>
<NUMSTATES> 7
<STATE> 2
<MEAN> 39
 -1.418434e+01 -1.507639e+01 -2.240803e+00 -1.000523e+01 -8.525614e+00 -1.054178e+01 -3.477035e+00 -9.518966e+00 -8.263311e-01 -8.419100e+00 -5.387034e+00 -4.071056e+00 3.523693e-01 -4.156775e-02 -6.282543e-02 -4.750285e-03 -2.214173e-01 3.171869e-02 -3.501056e-01 -1.259862e-01 -4.694620e-01 -9.108683e-02 6.926130e-02 -2.421298e-01 -1.824904e-01 -1.385909e-02 1.321047e-02 2.183063e-02 -1.463887e-02 5.175771e-02 -4.299754e-02 1.430345e-01 8.922277e-02 1.786417e-01 6.979136e-02 9.100419e-02 4.367163e-02 6.809685e-02 5.043436e-03
<VARIANCE> 39
 1.645550e+00 5.695563e+00 5.547608e+00 1.917609e+01 1.133200e+01 3.189356e+01 2.010015e+01 3.560360e+01 1.521384e+01 2.020406e+01 2.701146e+01 1.681412e+01 2.083082e-02 3.272896e-01 9.307477e-01 1.074524e+00 1.870423e+00 1.429055e+00 3.058391e+00 2.425302e+00 4.706019e+00 2.370488e+00 2.829388e+00 2.753422e+00 2.044955e+00 2.904422e-03 3.727484e-02 7.130907e-02 1.516408e-01 2.648869e-01 2.773629e-01 4.105243e-01 4.603854e-01 6.246204e-01 4.347437e-01 5.057515e-01 4.393857e-01 3.602051e-01 1.414763e-04
<GCONST> 7.544392e+01
<STATE> 3
<MEAN> 39
 -8.038189e+00 -1.381641e+01 -3.224519e+00 -9.051051e+00 -7.780023e+00 -5.925556e+00 -7.440892e-01 -6.584789e+00 -5.804712e+00 -3.770297e+00 -7.422880e-01 -6.144683e+00 6.086511e-01 -9.848685e-03 1.348687e-01 -6.850982e-02 -1.526112e-01 -1.942494e-02 -2.166108e-01 -5.467618e-02 -1.551023e-01 -6.125867e-02 2.923649e-02 -7.874100e-02 -1.301983e-01 -8.221397e-03 4.189119e-02 6.180087e-02 6.118933e-03 2.731382e-02 -5.981359e-02 -2.699986e-02 -4.728567e-02 8.549038e-02 3.376604e-02 -2.049515e-02 5.946321e-02 3.546331e-02 3.666787e-03
<VARIANCE> 39
 3.343027e+01 2.276970e+01 4.315215e+01 3.753732e+01 4.979416e+01 2.064467e+01 1.989908e+01 3.045571e+01 5.019931e+01 4.996612e+01 4.751046e+01 3.022926e+01 4.340787e-02 1.259624e+00 1.877064e+00 1.612422e+00 3.253262e+00 5.000857e+00 2.756663e+00 2.824813e+00 4.190055e+00 4.494751e+00 4.518295e+00 4.936405e+00 2.657673e+00 4.578493e-03 2.880106e-01 3.534723e-01 3.095166e-01 6.410757e-01 1.054668e+00 5.088407e-01 5.535495e-01 6.920952e-01 8.141837e-01 7.807917e-01 9.232125e-01 4.922961e-01 5.363362e-04
<GCONST> 1.045597e+02
<STATE> 4
<MEAN> 39
 -1.602832e+01 -1.419617e+01 -6.668185e+00 -3.930080e+00 -7.129073e+00 9.875665e+00 4.041425e-01 -6.005768e+00 2.260439e+00 2.213472e+00 -1.941610e+00 2.862490e-01 1.641253e-01 1.144955e-01 -8.109451e-02 2.940705e-01 -2.693245e-01 -2.747001e-02 -1.866625e-01 2.987536e-02 -8.995053e-02 1.780456e-01 1.856940e-01 -1.217838e-01 1.468961e-01 5.477361e-03 7.928101e-02 3.572595e-02 2.939466e-02 -3.572647e-04 -2.015936e-02 -1.211376e-01 -2.066737e-02 6.408761e-02 5.998247e-02 9.051705e-03 2.614585e-02 3.353875e-02 4.363481e-03
<VARIANCE> 39
 3.969063e+01 1.904193e+02 1.273837e+02 8.680154e+01 1.136718e+02 1.141967e+02 1.032728e+02 6.684562e+01 7.926097e+01 4.451908e+01 6.819538e+01 4.670571e+01 1.507219e-01 2.288608e+00 4.862098e+00 1.129980e+01 6.245257e+00 1.086530e+01 9.823073e+00 7.622877e+00 6.026098e+00 5.221462e+00 4.388420e+00 6.311002e+00 3.054399e+00 6.396339e-03 4.523674e-01 6.194737e-01 2.157489e+00 1.025959e+00 2.143714e+00 1.674436e+00 1.457276e+00 1.264792e+00 9.981534e-01 8.492832e-01 1.352458e+00 5.813722e-01 8.843354e-04
<GCONST> 1.327498e+02
<STATE> 5
<MEAN> 39
 -6.711839e+00 -4.712541e+00 -2.049018e+00 -5.203440e+00 -2.194183e+01 -2.176926e+01 -4.828899e+00 -1.303050e+01 1.268083e+01 8.026124e+00 -4.057642e-01 1.039286e+01 5.327442e-01 1.867939e-01 8.609128e-01 -1.942503e-01 7.051485e-01 -1.356467e+00 7.401609e-02 -5.177432e-01 -3.160309e-01 6.345731e-01 2.537570e-01 -3.899400e-01 1.926270e-01 2.154302e-02 -2.255952e-01 -2.483309e-01 -8.592682e-02 1.005533e-01 3.454198e-01 7.270812e-01 9.677882e-02 1.521442e-02 -1.422721e-01 -1.736601e-01 -1.874587e-01 -3.304865e-02 -7.806556e-03
<VARIANCE> 39
 1.159186e+02 2.729720e+01 5.905812e+01 7.105673e+01 2.061475e+02 2.044299e+02 1.869583e+02 2.108978e+02 8.615719e+01 8.290531e+01 4.211751e+01 1.258329e+02 3.310319e-02 1.131663e+01 2.724975e+00 5.741710e+00 3.691782e+00 1.366493e+01 2.499289e+01 1.532661e+01 1.246895e+01 3.324688e+00 6.207023e+00 6.006277e+00 5.385521e+00 4.518842e-03 1.069384e+00 5.841628e-01 1.053013e+00 7.050877e-01 2.921752e+00 1.325506e+00 2.219592e+00 1.708597e+00 5.935110e-01 1.184542e+00 8.079700e-01 7.302030e-01 6.171650e-04
<GCONST> 1.356724e+02
<STATE> 6
<MEAN> 39
 -1.398820e+01 -6.105525e+00 -1.796612e+00 -4.375745e+00 -1.367712e+01 -4.048006e+00 -4.007521e+00 -9.118891e+00 3.565865e+00 -4.561278e-01 -6.092116e+00 -2.228723e+00 4.208755e-01 -6.355885e-02 -3.850619e-02 1.255145e-01 1.373340e-01 4.583513e-01 1.921566e-01 1.484376e-01 1.859565e-01 -2.744727e-01 -7.060710e-02 1.737542e-01 -2.474634e-02 -3.338134e-04 4.539003e-03 2.021340e-02 6.230356e-02 -2.375599e-03 5.292965e-02 -1.147182e-02 4.326298e-02 2.436647e-03 -7.155873e-02 1.160315e-02 8.839424e-02 -1.649972e-02 3.775372e-03
<VARIANCE> 39
 8.189297e+01 4.370809e+01 3.708896e+01 5.389534e+01 1.152486e+02 1.388192e+02 4.133739e+01 7.787975e+01 6.686916e+01 6.211379e+01 3.888433e+01 6.364773e+01 5.677134e-02 8.422491e-01 9.188848e-01 1.454806e+00 1.523389e+00 2.860230e+00 2.548046e+00 2.165524e+00 3.138592e+00 2.874246e+00 2.502903e+00 2.622532e+00 2.563867e+00 4.188152e-03 1.133855e-01 1.222653e-01 2.199324e-01 2.392867e-01 3.792776e-01 3.882267e-01 4.229598e-01 5.014638e-01 4.547521e-01 3.979058e-01 4.702951e-01 4.581235e-01 4.164074e-04
<GCONST> 9.962244e+01
<TRANSP> 7
 0.000000e+00 1.000000e+00 0.000000e+00 0.000000e+00 0.000000e+00 0.000000e+00 0.000000e+00
 0.000000e+00 9.383469e-01 6.165307e-02 0.000000e+00 0.000000e+00 0.000000e+00 0.000000e+00
 0.000000e+00 0.000000e+00 9.539599e-01 4.604012e-02 0.000000e+00 0.000000e+00 0.000000e+00
 0.000000e+00 0.000000e+00 0.000000e+00 9.545514e-01 4.544865e-02 0.000000e+00 0.000000e+00
 0.000000e+00 0.000000e+00 0.000000e+00 0.000000e+00 8.721775e-01 1.278225e-01 0.000000e+00
 0.000000e+00 0.000000e+00 0.000000e+00 0.000000e+00 0.000000e+00 9.740705e-01 2.592944e-02
 0.000000e+00 0.000000e+00 0.000000e+00 0.000000e+00 0.000000e+00 0.000000e+00 0.000000e+00
<ENDHMM>
