~o
<STREAMINFO> 1 39
<VECSIZE> 39<NULLD><MFCC_E_D_A><DIAGC>
~h "LOPATA"
<BEGINHMM>
<NUMSTATES> 7
<STATE> 2
<MEAN> 39
 3.059886e+00 -1.642170e+01 -2.017713e+01 -3.640277e+00 -5.978074e+00 -1.708434e+01 -2.043812e+00 1.127116e+01 1.701676e+01 -4.963500e+00 -7.086462e+00 2.336463e+00 6.435789e-01 1.394395e+00 -2.670344e-01 -1.845139e+00 -1.025266e+00 1.189155e+00 -2.249686e+00 -6.711587e-01 -1.952192e-01 1.332741e+00 -8.206838e-02 -1.570923e+00 -8.020690e-01 -2.614718e-02 -5.750939e-01 2.606845e-01 3.555293e-01 3.195447e-02 9.966886e-02 8.170791e-01 6.219990e-02 -2.572762e-01 -4.747311e-01 2.173734e-01 4.160312e-01 1.390056e-01 3.382247e-03
<VARIANCE> 39
 4.331694e+01 5.789815e+01 1.706971e+02 3.031355e+01 9.802950e+01 9.454290e+01 6.538203e+01 8.903616e+01 1.852928e+02 2.126499e+01 5.462165e+01 2.753869e+01 1.166556e-02 4.680226e+00 4.224486e+00 4.443111e+00 2.962980e+00 1.047283e+01 1.408608e+01 8.605347e+00 1.058533e+01 7.631791e+00 2.844174e+00 6.388506e+00 2.757724e+00 2.094291e-03 3.129576e-01 3.744666e-01 5.802752e-01 2.567463e-01 2.072351e+00 1.056363e+00 1.713422e+00 1.953033e+00 6.540574e-01 6.148278e-01 7.688811e-01 4.097749e-01 4.771986e-04
<GCONST> 1.200791e+02
<STATE> 3
<MEAN> 39
 -2.905746e+00 -8.543601e+00 -8.218920e+00 -1.377581e+01 -3.753671e+00 -1.353401e+01 -6.865459e+00 -4.137723e+00 4.215133e+00 -1.856617e+00 -9.099115e+00 -5.916910e+00 5.735109e-01 -1.181718e-01 -2.972540e-01 -1.442669e-01 -2.284410e-02 2.888008e-01 2.402847e-01 9.960883e-02 -2.145023e-01 -3.708863e-01 1.609221e-02 6.593812e-02 1.325625e-01 -1.661551e-03 -7.568284e-03 -8.226445e-02 -3.383218e-02 2.022803e-01 3.448797e-02 1.423180e-01 7.258318e-02 6.121728e-02 -1.921861e-01 3.554600e-03 2.126267e-01 1.091114e-01 4.595381e-03
<VARIANCE> 39
 2.425198e+01 2.088091e+01 5.644710e+01 2.506470e+01 6.882314e+01 3.764075e+01 3.696231e+01 3.745228e+01 3.228042e+01 2.604548e+01 3.229409e+01 2.685351e+01 2.370762e-02 7.058408e-01 1.372150e+00 3.725125e+00 2.811176e+00 2.832077e+00 3.208926e+00 2.299295e+00 2.614935e+00 4.084340e+00 3.180143e+00 3.139576e+00 2.487470e+00 2.602180e-03 1.292080e-01 2.052002e-01 5.564979e-01 5.550908e-01 4.810374e-01 5.975754e-01 4.076778e-01 4.814349e-01 6.173301e-01 6.139561e-01 5.758114e-01 3.947674e-01 3.225562e-04
<GCONST> 9.682445e+01
<STATE> 4
<MEAN> 39
 -2.256982e+00 -2.918307e+01 -1.987350e+01 4.007069e+00 -3.473660e+00 -1.726811e+00 1.270513e+01 -4.922881e+00 3.385216e+00 -5.387575e+00 -2.857455e+00 4.346683e+00 4.842407e-01 -1.491655e-01 -5.223500e-01 2.741561e-01 4.528025e-01 8.004396e-02 5.089318e-01 4.810199e-01 -4.937876e-01 -8.627341e-01 8.577989e-02 3.190464e-01 8.375088e-02 3.807825e-03 9.093928e-03 3.284691e-02 -5.900308e-03 9.796853e-03 -4.539053e-02 -5.256367e-02 4.882198e-02 3.012768e-03 6.202378e-02 3.116136e-02 -2.236689e-03 -5.810569e-02 -6.152535e-06
<VARIANCE> 39
 1.854700e+01 5.937531e+01 7.987502e+01 9.842677e+01 6.889056e+01 8.482639e+01 1.530539e+02 1.299678e+02 9.268560e+01 4.537551e+01 5.116054e+01 2.878855e+01 6.281757e-02 1.459136e+00 2.910244e+00 5.579949e+00 7.234496e+00 7.123032e+00 5.635629e+00 7.352574e+00 6.267726e+00 6.525074e+00 4.824585e+00 6.058521e+00 2.773466e+00 6.289929e-03 2.976213e-01 3.855087e-01 9.637566e-01 1.057914e+00 1.180877e+00 1.148624e+00 1.158065e+00 7.973258e-01 1.052051e+00 1.010238e+00 1.240998e+00 6.126230e-01 8.450547e-04
<GCONST> 1.237533e+02
<STATE> 5
<MEAN> 39
 -4.131760e+00 -1.536187e+01 -6.244560e+00 -7.819352e+00 -3.023844e+00 -8.196371e+00 -1.928133e+00 -6.896060e+00 -1.150407e+01 -1.385630e+00 -1.523922e+00 -2.133308e+00 6.049680e-01 -6.692582e-02 1.492009e-01 1.943304e-01 2.178587e-01 -1.251253e-01 1.238149e-01 1.003721e-02 -3.412819e-01 -6.673577e-03 5.408415e-02 -2.441971e-03 -9.459928e-02 -9.412711e-03 -6.632000e-02 1.238018e-01 1.051959e-01 -3.625470e-02 -1.199393e-02 3.921371e-02 8.652253e-03 2.497449e-02 1.761497e-01 -1.734625e-03 -1.009747e-01 5.210231e-03 -6.688480e-04
<VARIANCE> 39
 1.913821e+01 2.002663e+01 4.494039e+01 3.988918e+01 3.768452e+01 2.592249e+01 2.853324e+01 5.190778e+01 3.854317e+01 3.953926e+01 3.687397e+01 1.668244e+01 2.640301e-02 7.163700e-01 9.104039e-01 1.367753e+00 2.349374e+00 2.481576e+00 2.422427e+00 2.051458e+00 2.728358e+00 3.801487e+00 4.096466e+00 2.519448e+00 1.699976e+00 1.307276e-03 1.693624e-01 2.087697e-01 3.118004e-01 4.375311e-01 6.152029e-01 5.070754e-01 3.446351e-01 7.063301e-01 6.985037e-01 7.965390e-01 4.510764e-01 3.362406e-01 2.995988e-04
<GCONST> 9.273767e+01
<STATE> 6
<MEAN> 39
 -9.603212e+00 -1.251915e+01 -3.550723e+00 1.186787e+00 -1.663630e+00 -5.405516e-01 3.870006e+00 -6.383309e+00 -5.956820e+00 2.957728e+00 -3.401140e-01 9.070252e-01 5.978140e-01 -2.225464e+00 3.649638e+00 3.123754e+00 -5.835938e-01 3.079789e-01 2.312650e-01 -7.989010e-01 3.384432e+00 1.724787e+00 1.648093e+00 8.890309e-01 8.053648e-01 1.260959e-01 -3.194182e-01 3.611065e-01 3.099491e-01 -3.237504e-01 1.038576e-01 -4.060370e-02 -3.914362e-01 5.824107e-01 7.588624e-02 7.194309e-02 3.114563e-01 1.362256e-01 3.417932e-02
<VARIANCE> 39
 3.075490e+01 1.178031e+02 1.248527e+02 5.809074e+01 9.622294e+00 2.622877e+01 1.235854e+02 8.209621e+01 4.227452e+01 3.145385e+01 1.435141e+01 3.566022e+01 1.115108e-01 2.177671e+00 5.788115e+00 6.800658e+00 6.568592e+00 2.050140e+00 3.712485e+00 1.181450e+01 5.243346e+00 2.775766e+00 3.074946e+00 2.434193e+00 3.157191e+00 7.034268e-03 2.471544e-01 9.768305e-01 1.303993e+00 5.502718e-01 2.057693e-01 2.997621e-01 9.388958e-01 9.248848e-01 4.913449e-01 6.510851e-01 4.555647e-01 5.700868e-01 9.778448e-04
<GCONST> 1.123719e+02
<TRANSP> 7
 0.000000e+00 1.000000e+00 0.000000e+00 0.000000e+00 0.000000e+00 0.000000e+00 0.000000e+00
 0.000000e+00 8.218259e-01 1.781742e-01 0.000000e+00 0.000000e+00 0.000000e+00 0.000000e+00
 0.000000e+00 0.000000e+00 9.330240e-01 6.697594e-02 0.000000e+00 0.000000e+00 0.000000e+00
 0.000000e+00 0.000000e+00 0.000000e+00 9.308273e-01 6.917270e-02 0.000000e+00 0.000000e+00
 0.000000e+00 0.000000e+00 0.000000e+00 0.000000e+00 9.495288e-01 5.047119e-02 0.000000e+00
 0.000000e+00 0.000000e+00 0.000000e+00 0.000000e+00 0.000000e+00 7.673281e-01 2.326719e-01
 0.000000e+00 0.000000e+00 0.000000e+00 0.000000e+00 0.000000e+00 0.000000e+00 0.000000e+00
<ENDHMM>
