~o
<STREAMINFO> 1 39
<VECSIZE> 39<NULLD><MFCC_E_D_A><DIAGC>
~h "LOPATA"
<BEGINHMM>
<NUMSTATES> 7
<STATE> 2
<MEAN> 39
 -1.720242e+01 -6.603714e+00 -8.108871e+00 -2.136487e+00 -8.291881e+00 4.964623e+00 -2.328063e+00 -3.282664e+00 2.500756e+00 -2.511995e+00 -4.196019e-02 -2.843852e+00 7.139015e-02 5.080777e-01 -3.397657e-01 -2.984456e-01 -3.448649e-01 -1.368846e-01 -1.018662e+00 -1.528905e-01 -5.132497e-02 2.095491e-02 -2.326956e-01 -6.897301e-01 -2.787836e-01 -2.683171e-02 1.747091e-01 -1.936860e-01 6.496375e-02 2.441118e-02 -1.171803e-01 -8.111154e-02 -3.104049e-02 3.557226e-01 6.822536e-02 4.972898e-03 5.006836e-02 1.463298e-01 1.727483e-02
<VARIANCE> 39
 4.995055e+01 9.903126e+01 8.057466e+01 9.466882e+01 7.712738e+01 1.536660e+02 9.005817e+01 1.257994e+02 7.071152e+01 4.936316e+01 8.023138e+01 4.600685e+01 9.635152e-02 4.003696e+00 5.779295e+00 5.536451e+00 8.089940e+00 7.571220e+00 9.508630e+00 9.913134e+00 1.076784e+01 5.958127e+00 4.738713e+00 8.036362e+00 5.625175e+00 9.384881e-03 3.573539e-01 9.974479e-01 8.688704e-01 1.304372e+00 1.080097e+00 1.179226e+00 1.754205e+00 1.076213e+00 1.169079e+00 7.232216e-01 1.226845e+00 9.534150e-01 8.977918e-04
<GCONST> 1.331883e+02
<STATE> 3
<MEAN> 39
 2.452048e+00 -1.320737e+01 -1.646396e+01 -6.852346e+00 -2.759265e-01 -1.571644e+01 -4.656942e+00 3.798531e+00 9.217291e+00 -3.893332e+00 -8.507366e+00 -1.457828e+00 6.813626e-01 7.332360e-02 -5.965799e-01 -7.814487e-02 -5.419265e-03 6.604773e-01 5.638655e-02 1.744827e-01 -4.296358e-01 -2.601560e-01 -1.599347e-01 3.014482e-02 2.103668e-01 1.871280e-02 -1.414020e-01 5.420538e-03 5.146578e-02 1.259620e-01 1.320437e-02 1.924688e-01 2.301974e-01 -1.261174e-01 -1.105483e-01 4.174016e-02 1.325939e-01 -7.348528e-03 -2.827370e-03
<VARIANCE> 39
 1.953601e+01 8.937823e+01 1.763346e+02 7.260434e+01 7.431186e+01 5.870930e+01 7.157279e+01 1.058310e+02 1.360216e+02 3.402595e+01 4.166333e+01 5.153711e+01 4.794544e-02 1.659547e+00 3.177791e+00 4.954994e+00 3.597103e+00 5.839695e+00 5.342830e+00 6.272640e+00 7.064197e+00 4.820118e+00 3.175966e+00 4.234619e+00 3.004184e+00 6.302314e-03 2.691339e-01 4.542126e-01 9.302613e-01 5.973250e-01 1.241071e+00 7.481691e-01 1.056212e+00 1.249862e+00 5.384836e-01 6.772909e-01 7.873341e-01 4.953127e-01 8.722101e-04
<GCONST> 1.194866e+02
<STATE> 4
<MEAN> 39
 -7.146729e+00 -2.748848e+01 -1.664357e+01 6.152980e+00 -4.324420e+00 2.003943e+00 1.677010e+01 -6.844301e+00 -4.885282e+00 -2.844493e+00 -1.908264e-01 2.862358e+00 3.870179e-01 -3.526328e-01 4.181263e-01 2.321187e-01 7.878941e-02 -1.148647e-01 5.404681e-02 -1.361317e-01 -3.184732e-02 -3.972365e-01 2.038831e-01 1.922527e-01 -1.854999e-01 -1.631097e-02 7.403567e-03 6.800573e-02 2.328988e-02 -1.489523e-02 -1.195557e-02 2.271875e-02 -7.739598e-02 1.002392e-01 7.480823e-02 3.567204e-02 -6.072701e-02 -2.577526e-02 7.176917e-04
<VARIANCE> 39
 5.118568e+01 6.216376e+01 4.783382e+01 7.561626e+01 7.618156e+01 6.246776e+01 8.849229e+01 1.222112e+02 1.384617e+02 5.407923e+01 7.770145e+01 4.507587e+01 1.212287e-01 8.958091e-01 1.208965e+00 3.775889e+00 5.222898e+00 6.454632e+00 5.226478e+00 5.615142e+00 5.730663e+00 6.295394e+00 4.070049e+00 5.217184e+00 3.252050e+00 2.517971e-03 1.600984e-01 2.268032e-01 7.662824e-01 8.221713e-01 1.041606e+00 1.112777e+00 8.940066e-01 9.169922e-01 1.137719e+00 8.585367e-01 1.111783e+00 6.724601e-01 3.762376e-04
<GCONST> 1.187778e+02
<STATE> 5
<MEAN> 39
 -8.101073e+00 -1.439491e+01 -6.310260e+00 -1.039273e+01 -6.344162e+00 -9.640086e+00 -3.358334e+00 -7.852058e+00 -4.755160e+00 -3.539404e+00 -3.941367e+00 -3.995281e+00 5.565081e-01 2.021929e-02 6.403042e-02 3.862710e-02 3.192375e-02 -2.918543e-02 4.044863e-02 3.739513e-02 -4.435293e-02 4.443810e-02 8.448615e-02 2.204856e-02 -2.246705e-02 -9.447738e-04 2.559503e-04 1.947862e-02 6.837878e-03 1.002637e-02 1.708318e-02 1.787401e-02 -4.641731e-03 1.177370e-02 3.623962e-02 -1.599110e-02 3.113673e-03 2.323027e-02 3.188724e-04
<VARIANCE> 39
 3.161259e+01 1.087981e+01 3.316546e+01 2.897950e+01 2.911542e+01 2.339041e+01 2.232263e+01 3.812860e+01 8.204055e+01 4.287022e+01 4.199404e+01 2.051745e+01 4.360946e-02 7.706574e-01 8.958989e-01 2.106393e+00 1.759753e+00 1.961712e+00 2.280254e+00 1.922685e+00 2.551049e+00 4.021500e+00 3.976188e+00 2.617192e+00 1.949946e+00 1.735855e-03 1.320580e-01 1.410535e-01 3.086646e-01 3.090546e-01 4.031725e-01 4.780932e-01 3.682199e-01 5.422499e-01 6.855820e-01 7.514998e-01 5.065626e-01 3.950698e-01 2.155115e-04
<GCONST> 9.121654e+01
<STATE> 6
<MEAN> 39
 -1.173140e+01 -1.053450e+01 -1.194950e+00 -4.602589e+00 -3.971385e+00 -6.149321e+00 -2.967904e+00 -8.223783e+00 -1.670666e+00 -5.153434e+00 -4.272310e+00 -4.516222e+00 3.191382e-01 -4.441369e-02 3.361294e-01 2.630086e-01 2.993038e-02 7.384628e-02 1.657902e-01 1.423333e-02 1.173756e-01 2.145617e-01 1.716499e-01 1.579259e-01 1.510307e-01 1.391738e-02 3.181324e-02 2.124038e-02 3.595242e-02 -3.248864e-04 3.473273e-02 9.533576e-03 4.967494e-02 7.182568e-03 -8.676482e-02 4.627181e-02 5.809950e-02 4.472382e-02 6.562075e-03
<VARIANCE> 39
 5.187549e+01 3.297477e+01 1.615273e+01 3.999307e+01 2.350428e+01 2.732493e+01 1.997302e+01 3.122772e+01 2.490586e+01 4.045034e+01 2.901184e+01 1.914068e+01 5.750133e-02 4.706759e-01 1.127999e+00 1.861342e+00 1.213510e+00 1.163175e+00 1.772967e+00 1.881754e+00 2.482797e+00 2.300038e+00 2.720127e+00 2.700515e+00 1.745657e+00 5.148311e-03 5.470870e-02 1.184026e-01 1.814770e-01 1.455021e-01 1.926938e-01 3.332241e-01 3.505082e-01 3.691916e-01 3.665799e-01 4.127111e-01 5.350518e-01 3.267632e-01 3.994921e-04
<GCONST> 8.451240e+01
<TRANSP> 7
 0.000000e+00 1.000000e+00 0.000000e+00 0.000000e+00 0.000000e+00 0.000000e+00 0.000000e+00
 0.000000e+00 9.237095e-01 7.629057e-02 0.000000e+00 0.000000e+00 0.000000e+00 0.000000e+00
 0.000000e+00 0.000000e+00 9.401503e-01 5.984977e-02 0.000000e+00 0.000000e+00 0.000000e+00
 0.000000e+00 0.000000e+00 0.000000e+00 9.506342e-01 4.936577e-02 0.000000e+00 0.000000e+00
 0.000000e+00 0.000000e+00 0.000000e+00 0.000000e+00 9.742342e-01 2.576581e-02 0.000000e+00
 0.000000e+00 0.000000e+00 0.000000e+00 0.000000e+00 0.000000e+00 9.545533e-01 4.544672e-02
 0.000000e+00 0.000000e+00 0.000000e+00 0.000000e+00 0.000000e+00 0.000000e+00 0.000000e+00
<ENDHMM>
