~o
<STREAMINFO> 1 39
<VECSIZE> 39<NULLD><MFCC_E_D_A><DIAGC>
~h "LOPATA"
<BEGINHMM>
<NUMSTATES> 7
<STATE> 2
<MEAN> 39
 8.915214e-01 -1.147398e+01 -1.420173e+01 -1.107817e+01 -4.015002e+00 -1.755939e+01 -6.641008e+00 2.464080e+00 9.645478e+00 -2.088639e+00 -9.886871e+00 -3.520772e+00 7.973056e-01 1.516412e-01 2.583961e-01 -5.153764e-01 8.925948e-03 8.165612e-01 2.670518e-01 1.762285e-01 -3.912611e-01 4.913718e-01 3.379994e-01 4.916667e-02 -2.640811e-01 5.785149e-03 -1.001385e-01 3.722338e-02 8.692405e-02 2.101908e-02 -1.080956e-01 1.410031e-01 6.322458e-02 -1.597610e-01 -1.650762e-01 -1.425943e-01 4.819410e-03 3.526765e-02 -6.712178e-03
<VARIANCE> 39
 2.744030e+01 5.561949e+01 1.134078e+02 5.691154e+01 8.877346e+01 3.662425e+01 5.716211e+01 1.192895e+02 1.152224e+02 2.792891e+01 2.925589e+01 4.511261e+01 1.314424e-02 4.512396e-01 1.327551e+00 4.209440e+00 1.841794e+00 4.011096e+00 2.983755e+00 3.482334e+00 5.393333e+00 3.146403e+00 3.152310e+00 3.333203e+00 1.939741e+00 1.357401e-03 9.312014e-02 2.109964e-01 6.579111e-01 4.045630e-01 5.258324e-01 3.954111e-01 6.763372e-01 8.102443e-01 4.824406e-01 6.006133e-01 6.236288e-01 3.548766e-01 1.162071e-04
<GCONST> 1.009014e+02
<STATE> 3
<MEAN> 39
 -3.342916e+00 -1.093781e+01 -1.286534e+01 -9.196829e+00 -4.687869e+00 -1.075413e+01 -4.095380e+00 -2.972179e+00 5.403372e+00 -3.827050e+00 -5.987293e+00 -3.406108e+00 5.533503e-01 -5.704526e-01 -9.278265e-01 2.468442e-01 1.549904e-01 3.057775e-02 4.287593e-01 -1.844551e-01 1.942413e-01 -1.536357e+00 -7.833732e-02 4.852823e-01 7.098412e-01 -5.183805e-03 1.744408e-01 -3.366459e-01 -1.525049e-01 1.606495e-01 2.555218e-01 -7.833207e-02 8.307617e-02 7.705794e-02 -1.704645e-01 5.439183e-02 8.866780e-02 1.709189e-02 1.730932e-02
<VARIANCE> 39
 3.153054e+01 2.367260e+01 1.955999e+02 6.251342e+01 4.592929e+01 1.694117e+01 2.416066e+01 7.346098e+01 6.264986e+01 3.623542e+01 4.553611e+01 2.912309e+01 2.853005e-02 1.100283e+00 1.429156e+00 3.796746e+00 2.979775e+00 3.492853e+00 2.506767e+00 3.110778e+00 3.195657e+00 4.194569e+00 3.690471e+00 2.493143e+00 2.400629e+00 5.289379e-03 1.628044e-01 2.331696e-01 5.241621e-01 6.356058e-01 5.659352e-01 3.187937e-01 6.047787e-01 6.424549e-01 6.868021e-01 7.385098e-01 6.676986e-01 4.239369e-01 5.909647e-04
<GCONST> 1.034320e+02
<STATE> 4
<MEAN> 39
 -2.986223e+00 -3.001842e+01 -1.763117e+01 4.551545e+00 -2.999694e+00 -3.875620e-01 1.512526e+01 -6.657925e+00 1.759932e+00 -5.656650e+00 -3.062198e+00 4.834630e+00 6.908622e-01 -2.377040e-02 -4.788239e-01 3.191296e-01 3.273499e-01 1.661782e-01 3.433317e-01 5.602921e-01 -5.339708e-01 -7.040110e-01 1.548070e-01 1.017675e-01 1.050180e-01 1.183781e-02 -3.122299e-02 1.337137e-01 -4.445593e-02 -2.554370e-02 -7.739586e-02 -5.377959e-02 -2.888892e-02 6.699537e-03 3.570158e-02 1.032879e-01 6.462118e-02 -3.140197e-02 -5.070330e-03
<VARIANCE> 39
 2.059398e+01 3.074556e+01 5.313376e+01 9.126025e+01 6.589165e+01 6.727014e+01 1.283479e+02 1.215282e+02 9.244546e+01 3.883860e+01 5.242854e+01 2.643968e+01 5.883661e-02 1.808104e+00 2.855996e+00 5.018694e+00 6.072529e+00 6.752223e+00 5.583622e+00 7.492406e+00 5.888988e+00 6.667774e+00 4.612098e+00 6.535327e+00 2.674114e+00 6.360605e-03 3.600103e-01 3.330555e-01 8.853589e-01 8.411052e-01 1.131077e+00 1.172997e+00 1.055208e+00 7.839873e-01 1.109007e+00 8.057161e-01 1.240138e+00 6.046125e-01 7.042962e-04
<GCONST> 1.209764e+02
<STATE> 5
<MEAN> 39
 -5.124543e+00 -1.619131e+01 -7.823964e+00 -8.660508e+00 -3.962951e+00 -7.862414e+00 -1.136366e+00 -5.989991e+00 -1.139694e+01 -1.000502e+00 -5.124692e-01 -1.709787e+00 7.613018e-01 -7.613280e-02 3.721972e-02 2.661770e-01 6.002122e-02 -1.946081e-01 1.207929e-01 4.018434e-02 -3.393545e-01 -9.841893e-03 2.411896e-01 -7.165831e-02 -1.593490e-01 -7.697279e-03 -1.141622e-02 8.649831e-02 5.692272e-02 -2.818158e-02 -1.102537e-02 2.187793e-02 -2.910180e-02 2.779776e-03 1.335983e-01 -8.625158e-02 -1.130761e-01 -5.067526e-03 -2.931500e-03
<VARIANCE> 39
 1.852965e+01 1.608436e+01 3.841381e+01 3.613852e+01 3.960519e+01 2.340831e+01 2.847037e+01 4.897861e+01 4.268128e+01 4.578637e+01 3.331221e+01 1.886886e+01 2.210057e-02 7.942221e-01 8.672515e-01 1.401418e+00 2.362217e+00 2.744362e+00 2.625728e+00 2.098974e+00 2.593792e+00 4.255829e+00 4.473483e+00 2.472611e+00 1.980727e+00 1.464235e-03 1.615010e-01 1.732797e-01 2.647271e-01 4.227669e-01 6.871955e-01 5.727491e-01 3.345793e-01 5.406514e-01 8.100547e-01 8.627123e-01 4.641274e-01 3.544313e-01 2.365383e-04
<GCONST> 9.247311e+01
<STATE> 6
<MEAN> 39
 -1.783257e+00 -1.666563e+01 -4.365591e+00 -1.156935e+00 -1.122665e+00 -4.605579e+00 3.944034e-01 -9.547014e+00 -9.865845e+00 -2.757915e+00 -5.558246e+00 -3.093097e+00 6.814378e-01 -8.087830e-02 6.356959e-01 -1.802368e-01 5.552399e-01 4.848583e-02 3.684173e-01 2.011519e-01 1.544986e-01 2.487637e-01 -4.341174e-01 1.231123e-01 -1.303606e-01 -2.588754e-02 -5.204634e-02 -1.141020e-02 1.274877e-03 -1.687874e-01 -1.219626e-01 9.588936e-02 7.139832e-02 3.991772e-02 1.128532e-01 6.077468e-02 -1.188342e-02 -8.559095e-02 -1.845595e-04
<VARIANCE> 39
 1.068305e+01 9.620094e+01 7.685223e+01 7.580430e+01 1.711648e+01 8.608599e+01 1.131944e+02 5.145157e+01 4.425768e+01 2.059172e+01 1.952089e+01 2.655994e+01 3.249465e-02 2.288574e-01 7.833619e-01 1.404299e+00 1.524028e+00 8.277711e-01 1.236863e+00 1.116878e+00 2.782919e+00 2.235175e+00 1.752255e+00 2.160957e+00 1.738215e+00 4.206081e-04 2.439894e-02 1.078877e-01 1.434377e-01 1.931958e-01 1.156427e-01 1.541914e-01 2.234949e-01 5.019208e-01 3.632595e-01 3.439298e-01 3.706163e-01 2.224386e-01 4.205521e-05
<GCONST> 7.760866e+01
<TRANSP> 7
 0.000000e+00 1.000000e+00 0.000000e+00 0.000000e+00 0.000000e+00 0.000000e+00 0.000000e+00
 0.000000e+00 9.278665e-01 7.213359e-02 0.000000e+00 0.000000e+00 0.000000e+00 0.000000e+00
 0.000000e+00 0.000000e+00 8.788284e-01 1.211716e-01 0.000000e+00 0.000000e+00 0.000000e+00
 0.000000e+00 0.000000e+00 0.000000e+00 9.181222e-01 8.187785e-02 0.000000e+00 0.000000e+00
 0.000000e+00 0.000000e+00 0.000000e+00 0.000000e+00 9.365346e-01 6.346540e-02 0.000000e+00
 0.000000e+00 0.000000e+00 0.000000e+00 0.000000e+00 0.000000e+00 8.529981e-01 1.470019e-01
 0.000000e+00 0.000000e+00 0.000000e+00 0.000000e+00 0.000000e+00 0.000000e+00 0.000000e+00
<ENDHMM>
