~o
<STREAMINFO> 1 39
<VECSIZE> 39<NULLD><MFCC_E_D_A><DIAGC>
~h "PES"
<BEGINHMM>
<NUMSTATES> 7
<STATE> 2
<MEAN> 39
 -1.717795e+01 -9.260589e+00 -2.359968e+00 -3.848913e+00 -2.317528e+00 -6.268058e+00 3.288084e-01 3.135346e-01 1.177829e+00 -3.538760e+00 -3.513693e+00 2.182720e-01 3.276319e-01 -1.409059e-01 -4.230593e-01 2.636891e-01 -1.010833e+00 3.542171e-01 -1.163021e+00 -4.294410e-01 -9.000578e-01 -5.203155e-01 -3.719271e-01 -1.103605e+00 -6.468497e-01 -4.890455e-02 1.604882e-01 -1.827568e-02 3.079108e-03 1.417300e-01 -2.148053e-01 5.003080e-01 1.106820e-01 4.231769e-01 -1.409837e-02 8.480334e-02 3.323828e-01 1.946196e-01 1.921149e-02
<VARIANCE> 39
 1.122967e+02 5.638301e+01 7.430877e+01 9.521284e+01 5.299387e+01 6.232213e+01 6.994872e+01 7.962543e+01 6.751057e+01 2.284316e+01 4.997820e+01 5.450164e+01 1.407483e-01 4.581184e+00 3.691980e+00 3.550691e+00 5.461212e+00 4.681880e+00 7.999126e+00 5.183335e+00 6.162672e+00 4.114803e+00 2.448157e+00 4.306564e+00 4.231306e+00 1.083070e-02 5.215529e-01 6.816426e-01 5.519881e-01 8.376782e-01 6.878027e-01 9.740275e-01 7.127896e-01 6.416257e-01 7.683681e-01 4.637401e-01 5.250945e-01 6.469966e-01 1.209839e-03
<GCONST> 1.210623e+02
<STATE> 3
<MEAN> 39
 -1.421888e+01 -6.521110e+00 -2.864667e+00 -7.106352e+00 -5.368703e+00 -3.104954e+00 -3.050159e+00 -4.966439e+00 7.297941e-02 -3.856686e+00 -3.895077e+00 -1.146267e+00 2.366991e-01 1.073555e-02 1.550036e-01 -1.115177e-01 1.401348e-01 -7.689338e-02 7.274398e-02 -3.086340e-02 -1.279534e-01 9.764308e-02 5.430685e-02 7.934383e-02 3.303684e-02 -6.348304e-03 7.504111e-03 -5.975941e-03 6.683773e-03 1.993249e-03 3.247594e-03 -1.379806e-02 1.568352e-02 -5.145078e-03 2.081569e-02 1.762126e-02 -4.423435e-03 -1.523253e-02 2.612153e-04
<VARIANCE> 39
 5.111850e+01 4.755513e+01 6.492167e+01 9.431816e+01 2.205907e+01 4.549817e+01 2.768371e+01 3.773064e+01 2.365409e+01 3.191208e+01 3.000967e+01 3.016031e+01 1.150269e-01 2.408390e-01 5.564200e-01 8.337252e-01 1.233754e+00 1.410020e+00 1.893233e+00 2.354446e+00 2.038597e+00 2.218044e+00 2.280423e+00 1.984540e+00 2.078732e+00 2.064465e-04 4.366877e-02 9.658439e-02 1.806432e-01 2.619298e-01 2.977590e-01 3.877272e-01 4.877274e-01 4.082032e-01 4.397517e-01 4.926119e-01 3.939517e-01 4.462718e-01 2.734140e-05
<GCONST> 8.238193e+01
<STATE> 4
<MEAN> 39
 -1.513972e+01 -1.375229e+01 -5.623952e+00 -1.350269e+01 -8.068191e+00 3.390592e+00 5.076116e+00 -7.416018e+00 1.987684e+00 5.065245e-01 -1.063314e+01 3.798918e+00 5.322681e-01 2.642041e-01 -8.482458e-01 -2.286379e-01 -1.664902e+00 4.859414e-02 8.404122e-01 8.602208e-01 2.273882e-01 -1.362830e-01 5.506002e-01 -7.157354e-01 3.927083e-01 7.672119e-02 -2.452752e-02 8.020713e-02 -7.945934e-02 -7.918603e-02 3.750779e-02 1.678767e-03 5.670312e-02 9.108014e-02 -3.378580e-02 -1.553445e-01 5.229110e-02 9.837949e-02 -1.349140e-03
<VARIANCE> 39
 2.495530e+01 8.127616e+01 3.277316e+01 9.979007e+01 5.076442e+01 1.204075e+02 1.398584e+02 3.274424e+01 5.546173e+01 4.988948e+01 1.165751e+02 1.026731e+02 1.683062e-01 2.371905e+00 6.556676e+00 4.196659e+00 6.112689e+00 5.859055e+00 7.519347e+00 9.278772e+00 4.917988e+00 5.026007e+00 5.945250e+00 1.245621e+01 7.155431e+00 9.115022e-03 5.097608e-01 8.200392e-01 7.336831e-01 1.174281e+00 1.133929e+00 1.479542e+00 1.882418e+00 7.303811e-01 1.079976e+00 1.179440e+00 2.267657e+00 1.198105e+00 1.860461e-03
<GCONST> 1.316193e+02
<STATE> 5
<MEAN> 39
 -1.440324e+01 -1.199257e+01 -4.782235e+00 -1.188450e+01 -9.971004e+00 -7.082479e+00 -3.424520e+00 -7.291653e+00 -1.897244e+00 -6.904742e+00 -8.767024e+00 -5.485798e+00 4.239306e-01 -3.884076e-02 -6.831326e-02 1.187143e-01 2.048134e-01 4.664234e-02 -1.247252e-01 2.953876e-02 -5.912676e-02 1.778501e-01 -1.952061e-01 1.750704e-02 -7.420301e-02 -7.081430e-03 1.326736e-02 -4.792556e-03 1.125988e-02 8.784520e-03 6.118190e-03 3.536983e-04 1.118064e-02 4.270685e-04 6.905393e-03 2.363506e-02 5.935263e-03 1.057815e-02 1.223570e-04
<VARIANCE> 39
 8.346786e+00 1.840757e+01 1.536166e+01 4.527545e+01 2.142673e+01 3.052838e+01 1.986839e+01 3.713140e+01 2.575153e+01 3.532402e+01 2.193698e+01 2.495452e+01 3.012551e-02 2.808296e-01 3.968428e-01 5.453621e-01 1.338656e+00 1.160766e+00 2.022047e+00 1.535889e+00 1.760040e+00 1.825619e+00 1.730384e+00 1.623500e+00 1.623662e+00 2.017689e-04 4.497604e-02 6.803833e-02 1.036923e-01 2.004539e-01 2.234411e-01 4.538237e-01 3.224412e-01 3.465614e-01 3.162979e-01 3.117971e-01 3.057541e-01 3.165194e-01 3.383732e-05
<GCONST> 6.982045e+01
<STATE> 6
<MEAN> 39
 -1.958445e+01 -1.208603e+01 -9.466296e-01 -1.264343e+01 -8.020417e+00 1.457177e+01 7.992841e+00 -4.584398e+00 5.074930e+00 -2.303616e+00 -1.599909e+01 8.547055e+00 4.470578e-01 4.438698e-02 6.383017e-01 4.507955e-01 5.822349e-01 3.089645e-01 1.204950e-01 -1.206000e-01 1.830264e-01 -3.117482e-01 4.647701e-01 4.853168e-01 1.223528e-01 1.259185e-02 1.332631e-02 1.187862e-01 3.492498e-02 7.238511e-02 9.427506e-02 -7.753670e-02 2.624144e-02 9.960619e-02 -7.631586e-02 1.095945e-01 8.143880e-02 -3.483534e-02 8.647944e-03
<VARIANCE> 39
 2.987007e+01 4.485628e+01 7.366622e+01 1.358973e+02 4.543860e+01 1.690439e+02 9.270522e+01 1.033691e+02 6.030379e+01 5.310065e+01 1.323626e+02 5.150613e+01 7.096824e-02 1.678393e+00 3.440990e+00 3.628341e+00 3.970803e+00 3.146754e+00 6.540022e+00 3.612481e+00 4.753781e+00 3.545159e+00 4.544363e+00 5.030534e+00 3.518320e+00 6.286572e-03 2.762806e-01 4.504777e-01 6.307160e-01 5.579935e-01 5.447110e-01 9.483113e-01 5.776608e-01 6.702126e-01 6.368980e-01 5.001439e-01 4.969710e-01 4.346832e-01 4.830998e-04
<GCONST> 1.162799e+02
<TRANSP> 7
 0.000000e+00 1.000000e+00 0.000000e+00 0.000000e+00 0.000000e+00 0.000000e+00 0.000000e+00
 0.000000e+00 8.833195e-01 1.166805e-01 0.000000e+00 0.000000e+00 0.000000e+00 0.000000e+00
 0.000000e+00 0.000000e+00 9.717125e-01 2.828747e-02 0.000000e+00 0.000000e+00 0.000000e+00
 0.000000e+00 0.000000e+00 0.000000e+00 8.532526e-01 1.467473e-01 0.000000e+00 0.000000e+00
 0.000000e+00 0.000000e+00 0.000000e+00 0.000000e+00 9.587664e-01 4.123360e-02 0.000000e+00
 0.000000e+00 0.000000e+00 0.000000e+00 0.000000e+00 0.000000e+00 9.353068e-01 6.469322e-02
 0.000000e+00 0.000000e+00 0.000000e+00 0.000000e+00 0.000000e+00 0.000000e+00 0.000000e+00
<ENDHMM>
