~o
<STREAMINFO> 1 39
<VECSIZE> 39<NULLD><MFCC_E_D_A><DIAGC>
~h "PES"
<BEGINHMM>
<NUMSTATES> 7
<STATE> 2
<MEAN> 39
 -1.154732e+01 -1.659892e+01 -2.901667e+00 -1.869078e+01 -4.856494e+00 5.856431e+00 8.798470e+00 -7.342598e+00 7.892110e-01 6.780784e-01 -1.477985e+01 5.218204e+00 8.325105e-01 1.538043e-02 2.907421e-01 1.415478e-01 -1.280709e+00 -1.428922e-01 2.626115e-03 -5.149188e-01 -2.071731e-01 6.291872e-02 -5.445569e-01 3.706232e-01 -4.897988e-01 4.598707e-02 -8.730552e-02 4.144807e-02 -3.309388e-02 1.879084e-01 -7.683126e-02 -6.795790e-02 -4.806808e-02 9.607466e-02 3.048650e-01 2.750799e-02 5.475235e-01 1.918884e-01 -1.066573e-02
<VARIANCE> 39
 3.466720e+01 6.423174e+01 2.748126e+01 6.041196e+01 3.694859e+01 1.086903e+02 1.764694e+02 2.270240e+01 5.804945e+01 2.720951e+01 1.137610e+02 1.496929e+02 4.677886e-02 9.810708e-01 2.805212e+00 3.488140e+00 5.363406e+00 5.939127e+00 4.709839e+00 4.961013e+00 3.169396e+00 5.510396e+00 2.995098e+00 8.006581e+00 4.740420e+00 4.019033e-03 1.550037e-01 3.971679e-01 3.279841e-01 8.316137e-01 8.382770e-01 3.910006e-01 5.306785e-01 3.920746e-01 4.694094e-01 4.083086e-01 5.736565e-01 7.769136e-01 5.021949e-04
<GCONST> 1.115611e+02
<STATE> 3
<MEAN> 39
 -8.852522e+00 -9.574064e+00 7.370473e-01 -2.405696e+01 -5.223492e+00 6.358339e-01 -6.051787e+00 -5.317839e+00 -4.323555e+00 -2.031590e+00 -7.561925e+00 -1.499702e+00 9.528513e-01 3.445510e-02 6.277950e-01 1.685344e-01 -1.414698e-02 7.094713e-02 3.902642e-02 -7.588021e-02 4.522322e-01 8.977066e-01 -9.654977e-02 5.482323e-03 9.238189e-02 -6.026500e-03 1.198319e-01 1.325802e-02 1.316751e-02 1.190549e-01 -1.602814e-01 -1.254993e-01 2.584995e-01 1.886093e-01 1.613724e-01 3.417665e-02 -1.727369e-01 -1.687324e-01 -3.758329e-03
<VARIANCE> 39
 1.509050e+01 1.165896e+01 1.073606e+02 2.806782e+01 5.798223e+01 1.629311e+01 4.380500e+01 1.473566e+01 5.482531e+01 1.771987e+01 1.564243e+01 3.439819e+01 1.111131e-03 4.260625e-01 4.983567e-01 6.754855e-01 1.261633e+00 2.621341e+00 1.527109e+00 1.693401e+00 1.404436e+00 1.554764e+00 9.617532e-01 1.225392e+00 1.888587e+00 1.500401e-04 6.534991e-02 1.072604e-01 2.056321e-01 2.328322e-01 4.293235e-01 2.616384e-01 3.285008e-01 2.078283e-01 2.959872e-01 1.941659e-01 2.674209e-01 2.435694e-01 3.971647e-05
<GCONST> 6.893253e+01
<STATE> 4
<MEAN> 39
 -7.472196e+00 -6.109924e+00 -1.007174e+00 -1.942773e+01 -9.905396e+00 -6.038083e-01 -1.479732e-01 -1.974649e+00 2.925318e+00 -1.518966e+00 -9.914699e+00 -3.145563e+00 8.273457e-01 -1.805577e-01 2.186643e-01 -4.997341e-01 1.266235e+00 -3.668622e-01 -1.113872e-01 5.023793e-01 1.135771e-01 -1.706049e-03 -4.454192e-01 1.887678e-01 -1.476536e-03 -3.342376e-02 -1.898681e-01 -6.665000e-02 -4.090538e-02 4.137770e-02 1.976682e-01 4.572276e-02 -3.687456e-01 -5.540152e-02 -3.700936e-01 -9.986629e-02 7.809014e-03 1.081775e-01 -3.990659e-03
<VARIANCE> 39
 1.954863e+01 1.053259e+01 6.537183e+01 3.630498e+01 3.519957e+01 3.360529e+01 3.994773e+01 1.661742e+01 4.594577e+01 1.380540e+01 2.870158e+01 3.156153e+01 9.844851e-03 7.408954e-01 3.965309e-01 6.601248e-01 1.898331e+00 1.059991e+00 2.259217e+00 2.322426e+00 2.395623e+00 2.665853e+00 2.160964e+00 1.833211e+00 1.836767e+00 6.502832e-04 9.131991e-02 8.948577e-02 1.529691e-01 2.946931e-01 2.469611e-01 4.963662e-01 4.115263e-01 3.997722e-01 5.021698e-01 4.036888e-01 4.629799e-01 1.974219e-01 1.060327e-04
<GCONST> 7.925803e+01
<STATE> 5
<MEAN> 39
 -2.059850e+01 -1.195112e+01 -7.188365e+00 -1.598589e+01 -6.591599e+00 1.237277e+01 1.003720e+01 2.210849e+00 6.752936e+00 -6.641281e+00 -1.458312e+01 6.738080e+00 5.677097e-01 -4.353257e-01 3.208197e-01 2.939530e-01 6.210386e-01 -5.129883e-03 3.366837e-01 -5.484129e-01 5.821761e-01 -5.154153e-01 -2.431637e-01 -8.744353e-01 1.570268e-01 -2.845187e-02 2.702746e-02 -4.421500e-02 2.535166e-02 -7.483041e-02 -8.795245e-02 -3.285269e-03 8.176037e-03 -6.822973e-02 1.109849e-01 1.162425e-01 -3.959028e-02 6.455588e-02 1.961475e-03
<VARIANCE> 39
 3.936586e+01 2.978489e+01 3.495609e+01 1.046593e+02 2.997792e+01 9.522575e+01 5.993573e+01 5.929023e+01 3.420133e+01 3.790899e+01 8.103762e+01 3.752238e+01 2.367215e-02 1.580745e+00 1.447032e+00 2.494594e+00 4.591049e+00 3.151197e+00 6.125116e+00 3.132167e+00 3.667666e+00 3.135049e+00 2.908796e+00 2.775059e+00 2.343979e+00 3.154489e-04 2.759869e-01 2.446811e-01 4.283831e-01 6.900707e-01 4.646319e-01 9.752662e-01 5.379363e-01 6.666424e-01 7.227921e-01 4.794023e-01 5.012423e-01 3.756678e-01 7.666082e-05
<GCONST> 1.012770e+02
<STATE> 6
<MEAN> 39
 -1.058666e+01 -6.055907e+00 -2.071776e+00 -9.993923e+00 -6.555954e+00 -3.060208e+00 -5.215302e+00 -3.834275e+00 4.452840e-01 -1.860568e+00 -5.694115e+00 -1.347080e+00 4.698135e-01 -1.483357e-01 -1.385690e-01 -6.362770e-02 3.327748e-01 1.031371e-01 1.896357e-02 -1.304942e-01 -2.080849e-01 -6.709855e-03 1.102275e-01 1.367442e-01 -2.552098e-02 -1.122353e-02 4.799052e-02 4.241706e-02 5.257513e-02 -6.987196e-03 -1.253641e-02 7.668083e-02 9.805436e-02 -1.301535e-02 2.130848e-02 -1.661081e-02 1.193659e-02 1.758167e-02 2.097655e-03
<VARIANCE> 39
 2.408387e+01 5.491694e+00 3.033650e+01 2.598308e+01 3.623170e+01 3.112712e+01 2.049079e+01 3.052374e+01 2.199198e+01 2.449818e+01 4.638822e+01 2.447969e+01 1.464106e-02 3.081996e-01 3.868586e-01 9.447739e-01 7.916002e-01 1.205680e+00 1.455453e+00 1.275839e+00 2.093930e+00 1.632551e+00 1.537834e+00 1.022794e+00 1.636321e+00 1.371346e-04 3.618490e-02 8.447684e-02 1.887246e-01 1.621749e-01 2.186841e-01 2.734499e-01 2.549758e-01 3.698871e-01 3.185006e-01 2.292562e-01 1.850454e-01 3.393130e-01 1.961351e-05
<GCONST> 6.678810e+01
<TRANSP> 7
 0.000000e+00 1.000000e+00 0.000000e+00 0.000000e+00 0.000000e+00 0.000000e+00 0.000000e+00
 0.000000e+00 8.086880e-01 1.913120e-01 0.000000e+00 0.000000e+00 0.000000e+00 0.000000e+00
 0.000000e+00 0.000000e+00 8.329149e-01 1.670851e-01 0.000000e+00 0.000000e+00 0.000000e+00
 0.000000e+00 0.000000e+00 0.000000e+00 8.126289e-01 1.873711e-01 0.000000e+00 0.000000e+00
 0.000000e+00 0.000000e+00 0.000000e+00 0.000000e+00 8.548334e-01 1.451665e-01 0.000000e+00
 0.000000e+00 0.000000e+00 0.000000e+00 0.000000e+00 0.000000e+00 8.966278e-01 1.033721e-01
 0.000000e+00 0.000000e+00 0.000000e+00 0.000000e+00 0.000000e+00 0.000000e+00 0.000000e+00
<ENDHMM>
