~o
<STREAMINFO> 1 39
<VECSIZE> 39<NULLD><MFCC_E_D_A><DIAGC>
~h "PES"
<BEGINHMM>
<NUMSTATES> 7
<STATE> 2
<MEAN> 39
 -1.110635e+01 -1.424389e+01 -2.350867e+00 -1.429279e+01 -4.813204e+00 5.549917e+00 6.488947e+00 -4.771996e+00 -1.802518e-01 5.353134e-01 -1.030555e+01 4.548622e+00 7.223929e-01 2.540311e-01 -7.515855e-01 -3.719824e-02 -2.950071e+00 1.464551e-01 -2.617694e-01 -7.969065e-02 -1.826181e+00 -1.115067e-01 -4.248506e-02 -2.314665e+00 -7.680897e-01 4.664811e-03 -3.045800e-01 3.036654e-01 7.769824e-02 7.247701e-01 -2.161411e-01 3.976398e-02 -3.597248e-01 6.623514e-01 1.909509e-01 -2.512753e-01 1.184173e+00 1.024055e-01 9.981453e-03
<VARIANCE> 39
 3.276165e+01 5.780068e+01 2.130009e+01 7.323138e+01 3.129768e+01 6.717712e+01 1.083541e+02 4.625285e+01 3.517760e+01 2.116785e+01 1.443657e+02 1.284306e+02 3.794516e-02 1.741072e+00 3.539576e+00 2.786293e+00 6.963564e+00 6.294648e+00 2.033281e+00 4.105044e+00 5.642702e+00 4.695892e+00 1.819373e+00 1.586741e+01 8.442681e+00 6.629414e-03 2.220032e-01 4.076053e-01 1.494685e-01 7.775423e-01 7.080629e-01 3.460219e-01 3.946297e-01 3.852363e-01 3.815452e-01 2.977510e-01 1.681985e+00 1.010691e+00 1.129928e-03
<GCONST> 1.121426e+02
<STATE> 3
<MEAN> 39
 -1.260130e+01 -1.363269e+01 -6.420590e+00 -2.537757e+01 -8.337508e+00 4.928783e+00 5.665416e+00 -6.325318e+00 2.720459e-01 6.047018e-01 -1.203935e+01 2.681475e+00 7.951156e-01 3.534478e-02 5.018564e-01 -2.278057e-01 -1.053060e+00 4.382778e-01 -3.595357e-01 -6.974101e-01 1.651259e-03 8.014811e-01 -7.382776e-01 7.651947e-01 3.313160e-01 -1.210819e-02 9.492560e-03 6.917806e-02 9.785853e-02 4.550746e-01 1.688211e-01 2.502912e-01 1.232875e-01 3.367944e-01 9.891027e-02 3.979222e-02 -1.262497e-02 1.121201e-01 -5.301466e-03
<VARIANCE> 39
 1.143517e+01 2.857714e+01 3.532681e+01 4.930062e+01 6.165536e+01 4.887995e+01 1.499079e+02 1.928350e+01 1.646075e+02 2.142351e+01 3.612358e+01 1.081750e+02 2.643333e-03 6.782409e-01 5.529208e-01 1.807889e+00 3.125304e+00 2.836991e+00 2.764081e+00 2.058902e+00 2.431108e+00 2.540589e+00 1.712881e+00 3.666366e+00 1.850845e+00 2.816610e-04 9.945451e-02 1.896565e-01 3.257831e-01 7.000008e-01 8.274860e-01 3.751108e-01 3.868658e-01 3.929226e-01 5.347397e-01 3.833461e-01 9.271159e-01 3.879842e-01 3.807804e-05
<GCONST> 8.975816e+01
<STATE> 4
<MEAN> 39
 -8.272719e+00 -6.287884e+00 4.561895e-01 -1.594264e+01 -6.084953e+00 -1.736590e+00 -4.515936e+00 -3.480135e+00 5.711901e-01 -2.031611e+00 -6.514454e+00 -1.745142e+00 5.079320e-01 -1.431704e-01 8.849373e-02 -2.205783e-01 6.370905e-01 -8.532561e-02 -5.362832e-02 1.539333e-02 1.082499e-01 8.996463e-02 -4.692630e-02 4.184495e-02 -6.759456e-02 -1.923442e-02 -4.293957e-03 1.299294e-03 -1.745007e-02 1.195377e-03 -2.432695e-02 -1.475467e-03 2.794013e-02 -2.470029e-02 -4.385863e-02 3.186635e-02 -3.551397e-02 -2.183385e-02 3.423818e-04
<VARIANCE> 39
 1.547558e+01 7.229583e+00 6.002514e+01 5.561807e+01 4.044464e+01 2.469827e+01 2.701025e+01 2.115952e+01 2.792538e+01 1.848977e+01 3.024721e+01 1.989002e+01 5.155855e-02 4.692561e-01 4.229168e-01 9.121440e-01 1.204886e+00 1.265144e+00 1.539742e+00 2.094832e+00 1.741381e+00 2.179594e+00 1.592737e+00 1.479800e+00 1.475180e+00 4.212848e-04 7.212818e-02 8.329115e-02 2.034080e-01 2.140899e-01 2.508693e-01 3.269680e-01 3.959452e-01 3.182837e-01 4.376919e-01 3.019165e-01 2.819394e-01 2.599196e-01 8.875312e-05
<GCONST> 7.534795e+01
<STATE> 5
<MEAN> 39
 -2.109869e+01 -1.185426e+01 -7.616754e+00 -1.414715e+01 -6.875496e+00 1.139697e+01 8.756659e+00 2.037266e+00 5.534739e+00 -6.866093e+00 -1.421030e+01 5.642258e+00 4.259034e-01 -5.265560e-01 2.166460e-01 4.370538e-01 5.600415e-01 -1.296748e-01 2.203669e-01 -1.663422e-01 5.297353e-01 -2.737471e-01 -9.482161e-02 -8.845888e-01 4.698166e-02 -2.443513e-02 1.238106e-01 9.153929e-02 1.754751e-01 5.167253e-02 3.808772e-02 -1.445927e-01 1.104831e-01 -7.448156e-02 6.740847e-02 2.121888e-01 2.347553e-01 7.017419e-02 1.080500e-02
<VARIANCE> 39
 3.546014e+01 3.100049e+01 2.704453e+01 8.268147e+01 2.047213e+01 1.056395e+02 7.953032e+01 5.998856e+01 2.867514e+01 4.253436e+01 7.531663e+01 4.739445e+01 2.012388e-02 1.441681e+00 2.196915e+00 1.605079e+00 5.657192e+00 2.908683e+00 6.191483e+00 2.834258e+00 3.982834e+00 4.032472e+00 3.235001e+00 2.490089e+00 2.083214e+00 3.845842e-04 3.974304e-01 5.200273e-01 3.194408e-01 9.041517e-01 4.358371e-01 1.181665e+00 8.297484e-01 9.536238e-01 9.417412e-01 5.367447e-01 7.906657e-01 3.407881e-01 5.150777e-04
<GCONST> 1.056660e+02
<STATE> 6
<MEAN> 39
 -1.550393e+01 -5.509758e+00 -3.837286e-01 -6.810036e+00 -5.248997e+00 1.746666e+00 1.182482e+00 -4.861648e-01 -7.973712e-01 1.334966e+00 -7.188427e+00 1.415311e+00 5.897064e-01 5.888725e-01 1.644514e+00 1.854763e+00 2.103190e+00 2.170176e+00 -1.131638e+00 5.471900e-02 1.355400e-01 -1.220894e+00 2.495686e+00 3.262484e+00 -3.065234e-01 1.656180e-01 -1.084998e-01 8.854626e-02 -2.608372e-02 1.224514e-01 4.698770e-01 -3.104583e-01 -1.227177e-01 3.326754e-01 -1.170934e-01 1.850337e-01 3.622130e-01 -1.061314e-01 2.413651e-02
<VARIANCE> 39
 3.340915e+01 2.292919e+01 2.756911e+01 5.484551e+01 4.390878e+01 7.511537e+01 3.907256e+01 4.146015e+01 3.985297e+01 4.615404e+01 1.058689e+02 3.586163e+01 1.209421e-01 4.190731e+00 1.244386e+00 1.775551e+00 3.922164e+00 2.977484e+00 7.798225e+00 7.732260e+00 5.335458e+00 3.421376e+00 4.203937e+00 7.477087e+00 6.255754e+00 3.955145e-03 3.377413e-01 3.402218e-01 3.562244e-01 7.511552e-01 6.384614e-01 9.212660e-01 5.596526e-01 6.315961e-01 3.983781e-01 6.063492e-01 1.468883e+00 5.073631e-01 1.257956e-03
<GCONST> 1.127677e+02
<TRANSP> 7
 0.000000e+00 1.000000e+00 0.000000e+00 0.000000e+00 0.000000e+00 0.000000e+00 0.000000e+00
 0.000000e+00 7.693018e-01 2.306982e-01 0.000000e+00 0.000000e+00 0.000000e+00 0.000000e+00
 0.000000e+00 0.000000e+00 7.510630e-01 2.489370e-01 0.000000e+00 0.000000e+00 0.000000e+00
 0.000000e+00 0.000000e+00 0.000000e+00 9.411147e-01 5.888534e-02 0.000000e+00 0.000000e+00
 0.000000e+00 0.000000e+00 0.000000e+00 0.000000e+00 8.333102e-01 1.666898e-01 0.000000e+00
 0.000000e+00 0.000000e+00 0.000000e+00 0.000000e+00 0.000000e+00 7.352989e-01 2.647011e-01
 0.000000e+00 0.000000e+00 0.000000e+00 0.000000e+00 0.000000e+00 0.000000e+00 0.000000e+00
<ENDHMM>
