~o
<STREAMINFO> 1 39
<VECSIZE> 39<NULLD><MFCC_E_D_A><DIAGC>
~h "VODA"
<BEGINHMM>
<NUMSTATES> 7
<STATE> 2
<MEAN> 39
 -1.624939e+01 -1.061449e+01 -8.748709e+00 -1.934162e-01 -2.697101e+00 -5.569592e+00 -1.078298e+00 -3.121953e+00 -2.526338e+00 5.781922e-01 6.171729e+00 1.453813e+00 3.979356e-01 3.811834e-01 -1.948265e-01 -2.960063e-01 -9.392624e-01 6.132296e-01 -2.429218e+00 -1.211023e+00 -1.866978e+00 -3.990381e-01 5.818810e-01 -6.852965e-01 -5.806250e-01 -9.192276e-02 3.812250e-01 -2.430619e-02 1.501468e-01 -2.069442e-01 -4.789128e-01 3.332804e-01 -7.083341e-02 6.973494e-01 3.621263e-01 1.213350e-01 9.171513e-02 3.245753e-01 2.444402e-02
<VARIANCE> 39
 7.948703e+01 7.315207e+01 4.854884e+01 1.072295e+02 8.175438e+01 5.373169e+01 2.046958e+01 5.396516e+01 2.009768e+01 2.882827e+01 4.398875e+01 5.576632e+01 1.125119e-01 6.875871e+00 7.090475e+00 3.520969e+00 7.552011e+00 5.922425e+00 3.679651e+00 3.169316e+00 8.640872e+00 2.972962e+00 2.977218e+00 5.146818e+00 6.019855e+00 6.141739e-03 6.258867e-01 1.618219e+00 7.263585e-01 1.033950e+00 5.981621e-01 5.514527e-01 5.218216e-01 9.851419e-01 4.063424e-01 3.338682e-01 5.170131e-01 5.042247e-01 9.124165e-04
<GCONST> 1.179710e+02
<STATE> 3
<MEAN> 39
 -8.624763e+00 -4.234885e+00 -8.321688e+00 -3.669660e+00 -4.722722e+00 -9.974598e+00 -8.070223e+00 -5.707320e+00 3.564505e-02 2.687725e+00 1.626858e+00 -2.382235e+00 3.032680e-01 6.765501e-02 2.262532e-01 2.119818e-01 -9.799837e-02 -2.988374e-01 -1.061903e-01 -1.087287e-01 -2.287033e-01 -7.425723e-02 -8.002301e-02 -3.779686e-01 -1.139971e-01 1.996628e-03 -4.990202e-02 -8.495905e-02 -7.782460e-03 3.384479e-02 2.127579e-02 1.492059e-01 1.114469e-01 -1.326945e-02 -6.566541e-02 -2.072498e-02 3.484714e-02 1.117739e-02 4.758027e-04
<VARIANCE> 39
 1.157079e+02 2.866859e+01 7.280559e+01 7.493725e+01 9.271945e+01 1.661188e+02 9.886274e+01 5.728645e+01 6.150234e+01 5.787018e+01 1.283135e+02 8.027393e+01 2.362320e-01 1.121013e+00 1.543892e+00 3.893667e+00 5.127120e+00 5.527617e+00 8.234993e+00 6.387975e+00 4.992932e+00 5.935943e+00 6.055792e+00 6.524356e+00 4.018023e+00 7.898232e-04 2.468635e-01 2.636666e-01 6.217094e-01 9.113978e-01 1.013621e+00 1.329103e+00 1.178934e+00 9.323674e-01 1.098168e+00 1.295908e+00 1.168011e+00 8.637610e-01 9.058505e-05
<GCONST> 1.213196e+02
<STATE> 4
<MEAN> 39
 -6.118335e+00 -1.800973e+01 -1.205862e+01 -1.105985e+01 -9.144379e+00 -1.321540e+01 1.139782e+01 -6.136209e+00 8.913546e+00 1.375496e+01 -1.144660e+01 4.984655e+00 6.573964e-01 1.570044e-01 -9.959258e-01 -2.302817e-01 -1.990516e-01 3.377936e-01 4.034502e-01 1.275329e+00 -1.591504e-02 -3.753279e-01 2.573783e-01 -9.295905e-02 8.312070e-02 1.505306e-02 -2.665412e-03 1.038051e-01 -5.681787e-02 9.953696e-02 1.110415e-01 -6.013816e-02 -9.980005e-02 1.155765e-01 -1.793881e-02 -1.536486e-02 4.998801e-02 7.353940e-02 -1.468112e-03
<VARIANCE> 39
 5.426247e+01 8.882460e+01 1.154163e+02 9.280683e+01 8.180579e+01 1.999637e+02 2.243576e+02 1.961465e+02 1.851512e+02 9.028723e+01 7.302496e+01 5.721424e+01 1.023643e-01 4.799061e+00 5.222740e+00 7.868757e+00 7.874812e+00 1.060740e+01 1.214569e+01 7.907061e+00 1.198520e+01 1.413787e+01 8.196113e+00 6.689818e+00 5.597225e+00 8.899186e-03 7.255188e-01 7.775641e-01 1.070653e+00 1.357928e+00 2.062004e+00 1.681301e+00 1.367721e+00 1.800110e+00 2.282698e+00 1.864195e+00 1.091279e+00 1.281393e+00 1.102807e-03
<GCONST> 1.429451e+02
<STATE> 5
<MEAN> 39
 -9.987947e+00 -1.318105e+01 -4.666618e+00 -8.278081e+00 -6.404700e+00 -9.838038e+00 -4.645203e+00 -9.652895e+00 -3.810477e+00 -4.471924e+00 -4.930669e+00 -4.011763e+00 4.737660e-01 -2.371525e-02 3.259632e-02 -5.124971e-02 6.768790e-02 4.524070e-02 7.191285e-03 -6.256223e-02 5.149289e-03 9.030519e-02 -6.242395e-03 8.547612e-02 4.188855e-02 -4.332428e-03 3.922664e-03 1.568935e-02 1.651406e-02 9.200335e-03 -1.036354e-02 1.094877e-02 1.203508e-02 1.175379e-02 1.949381e-02 1.240821e-02 -4.582394e-03 -1.091625e-02 5.006429e-04
<VARIANCE> 39
 2.227682e+01 1.672898e+01 3.492574e+01 2.303547e+01 3.766554e+01 2.126645e+01 2.987916e+01 3.177878e+01 5.385486e+01 3.480015e+01 2.732635e+01 2.122200e+01 4.085566e-02 3.514563e-01 7.096111e-01 1.626634e+00 1.117523e+00 1.722301e+00 1.787360e+00 2.063002e+00 2.659536e+00 2.849887e+00 2.223660e+00 1.809034e+00 1.844505e+00 6.452149e-04 6.298333e-02 1.180411e-01 2.679357e-01 2.025609e-01 3.167934e-01 3.795666e-01 4.067216e-01 5.350507e-01 5.083820e-01 3.859404e-01 3.443461e-01 3.491934e-01 7.496167e-05
<GCONST> 8.156828e+01
<STATE> 6
<MEAN> 39
 -1.562806e+01 -1.136618e+01 -1.281670e+01 -3.470331e+00 -5.577258e+00 5.054629e+00 1.023345e+01 -5.063492e+00 -5.654714e+00 4.922111e+00 -4.919890e+00 -1.304794e+00 4.324329e-02 -2.471294e-01 8.345350e-01 7.548903e-01 3.646340e-01 3.172856e-01 3.587912e-01 -2.404171e-01 5.196583e-01 -2.175973e-02 2.165408e-01 4.938367e-01 5.088683e-02 2.601503e-02 5.101347e-02 7.855146e-02 1.945471e-01 -1.186971e-02 7.693677e-02 -5.560940e-02 1.819268e-02 4.578565e-02 -6.079636e-02 7.311666e-02 1.733462e-01 9.982762e-02 1.332156e-02
<VARIANCE> 39
 4.921221e+01 4.700289e+01 1.492696e+02 4.901433e+01 4.431070e+01 8.066076e+01 7.668478e+01 4.612629e+01 5.923685e+01 5.660116e+01 3.597094e+01 6.535024e+01 9.328470e-02 1.381187e+00 1.576234e+00 5.319427e+00 2.999408e+00 3.674602e+00 3.780498e+00 4.365578e+00 4.693593e+00 4.793868e+00 5.088992e+00 3.322779e+00 5.095239e+00 1.026926e-02 1.724724e-01 1.896090e-01 6.200245e-01 5.510791e-01 5.841649e-01 6.219649e-01 8.297164e-01 6.187640e-01 1.036988e+00 7.005315e-01 5.959017e-01 6.945476e-01 8.132025e-04
<GCONST> 1.143363e+02
<TRANSP> 7
 0.000000e+00 1.000000e+00 0.000000e+00 0.000000e+00 0.000000e+00 0.000000e+00 0.000000e+00
 0.000000e+00 8.126557e-01 1.873443e-01 0.000000e+00 0.000000e+00 0.000000e+00 0.000000e+00
 0.000000e+00 0.000000e+00 9.488820e-01 5.111793e-02 0.000000e+00 0.000000e+00 0.000000e+00
 0.000000e+00 0.000000e+00 0.000000e+00 9.160688e-01 8.393124e-02 0.000000e+00 0.000000e+00
 0.000000e+00 0.000000e+00 0.000000e+00 0.000000e+00 9.796238e-01 2.037626e-02 0.000000e+00
 0.000000e+00 0.000000e+00 0.000000e+00 0.000000e+00 0.000000e+00 9.249817e-01 7.501833e-02
 0.000000e+00 0.000000e+00 0.000000e+00 0.000000e+00 0.000000e+00 0.000000e+00 0.000000e+00
<ENDHMM>
