~o
<STREAMINFO> 1 39
<VECSIZE> 39<NULLD><MFCC_E_D_A><DIAGC>
~h "VODA"
<BEGINHMM>
<NUMSTATES> 7
<STATE> 2
<MEAN> 39
 -7.220531e-01 -5.616193e+00 -7.378718e+00 -9.034165e+00 -3.444448e+00 -1.372549e+01 -9.665209e+00 -4.830440e+00 2.116284e+00 -4.162109e-01 -6.062882e+00 -6.542203e+00 7.891794e-01 2.464930e-01 1.334971e-01 -7.301246e-02 1.972164e-03 2.832497e-02 -3.737348e-01 -6.687104e-02 2.438289e-01 3.312457e-02 -1.659858e-01 -2.868090e-01 -6.859694e-02 1.834239e-02 -4.924941e-02 -3.110370e-02 5.056278e-02 -4.224474e-02 -4.893626e-02 1.442746e-02 1.011472e-01 6.539601e-02 -2.094912e-02 4.883753e-02 -1.578417e-03 2.037206e-02 -1.135276e-03
<VARIANCE> 39
 1.994466e+01 1.564722e+01 9.884647e+01 2.228666e+01 4.822583e+01 4.913549e+01 2.141253e+01 4.578714e+01 4.755647e+01 3.548410e+01 4.004254e+01 2.583524e+01 3.708998e-02 8.694897e-01 8.938397e-01 5.594724e+00 2.375360e+00 1.683758e+00 2.979690e+00 2.642044e+00 3.681208e+00 3.349686e+00 2.028578e+00 2.729470e+00 2.415278e+00 1.886249e-03 1.552664e-01 1.783708e-01 7.877337e-01 4.197156e-01 3.498274e-01 5.522366e-01 3.683187e-01 7.152223e-01 6.747854e-01 3.915214e-01 5.657429e-01 3.864225e-01 2.075299e-04
<GCONST> 9.560315e+01
<STATE> 3
<MEAN> 39
 -2.385004e-01 -1.632948e+01 -1.646811e+01 -9.491471e+00 -6.313424e+00 -2.698890e+01 7.982529e+00 7.135651e+00 1.382343e+01 1.461242e+01 -1.404921e+01 2.102713e+00 8.102305e-01 -1.302235e+00 1.551210e-02 2.379650e+00 -6.764521e-01 -1.289762e+00 4.572392e-01 1.199756e+00 -4.447447e-01 -1.227342e-01 -5.076493e-01 5.193423e-02 4.267139e-01 -1.214971e-02 -3.166466e-01 5.681200e-02 2.758895e-02 -3.577096e-01 -2.550266e-01 5.835358e-01 3.408713e-02 -5.774903e-01 1.325871e-01 1.494025e-01 -7.188457e-02 4.294179e-02 2.923155e-04
<VARIANCE> 39
 3.099262e+01 4.723942e+01 1.423696e+02 5.279429e+01 9.448164e+01 7.779902e+01 1.123998e+02 8.160809e+01 1.102487e+02 1.482385e+02 4.623278e+01 3.874888e+01 3.371418e-02 2.837797e+00 3.140619e+00 4.352084e+00 6.171348e+00 7.425819e+00 1.073236e+01 1.101082e+01 1.288871e+01 1.373912e+01 8.161982e+00 4.796805e+00 5.677404e+00 3.487893e-03 3.763880e-01 4.573877e-01 8.909562e-01 1.217789e+00 1.661691e+00 8.689381e-01 2.157703e+00 1.631961e+00 2.017824e+00 1.762632e+00 8.458036e-01 1.019031e+00 6.880054e-04
<GCONST> 1.306841e+02
<STATE> 4
<MEAN> 39
 -9.606565e+00 -1.087273e+01 -1.496423e+00 -1.885722e+01 -1.470443e+01 -6.928768e+00 8.800417e+00 -8.541438e+00 7.364209e+00 7.282372e+00 -1.443229e+01 1.399952e+00 8.135976e-01 -2.866904e-01 -1.753257e+00 -9.381428e-01 -1.299704e+00 -8.615930e-02 2.774487e+00 2.250615e+00 -2.095487e+00 -3.333085e+00 1.631523e+00 1.913882e-01 7.301974e-01 3.354426e-02 4.406502e-01 -4.576952e-01 -7.080591e-01 1.176671e+00 1.117851e+00 -5.693736e-01 -3.582125e-01 1.109624e-01 -7.701108e-01 -1.663620e-01 7.943960e-01 1.284815e-01 -3.911829e-03
<VARIANCE> 39
 5.395743e+01 2.967007e+01 4.597018e+01 8.892989e+01 6.188818e+01 6.411385e+01 1.197367e+02 7.359752e+01 2.544765e+02 8.825374e+01 7.505433e+01 1.319145e+02 1.024124e-02 2.860176e+00 2.471640e+00 3.390422e+00 8.872632e+00 1.114709e+01 7.252720e+00 2.188618e+00 2.678582e+00 8.481383e+00 3.155702e+00 6.239069e+00 3.069030e+00 9.733937e-04 6.455081e-01 5.358613e-01 6.835370e-01 9.866592e-01 1.345486e+00 9.134780e-01 7.234799e-01 9.096622e-01 2.338379e+00 9.023816e-01 5.491192e-01 8.117594e-01 1.386491e-04
<GCONST> 1.195927e+02
<STATE> 5
<MEAN> 39
 -9.054404e+00 -2.399863e+01 -1.056032e+01 -7.581610e+00 -6.140702e+00 -4.043049e+00 1.584769e+01 -1.472409e+01 -7.308361e+00 1.120800e+01 -4.795118e+00 6.579412e+00 7.523515e-01 1.834753e-01 -3.956786e-01 -7.006555e-01 1.444124e+00 9.536179e-01 -3.594047e-01 -5.024970e-01 2.477814e-01 -1.139281e+00 -4.631556e-01 7.830099e-01 1.772038e-01 -3.443189e-02 -3.810746e-02 3.345380e-01 5.439979e-02 -1.894185e-01 -1.730691e-01 -3.394307e-02 -2.177828e-01 2.310678e-01 4.254923e-01 -1.689940e-01 -2.582601e-01 -1.212244e-01 -5.017485e-03
<VARIANCE> 39
 7.373539e+00 4.548949e+01 4.636688e+01 4.054921e+01 3.666183e+01 5.927465e+01 1.647689e+02 4.715490e+01 3.982462e+01 5.398677e+01 3.581963e+01 4.756087e+01 4.700515e-02 6.571183e-01 2.882423e+00 3.062273e+00 4.348031e+00 4.544963e+00 3.037769e+00 3.142930e+00 4.442669e+00 3.056250e+00 3.091676e+00 3.287277e+00 2.905948e+00 1.645001e-03 1.382192e-01 2.435513e-01 5.603104e-01 4.850699e-01 6.772871e-01 7.343236e-01 6.370609e-01 8.069549e-01 4.077981e-01 4.938554e-01 3.627260e-01 5.218119e-01 1.567692e-04
<GCONST> 1.022260e+02
<STATE> 6
<MEAN> 39
 -8.867679e+00 -1.270487e+01 -4.018704e+00 -6.527374e+00 -4.169899e+00 -9.033425e+00 -3.088564e+00 -9.425529e+00 -5.389505e+00 -3.747999e+00 -3.252663e+00 -3.655021e+00 5.650207e-01 -5.327247e-02 5.949085e-02 -2.352605e-02 8.761686e-02 1.439108e-02 3.451955e-03 -6.598621e-02 5.498584e-02 3.047372e-01 -7.576421e-02 6.753486e-02 -4.411174e-02 -9.446204e-03 4.374131e-03 5.850915e-03 2.441080e-02 -3.443124e-02 -5.741658e-02 -2.952214e-02 3.438266e-02 3.410754e-02 5.951732e-02 2.299478e-02 -2.536316e-02 -4.418813e-02 1.821254e-04
<VARIANCE> 39
 2.531982e+01 2.085228e+01 3.125386e+01 2.606033e+01 4.313598e+01 2.435979e+01 3.084537e+01 2.342447e+01 5.545519e+01 3.508490e+01 2.791167e+01 2.089619e+01 3.852533e-02 2.869594e-01 7.236336e-01 1.213678e+00 1.265447e+00 1.593473e+00 1.688313e+00 1.756565e+00 2.522562e+00 2.092952e+00 2.080678e+00 2.204086e+00 1.527621e+00 5.682025e-04 5.191742e-02 1.065544e-01 2.023597e-01 2.079293e-01 2.725783e-01 3.724890e-01 3.513015e-01 4.943420e-01 3.588017e-01 3.466905e-01 4.181935e-01 3.045761e-01 5.157612e-05
<GCONST> 7.900126e+01
<TRANSP> 7
 0.000000e+00 1.000000e+00 0.000000e+00 0.000000e+00 0.000000e+00 0.000000e+00 0.000000e+00
 0.000000e+00 9.291603e-01 7.083973e-02 0.000000e+00 0.000000e+00 0.000000e+00 0.000000e+00
 0.000000e+00 0.000000e+00 7.951095e-01 2.048905e-01 0.000000e+00 0.000000e+00 0.000000e+00
 0.000000e+00 0.000000e+00 0.000000e+00 7.277864e-01 2.722137e-01 0.000000e+00 0.000000e+00
 0.000000e+00 0.000000e+00 0.000000e+00 0.000000e+00 8.275594e-01 1.724406e-01 0.000000e+00
 0.000000e+00 0.000000e+00 0.000000e+00 0.000000e+00 0.000000e+00 9.636738e-01 3.632623e-02
 0.000000e+00 0.000000e+00 0.000000e+00 0.000000e+00 0.000000e+00 0.000000e+00 0.000000e+00
<ENDHMM>
