~o
<STREAMINFO> 1 39
<VECSIZE> 39<NULLD><MFCC_E_D_A><DIAGC>
~h "VODA"
<BEGINHMM>
<NUMSTATES> 7
<STATE> 2
<MEAN> 39
 -5.033661e+00 -8.291870e+00 -6.296622e+00 -7.352088e+00 -5.645055e+00 -7.951178e+00 -5.101737e+00 -3.097610e+00 2.400954e+00 1.782899e+00 -4.434815e+00 -3.744415e+00 6.050141e-01 2.282918e+00 -2.426875e-01 -2.077701e+00 -1.772534e+00 9.211691e-01 -4.129974e+00 -1.191437e+00 -9.003964e-01 1.151406e+00 1.167860e+00 -3.238860e+00 -1.180294e+00 -2.564906e-02 -3.502619e-01 -1.373162e-01 3.230963e-02 2.131969e-01 -3.214938e-01 4.498798e-01 2.918689e-01 1.114284e+00 4.825649e-02 -1.704889e-01 5.344141e-01 5.912194e-01 3.270106e-02
<VARIANCE> 39
 3.859020e+01 1.299168e+01 1.233740e+02 1.880784e+01 5.222926e+01 9.785632e+01 3.607940e+01 9.322721e+01 9.313491e+01 1.104463e+02 8.197527e+01 3.446753e+01 4.448380e-02 3.422492e+00 1.552031e+00 1.109525e+01 1.033911e+00 2.885327e+00 1.192820e+01 2.855333e+00 1.192841e+01 5.936141e+00 5.843582e+00 6.855063e+00 5.616805e+00 9.722313e-03 4.677171e-01 1.079251e-01 1.276380e+00 3.163128e-01 6.533827e-01 9.778551e-01 3.679346e-01 9.103542e-01 8.969361e-01 1.119506e+00 1.114359e+00 6.214837e-01 8.212946e-04
<GCONST> 1.172138e+02
<STATE> 3
<MEAN> 39
 1.624606e-01 -8.061823e+00 -9.738333e+00 -9.219588e+00 -4.198253e+00 -1.819822e+01 -5.077082e+00 -6.181530e-01 4.370133e+00 3.194155e+00 -8.336427e+00 -4.818400e+00 7.793096e-01 -3.862981e-01 -2.192643e-02 6.947619e-01 -6.487456e-02 -5.064812e-01 1.420404e-01 5.464687e-01 -1.807431e-01 -3.720667e-01 -1.469774e-01 5.375620e-02 1.485662e-02 -3.751469e-03 -1.906477e-01 3.772172e-02 1.771571e-01 -5.060987e-02 -2.097583e-02 3.378755e-01 9.364403e-02 -2.437643e-01 -7.459593e-02 2.569652e-04 1.074487e-01 3.892715e-02 -1.575973e-03
<VARIANCE> 39
 1.656530e+01 4.913766e+01 1.198868e+02 2.784924e+01 6.191832e+01 9.026021e+01 1.137517e+02 7.723677e+01 6.737481e+01 9.974693e+01 4.876629e+01 4.794097e+01 2.420579e-02 1.170711e+00 1.371762e+00 6.913592e+00 3.110642e+00 3.416957e+00 5.047015e+00 5.270076e+00 4.467945e+00 6.203701e+00 4.212237e+00 3.153332e+00 2.932091e+00 1.672060e-03 2.416296e-01 2.435679e-01 1.408484e+00 5.170558e-01 6.055360e-01 9.467409e-01 9.884292e-01 9.280437e-01 1.178771e+00 8.234301e-01 7.712101e-01 6.669731e-01 2.889345e-04
<GCONST> 1.130564e+02
<STATE> 4
<MEAN> 39
 -1.060565e+01 -1.528806e+01 -3.991497e+00 -1.688666e+01 -1.191455e+01 -3.842399e+00 1.505939e+01 -1.219193e+01 6.895132e+00 1.054815e+01 -1.392564e+01 6.319103e+00 6.743663e-01 -3.021231e-01 -1.272875e+00 -6.365883e-01 2.705101e-01 9.769901e-01 2.094629e+00 1.489454e+00 -2.156383e+00 -2.520406e+00 2.958530e-01 7.712997e-01 1.061922e+00 2.362193e-02 3.403181e-01 -2.136991e-01 -3.673249e-01 6.752771e-01 3.544452e-01 -4.640804e-01 -3.140765e-01 5.186868e-01 -3.097058e-01 -1.990307e-01 3.645644e-01 -1.522294e-01 -4.559119e-03
<VARIANCE> 39
 2.495320e+01 4.772705e+01 5.260400e+01 8.704296e+01 6.711451e+01 9.277544e+01 1.017836e+02 8.697508e+01 2.555852e+02 7.304742e+01 8.004098e+01 7.132159e+01 2.296687e-02 2.804749e+00 4.376760e+00 6.373866e+00 1.085344e+01 7.482615e+00 8.561226e+00 2.880915e+00 5.497768e+00 1.321366e+01 5.499284e+00 7.605267e+00 2.499913e+00 1.519883e-03 4.881472e-01 7.550163e-01 9.780011e-01 1.257252e+00 1.848344e+00 1.062523e+00 8.621037e-01 6.480769e-01 2.711793e+00 1.152480e+00 1.092912e+00 5.410290e-01 3.172365e-04
<GCONST> 1.259927e+02
<STATE> 5
<MEAN> 39
 -8.820534e+00 -1.292597e+01 -4.178388e+00 -6.514649e+00 -4.001781e+00 -9.075378e+00 -2.937510e+00 -9.331902e+00 -5.682273e+00 -3.055223e+00 -2.986093e+00 -3.260394e+00 5.246255e-01 -4.221198e-02 -2.386228e-02 -5.525284e-03 2.076303e-01 1.140714e-01 -1.104257e-02 -1.544793e-01 -1.833117e-03 1.544345e-01 -1.213040e-01 1.210297e-01 8.896428e-03 -9.124801e-03 9.414773e-03 3.746737e-02 3.639531e-02 -3.503813e-02 -5.995961e-02 -4.481886e-03 1.055378e-02 2.445752e-02 5.766059e-02 1.163788e-02 -3.938668e-02 -3.734760e-02 -3.402945e-04
<VARIANCE> 39
 2.482000e+01 2.390595e+01 3.160048e+01 2.590149e+01 4.306198e+01 2.496147e+01 3.674682e+01 2.587948e+01 5.757610e+01 4.274364e+01 2.663130e+01 2.162614e+01 4.235577e-02 2.951326e-01 8.867124e-01 1.284158e+00 1.362900e+00 1.740280e+00 1.707061e+00 1.741248e+00 2.632661e+00 2.016747e+00 2.353669e+00 2.203342e+00 1.444689e+00 6.074299e-04 5.227059e-02 1.248068e-01 2.254250e-01 2.263187e-01 2.557890e-01 3.515471e-01 3.694448e-01 5.164239e-01 3.946547e-01 3.891842e-01 4.457022e-01 2.942888e-01 6.235434e-05
<GCONST> 8.108954e+01
<STATE> 6
<MEAN> 39
 -9.755195e+00 -1.803317e+01 -6.040932e+00 -4.192693e+00 -4.413318e+00 -4.285013e+00 1.020003e+01 -1.045977e+01 -5.737947e+00 6.089115e+00 -3.657309e+00 3.527088e+00 4.914176e-01 -4.651801e-01 2.353515e+00 1.647419e+00 3.242522e-01 4.903359e-01 5.319768e-01 -1.238222e+00 2.034422e+00 2.677157e-01 5.363138e-01 7.717205e-01 -1.378531e-01 4.953925e-02 -2.210166e-01 4.701687e-01 4.308445e-01 -1.689658e-02 1.399288e-01 2.515717e-01 -2.420345e-01 3.457497e-01 -5.367455e-02 3.516333e-01 2.393576e-01 9.933870e-02 2.572266e-02
<VARIANCE> 39
 1.392400e+01 1.140895e+02 7.975575e+01 2.253484e+01 2.549152e+01 3.767664e+01 1.749308e+02 5.664992e+01 3.082009e+01 9.067565e+01 2.924510e+01 5.316390e+01 8.755079e-02 1.456948e+00 6.414371e+00 9.982032e+00 1.952945e+00 2.961703e+00 3.858818e+00 8.514980e+00 6.616720e+00 3.288918e+00 6.372451e+00 3.458544e+00 7.029297e+00 1.529838e-02 1.301310e-01 6.573229e-01 1.674316e+00 3.673895e-01 4.360755e-01 6.307647e-01 6.591610e-01 9.725779e-01 5.606957e-01 7.051334e-01 6.064101e-01 1.040814e+00 1.317851e-03
<GCONST> 1.164856e+02
<TRANSP> 7
 0.000000e+00 1.000000e+00 0.000000e+00 0.000000e+00 0.000000e+00 0.000000e+00 0.000000e+00
 0.000000e+00 7.690069e-01 2.309931e-01 0.000000e+00 0.000000e+00 0.000000e+00 0.000000e+00
 0.000000e+00 0.000000e+00 9.356654e-01 6.433459e-02 0.000000e+00 0.000000e+00 0.000000e+00
 0.000000e+00 0.000000e+00 0.000000e+00 7.877871e-01 2.122128e-01 0.000000e+00 0.000000e+00
 0.000000e+00 0.000000e+00 0.000000e+00 0.000000e+00 9.638751e-01 3.612492e-02 0.000000e+00
 0.000000e+00 0.000000e+00 0.000000e+00 0.000000e+00 0.000000e+00 8.149630e-01 1.850370e-01
 0.000000e+00 0.000000e+00 0.000000e+00 0.000000e+00 0.000000e+00 0.000000e+00 0.000000e+00
<ENDHMM>
