~o
<STREAMINFO> 1 39
<VECSIZE> 39<NULLD><MFCC_E_D_A><DIAGC>
~h "AUTO"
<BEGINHMM>
<NUMSTATES> 7
<STATE> 2
<MEAN> 39
 -3.261302e+00 -1.494996e+01 -1.150084e+01 -3.381998e+00 -2.785697e+00 -1.259523e+01 -4.074644e+00 -5.026625e+00 -6.638727e-01 -2.175055e+00 -4.105537e+00 -1.386138e+00 7.145832e-01 1.369677e-01 -6.783439e-03 -1.589680e-01 -5.423858e-02 3.893756e-02 -1.754907e-01 -2.112541e-02 -1.563201e-01 -2.988481e-02 -1.020287e-01 -2.636392e-01 -1.599419e-01 -8.821138e-03 -3.357306e-02 8.071566e-02 -2.450028e-03 -3.400608e-02 -6.904134e-02 1.048395e-01 3.242726e-02 8.361166e-02 2.756721e-02 -4.674098e-03 6.007939e-02 5.756136e-03 8.887023e-04
<VARIANCE> 39
 4.736907e+01 7.655104e+01 6.348705e+01 9.024249e+01 1.003926e+02 6.530652e+01 8.000400e+01 6.965729e+01 8.661410e+01 6.376128e+01 7.116001e+01 6.651311e+01 3.876781e-02 2.688061e+00 2.742070e+00 3.718032e+00 4.201972e+00 5.954996e+00 5.369702e+00 5.611488e+00 7.350080e+00 6.128583e+00 3.097769e+00 4.366348e+00 3.336953e+00 1.753860e-03 4.299507e-01 3.284919e-01 5.594611e-01 6.338115e-01 9.341092e-01 8.625306e-01 8.360587e-01 1.381074e+00 1.007348e+00 5.497135e-01 6.934593e-01 6.566809e-01 2.331426e-04
<GCONST> 1.181687e+02
<STATE> 3
<MEAN> 39
 -3.261302e+00 -1.494996e+01 -1.150084e+01 -3.381998e+00 -2.785697e+00 -1.259523e+01 -4.074644e+00 -5.026625e+00 -6.638727e-01 -2.175055e+00 -4.105537e+00 -1.386138e+00 7.145832e-01 1.369677e-01 -6.783439e-03 -1.589680e-01 -5.423858e-02 3.893756e-02 -1.754907e-01 -2.112541e-02 -1.563201e-01 -2.988481e-02 -1.020287e-01 -2.636392e-01 -1.599419e-01 -8.821138e-03 -3.357306e-02 8.071566e-02 -2.450028e-03 -3.400608e-02 -6.904134e-02 1.048395e-01 3.242726e-02 8.361166e-02 2.756721e-02 -4.674098e-03 6.007939e-02 5.756136e-03 8.887023e-04
<VARIANCE> 39
 4.736907e+01 7.655104e+01 6.348705e+01 9.024249e+01 1.003926e+02 6.530652e+01 8.000400e+01 6.965729e+01 8.661410e+01 6.376128e+01 7.116001e+01 6.651311e+01 3.876781e-02 2.688061e+00 2.742070e+00 3.718032e+00 4.201972e+00 5.954996e+00 5.369702e+00 5.611488e+00 7.350080e+00 6.128583e+00 3.097769e+00 4.366348e+00 3.336953e+00 1.753860e-03 4.299507e-01 3.284919e-01 5.594611e-01 6.338115e-01 9.341092e-01 8.625306e-01 8.360587e-01 1.381074e+00 1.007348e+00 5.497135e-01 6.934593e-01 6.566809e-01 2.331426e-04
<GCONST> 1.181687e+02
<STATE> 4
<MEAN> 39
 -3.261302e+00 -1.494996e+01 -1.150084e+01 -3.381998e+00 -2.785697e+00 -1.259523e+01 -4.074644e+00 -5.026625e+00 -6.638727e-01 -2.175055e+00 -4.105537e+00 -1.386138e+00 7.145832e-01 1.369677e-01 -6.783439e-03 -1.589680e-01 -5.423858e-02 3.893756e-02 -1.754907e-01 -2.112541e-02 -1.563201e-01 -2.988481e-02 -1.020287e-01 -2.636392e-01 -1.599419e-01 -8.821138e-03 -3.357306e-02 8.071566e-02 -2.450028e-03 -3.400608e-02 -6.904134e-02 1.048395e-01 3.242726e-02 8.361166e-02 2.756721e-02 -4.674098e-03 6.007939e-02 5.756136e-03 8.887023e-04
<VARIANCE> 39
 4.736907e+01 7.655104e+01 6.348705e+01 9.024249e+01 1.003926e+02 6.530652e+01 8.000400e+01 6.965729e+01 8.661410e+01 6.376128e+01 7.116001e+01 6.651311e+01 3.876781e-02 2.688061e+00 2.742070e+00 3.718032e+00 4.201972e+00 5.954996e+00 5.369702e+00 5.611488e+00 7.350080e+00 6.128583e+00 3.097769e+00 4.366348e+00 3.336953e+00 1.753860e-03 4.299507e-01 3.284919e-01 5.594611e-01 6.338115e-01 9.341092e-01 8.625306e-01 8.360587e-01 1.381074e+00 1.007348e+00 5.497135e-01 6.934593e-01 6.566809e-01 2.331426e-04
<GCONST> 1.181687e+02
<STATE> 5
<MEAN> 39
 -3.261302e+00 -1.494996e+01 -1.150084e+01 -3.381998e+00 -2.785697e+00 -1.259523e+01 -4.074644e+00 -5.026625e+00 -6.638727e-01 -2.175055e+00 -4.105537e+00 -1.386138e+00 7.145832e-01 1.369677e-01 -6.783439e-03 -1.589680e-01 -5.423858e-02 3.893756e-02 -1.754907e-01 -2.112541e-02 -1.563201e-01 -2.988481e-02 -1.020287e-01 -2.636392e-01 -1.599419e-01 -8.821138e-03 -3.357306e-02 8.071566e-02 -2.450028e-03 -3.400608e-02 -6.904134e-02 1.048395e-01 3.242726e-02 8.361166e-02 2.756721e-02 -4.674098e-03 6.007939e-02 5.756136e-03 8.887023e-04
<VARIANCE> 39
 4.736907e+01 7.655104e+01 6.348705e+01 9.024249e+01 1.003926e+02 6.530652e+01 8.000400e+01 6.965729e+01 8.661410e+01 6.376128e+01 7.116001e+01 6.651311e+01 3.876781e-02 2.688061e+00 2.742070e+00 3.718032e+00 4.201972e+00 5.954996e+00 5.369702e+00 5.611488e+00 7.350080e+00 6.128583e+00 3.097769e+00 4.366348e+00 3.336953e+00 1.753860e-03 4.299507e-01 3.284919e-01 5.594611e-01 6.338115e-01 9.341092e-01 8.625306e-01 8.360587e-01 1.381074e+00 1.007348e+00 5.497135e-01 6.934593e-01 6.566809e-01 2.331426e-04
<GCONST> 1.181687e+02
<STATE> 6
<MEAN> 39
 -3.261302e+00 -1.494996e+01 -1.150084e+01 -3.381998e+00 -2.785697e+00 -1.259523e+01 -4.074644e+00 -5.026625e+00 -6.638727e-01 -2.175055e+00 -4.105537e+00 -1.386138e+00 7.145832e-01 1.369677e-01 -6.783439e-03 -1.589680e-01 -5.423858e-02 3.893756e-02 -1.754907e-01 -2.112541e-02 -1.563201e-01 -2.988481e-02 -1.020287e-01 -2.636392e-01 -1.599419e-01 -8.821138e-03 -3.357306e-02 8.071566e-02 -2.450028e-03 -3.400608e-02 -6.904134e-02 1.048395e-01 3.242726e-02 8.361166e-02 2.756721e-02 -4.674098e-03 6.007939e-02 5.756136e-03 8.887023e-04
<VARIANCE> 39
 4.736907e+01 7.655104e+01 6.348705e+01 9.024249e+01 1.003926e+02 6.530652e+01 8.000400e+01 6.965729e+01 8.661410e+01 6.376128e+01 7.116001e+01 6.651311e+01 3.876781e-02 2.688061e+00 2.742070e+00 3.718032e+00 4.201972e+00 5.954996e+00 5.369702e+00 5.611488e+00 7.350080e+00 6.128583e+00 3.097769e+00 4.366348e+00 3.336953e+00 1.753860e-03 4.299507e-01 3.284919e-01 5.594611e-01 6.338115e-01 9.341092e-01 8.625306e-01 8.360587e-01 1.381074e+00 1.007348e+00 5.497135e-01 6.934593e-01 6.566809e-01 2.331426e-04
<GCONST> 1.181687e+02
<TRANSP> 7
 0.000000e+00 1.000000e+00 0.000000e+00 0.000000e+00 0.000000e+00 0.000000e+00 0.000000e+00
 0.000000e+00 6.000000e-01 4.000000e-01 0.000000e+00 0.000000e+00 0.000000e+00 0.000000e+00
 0.000000e+00 0.000000e+00 6.000000e-01 4.000000e-01 0.000000e+00 0.000000e+00 0.000000e+00
 0.000000e+00 0.000000e+00 0.000000e+00 6.000000e-01 4.000000e-01 0.000000e+00 0.000000e+00
 0.000000e+00 0.000000e+00 0.000000e+00 0.000000e+00 6.000000e-01 4.000000e-01 0.000000e+00
 0.000000e+00 0.000000e+00 0.000000e+00 0.000000e+00 0.000000e+00 6.000000e-01 4.000000e-01
 0.000000e+00 0.000000e+00 0.000000e+00 0.000000e+00 0.000000e+00 0.000000e+00 0.000000e+00
<ENDHMM>
