~o
<STREAMINFO> 1 39
<VECSIZE> 39<NULLD><MFCC_E_D_A><DIAGC>
~h "AUTO"
<BEGINHMM>
<NUMSTATES> 7
<STATE> 2
<MEAN> 39
 -3.230738e+00 -1.515786e+01 -1.165155e+01 -3.295671e+00 -2.655040e+00 -1.288356e+01 -4.088137e+00 -5.261220e+00 -6.732954e-01 -2.127218e+00 -4.278746e+00 -1.506485e+00 7.271577e-01 8.778109e-02 1.432122e-01 -1.328570e-01 -9.438934e-02 -4.616191e-02 4.728339e-02 4.048201e-02 5.997926e-02 1.857099e-02 -1.546985e-01 -1.222250e-01 -9.317730e-02 -1.373555e-03 -1.442670e-02 3.813335e-02 -3.479990e-03 -3.287273e-02 -3.620663e-02 1.104436e-02 2.358031e-03 1.823885e-02 1.349649e-03 3.471115e-03 2.532526e-03 -2.083193e-02 -2.093691e-03
<VARIANCE> 39
 4.861930e+01 7.923386e+01 6.163573e+01 9.608722e+01 1.010255e+02 6.299562e+01 7.838954e+01 6.733615e+01 8.506611e+01 6.342977e+01 7.134695e+01 6.335672e+01 4.190123e-02 3.009253e+00 1.866779e+00 3.496913e+00 3.890047e+00 5.258223e+00 4.335114e+00 5.466643e+00 6.696951e+00 5.651746e+00 2.934555e+00 4.298025e+00 3.193913e+00 2.384020e-03 5.071406e-01 2.610695e-01 5.138390e-01 5.437855e-01 8.031527e-01 7.055553e-01 8.152969e-01 1.310557e+00 9.413415e-01 5.100826e-01 6.901864e-01 6.265311e-01 2.040434e-04
<GCONST> 1.163713e+02
<STATE> 3
<MEAN> 39
 -3.230738e+00 -1.515786e+01 -1.165155e+01 -3.295671e+00 -2.655040e+00 -1.288356e+01 -4.088137e+00 -5.261220e+00 -6.732954e-01 -2.127218e+00 -4.278746e+00 -1.506485e+00 7.271577e-01 8.778109e-02 1.432122e-01 -1.328570e-01 -9.438934e-02 -4.616191e-02 4.728339e-02 4.048201e-02 5.997926e-02 1.857099e-02 -1.546985e-01 -1.222250e-01 -9.317730e-02 -1.373555e-03 -1.442670e-02 3.813335e-02 -3.479990e-03 -3.287273e-02 -3.620663e-02 1.104436e-02 2.358031e-03 1.823885e-02 1.349649e-03 3.471115e-03 2.532526e-03 -2.083193e-02 -2.093691e-03
<VARIANCE> 39
 4.861930e+01 7.923386e+01 6.163573e+01 9.608722e+01 1.010255e+02 6.299562e+01 7.838954e+01 6.733615e+01 8.506611e+01 6.342977e+01 7.134695e+01 6.335672e+01 4.190123e-02 3.009253e+00 1.866779e+00 3.496913e+00 3.890047e+00 5.258223e+00 4.335114e+00 5.466643e+00 6.696951e+00 5.651746e+00 2.934555e+00 4.298025e+00 3.193913e+00 2.384020e-03 5.071406e-01 2.610695e-01 5.138390e-01 5.437855e-01 8.031527e-01 7.055553e-01 8.152969e-01 1.310557e+00 9.413415e-01 5.100826e-01 6.901864e-01 6.265311e-01 2.040434e-04
<GCONST> 1.163713e+02
<STATE> 4
<MEAN> 39
 -3.230738e+00 -1.515786e+01 -1.165155e+01 -3.295671e+00 -2.655040e+00 -1.288356e+01 -4.088137e+00 -5.261220e+00 -6.732954e-01 -2.127218e+00 -4.278746e+00 -1.506485e+00 7.271577e-01 8.778109e-02 1.432122e-01 -1.328570e-01 -9.438934e-02 -4.616191e-02 4.728339e-02 4.048201e-02 5.997926e-02 1.857099e-02 -1.546985e-01 -1.222250e-01 -9.317730e-02 -1.373555e-03 -1.442670e-02 3.813335e-02 -3.479990e-03 -3.287273e-02 -3.620663e-02 1.104436e-02 2.358031e-03 1.823885e-02 1.349649e-03 3.471115e-03 2.532526e-03 -2.083193e-02 -2.093691e-03
<VARIANCE> 39
 4.861930e+01 7.923386e+01 6.163573e+01 9.608722e+01 1.010255e+02 6.299562e+01 7.838954e+01 6.733615e+01 8.506611e+01 6.342977e+01 7.134695e+01 6.335672e+01 4.190123e-02 3.009253e+00 1.866779e+00 3.496913e+00 3.890047e+00 5.258223e+00 4.335114e+00 5.466643e+00 6.696951e+00 5.651746e+00 2.934555e+00 4.298025e+00 3.193913e+00 2.384020e-03 5.071406e-01 2.610695e-01 5.138390e-01 5.437855e-01 8.031527e-01 7.055553e-01 8.152969e-01 1.310557e+00 9.413415e-01 5.100826e-01 6.901864e-01 6.265311e-01 2.040434e-04
<GCONST> 1.163713e+02
<STATE> 5
<MEAN> 39
 -3.230738e+00 -1.515786e+01 -1.165155e+01 -3.295671e+00 -2.655040e+00 -1.288356e+01 -4.088137e+00 -5.261220e+00 -6.732954e-01 -2.127218e+00 -4.278746e+00 -1.506485e+00 7.271577e-01 8.778109e-02 1.432122e-01 -1.328570e-01 -9.438934e-02 -4.616191e-02 4.728339e-02 4.048201e-02 5.997926e-02 1.857099e-02 -1.546985e-01 -1.222250e-01 -9.317730e-02 -1.373555e-03 -1.442670e-02 3.813335e-02 -3.479990e-03 -3.287273e-02 -3.620663e-02 1.104436e-02 2.358031e-03 1.823885e-02 1.349649e-03 3.471115e-03 2.532526e-03 -2.083193e-02 -2.093691e-03
<VARIANCE> 39
 4.861930e+01 7.923386e+01 6.163573e+01 9.608722e+01 1.010255e+02 6.299562e+01 7.838954e+01 6.733615e+01 8.506611e+01 6.342977e+01 7.134695e+01 6.335672e+01 4.190123e-02 3.009253e+00 1.866779e+00 3.496913e+00 3.890047e+00 5.258223e+00 4.335114e+00 5.466643e+00 6.696951e+00 5.651746e+00 2.934555e+00 4.298025e+00 3.193913e+00 2.384020e-03 5.071406e-01 2.610695e-01 5.138390e-01 5.437855e-01 8.031527e-01 7.055553e-01 8.152969e-01 1.310557e+00 9.413415e-01 5.100826e-01 6.901864e-01 6.265311e-01 2.040434e-04
<GCONST> 1.163713e+02
<STATE> 6
<MEAN> 39
 -3.230738e+00 -1.515786e+01 -1.165155e+01 -3.295671e+00 -2.655040e+00 -1.288356e+01 -4.088137e+00 -5.261220e+00 -6.732954e-01 -2.127218e+00 -4.278746e+00 -1.506485e+00 7.271577e-01 8.778109e-02 1.432122e-01 -1.328570e-01 -9.438934e-02 -4.616191e-02 4.728339e-02 4.048201e-02 5.997926e-02 1.857099e-02 -1.546985e-01 -1.222250e-01 -9.317730e-02 -1.373555e-03 -1.442670e-02 3.813335e-02 -3.479990e-03 -3.287273e-02 -3.620663e-02 1.104436e-02 2.358031e-03 1.823885e-02 1.349649e-03 3.471115e-03 2.532526e-03 -2.083193e-02 -2.093691e-03
<VARIANCE> 39
 4.861930e+01 7.923386e+01 6.163573e+01 9.608722e+01 1.010255e+02 6.299562e+01 7.838954e+01 6.733615e+01 8.506611e+01 6.342977e+01 7.134695e+01 6.335672e+01 4.190123e-02 3.009253e+00 1.866779e+00 3.496913e+00 3.890047e+00 5.258223e+00 4.335114e+00 5.466643e+00 6.696951e+00 5.651746e+00 2.934555e+00 4.298025e+00 3.193913e+00 2.384020e-03 5.071406e-01 2.610695e-01 5.138390e-01 5.437855e-01 8.031527e-01 7.055553e-01 8.152969e-01 1.310557e+00 9.413415e-01 5.100826e-01 6.901864e-01 6.265311e-01 2.040434e-04
<GCONST> 1.163713e+02
<TRANSP> 7
 0.000000e+00 1.000000e+00 0.000000e+00 0.000000e+00 0.000000e+00 0.000000e+00 0.000000e+00
 0.000000e+00 6.000000e-01 4.000000e-01 0.000000e+00 0.000000e+00 0.000000e+00 0.000000e+00
 0.000000e+00 0.000000e+00 6.000000e-01 4.000000e-01 0.000000e+00 0.000000e+00 0.000000e+00
 0.000000e+00 0.000000e+00 0.000000e+00 6.000000e-01 4.000000e-01 0.000000e+00 0.000000e+00
 0.000000e+00 0.000000e+00 0.000000e+00 0.000000e+00 6.000000e-01 4.000000e-01 0.000000e+00
 0.000000e+00 0.000000e+00 0.000000e+00 0.000000e+00 0.000000e+00 6.000000e-01 4.000000e-01
 0.000000e+00 0.000000e+00 0.000000e+00 0.000000e+00 0.000000e+00 0.000000e+00 0.000000e+00
<ENDHMM>
