~o
<STREAMINFO> 1 39
<VECSIZE> 39<NULLD><MFCC_E_D_A><DIAGC>
~h "AUTO"
<BEGINHMM>
<NUMSTATES> 7
<STATE> 2
<MEAN> 39
 -7.513832e+00 -1.333927e+01 -8.881847e+00 -4.444209e+00 -3.459612e+00 -1.062175e+01 -2.900196e+00 -5.409642e+00 -1.600655e+00 -3.155828e+00 -4.921319e+00 -2.957961e+00 4.509908e-01 3.618926e-03 6.700607e-02 5.077013e-02 -7.910070e-03 8.884886e-02 -6.561518e-02 -2.124104e-02 -7.890134e-02 -3.378296e-02 5.454152e-02 -3.741012e-02 -9.470967e-03 -1.121758e-03 -2.631848e-03 1.485213e-02 2.951263e-02 2.013577e-02 -3.424056e-03 6.620934e-02 1.224237e-02 5.273139e-02 6.440422e-03 1.832993e-02 3.882907e-02 4.240185e-02 3.440078e-03
<VARIANCE> 39
 6.060397e+01 7.505397e+01 7.226206e+01 9.023615e+01 1.046285e+02 5.733344e+01 8.639360e+01 8.336234e+01 8.561450e+01 1.043292e+02 7.339007e+01 4.984235e+01 9.257121e-02 2.045337e+00 2.687034e+00 2.858175e+00 3.639467e+00 4.303408e+00 4.043252e+00 4.495577e+00 5.542874e+00 4.894867e+00 3.485865e+00 3.850338e+00 3.126634e+00 4.270491e-03 3.229690e-01 3.967599e-01 4.036766e-01 5.289688e-01 6.792030e-01 6.542378e-01 7.430467e-01 1.018879e+00 8.967537e-01 5.767189e-01 6.089594e-01 5.765819e-01 4.537161e-04
<GCONST> 1.172812e+02
<STATE> 3
<MEAN> 39
 -7.513832e+00 -1.333927e+01 -8.881847e+00 -4.444209e+00 -3.459612e+00 -1.062175e+01 -2.900196e+00 -5.409642e+00 -1.600655e+00 -3.155828e+00 -4.921319e+00 -2.957961e+00 4.509908e-01 3.618926e-03 6.700607e-02 5.077013e-02 -7.910070e-03 8.884886e-02 -6.561518e-02 -2.124104e-02 -7.890134e-02 -3.378296e-02 5.454152e-02 -3.741012e-02 -9.470967e-03 -1.121758e-03 -2.631848e-03 1.485213e-02 2.951263e-02 2.013577e-02 -3.424056e-03 6.620934e-02 1.224237e-02 5.273139e-02 6.440422e-03 1.832993e-02 3.882907e-02 4.240185e-02 3.440078e-03
<VARIANCE> 39
 6.060397e+01 7.505397e+01 7.226206e+01 9.023615e+01 1.046285e+02 5.733344e+01 8.639360e+01 8.336234e+01 8.561450e+01 1.043292e+02 7.339007e+01 4.984235e+01 9.257121e-02 2.045337e+00 2.687034e+00 2.858175e+00 3.639467e+00 4.303408e+00 4.043252e+00 4.495577e+00 5.542874e+00 4.894867e+00 3.485865e+00 3.850338e+00 3.126634e+00 4.270491e-03 3.229690e-01 3.967599e-01 4.036766e-01 5.289688e-01 6.792030e-01 6.542378e-01 7.430467e-01 1.018879e+00 8.967537e-01 5.767189e-01 6.089594e-01 5.765819e-01 4.537161e-04
<GCONST> 1.172812e+02
<STATE> 4
<MEAN> 39
 -7.513832e+00 -1.333927e+01 -8.881847e+00 -4.444209e+00 -3.459612e+00 -1.062175e+01 -2.900196e+00 -5.409642e+00 -1.600655e+00 -3.155828e+00 -4.921319e+00 -2.957961e+00 4.509908e-01 3.618926e-03 6.700607e-02 5.077013e-02 -7.910070e-03 8.884886e-02 -6.561518e-02 -2.124104e-02 -7.890134e-02 -3.378296e-02 5.454152e-02 -3.741012e-02 -9.470967e-03 -1.121758e-03 -2.631848e-03 1.485213e-02 2.951263e-02 2.013577e-02 -3.424056e-03 6.620934e-02 1.224237e-02 5.273139e-02 6.440422e-03 1.832993e-02 3.882907e-02 4.240185e-02 3.440078e-03
<VARIANCE> 39
 6.060397e+01 7.505397e+01 7.226206e+01 9.023615e+01 1.046285e+02 5.733344e+01 8.639360e+01 8.336234e+01 8.561450e+01 1.043292e+02 7.339007e+01 4.984235e+01 9.257121e-02 2.045337e+00 2.687034e+00 2.858175e+00 3.639467e+00 4.303408e+00 4.043252e+00 4.495577e+00 5.542874e+00 4.894867e+00 3.485865e+00 3.850338e+00 3.126634e+00 4.270491e-03 3.229690e-01 3.967599e-01 4.036766e-01 5.289688e-01 6.792030e-01 6.542378e-01 7.430467e-01 1.018879e+00 8.967537e-01 5.767189e-01 6.089594e-01 5.765819e-01 4.537161e-04
<GCONST> 1.172812e+02
<STATE> 5
<MEAN> 39
 -7.513832e+00 -1.333927e+01 -8.881847e+00 -4.444209e+00 -3.459612e+00 -1.062175e+01 -2.900196e+00 -5.409642e+00 -1.600655e+00 -3.155828e+00 -4.921319e+00 -2.957961e+00 4.509908e-01 3.618926e-03 6.700607e-02 5.077013e-02 -7.910070e-03 8.884886e-02 -6.561518e-02 -2.124104e-02 -7.890134e-02 -3.378296e-02 5.454152e-02 -3.741012e-02 -9.470967e-03 -1.121758e-03 -2.631848e-03 1.485213e-02 2.951263e-02 2.013577e-02 -3.424056e-03 6.620934e-02 1.224237e-02 5.273139e-02 6.440422e-03 1.832993e-02 3.882907e-02 4.240185e-02 3.440078e-03
<VARIANCE> 39
 6.060397e+01 7.505397e+01 7.226206e+01 9.023615e+01 1.046285e+02 5.733344e+01 8.639360e+01 8.336234e+01 8.561450e+01 1.043292e+02 7.339007e+01 4.984235e+01 9.257121e-02 2.045337e+00 2.687034e+00 2.858175e+00 3.639467e+00 4.303408e+00 4.043252e+00 4.495577e+00 5.542874e+00 4.894867e+00 3.485865e+00 3.850338e+00 3.126634e+00 4.270491e-03 3.229690e-01 3.967599e-01 4.036766e-01 5.289688e-01 6.792030e-01 6.542378e-01 7.430467e-01 1.018879e+00 8.967537e-01 5.767189e-01 6.089594e-01 5.765819e-01 4.537161e-04
<GCONST> 1.172812e+02
<STATE> 6
<MEAN> 39
 -7.513832e+00 -1.333927e+01 -8.881847e+00 -4.444209e+00 -3.459612e+00 -1.062175e+01 -2.900196e+00 -5.409642e+00 -1.600655e+00 -3.155828e+00 -4.921319e+00 -2.957961e+00 4.509908e-01 3.618926e-03 6.700607e-02 5.077013e-02 -7.910070e-03 8.884886e-02 -6.561518e-02 -2.124104e-02 -7.890134e-02 -3.378296e-02 5.454152e-02 -3.741012e-02 -9.470967e-03 -1.121758e-03 -2.631848e-03 1.485213e-02 2.951263e-02 2.013577e-02 -3.424056e-03 6.620934e-02 1.224237e-02 5.273139e-02 6.440422e-03 1.832993e-02 3.882907e-02 4.240185e-02 3.440078e-03
<VARIANCE> 39
 6.060397e+01 7.505397e+01 7.226206e+01 9.023615e+01 1.046285e+02 5.733344e+01 8.639360e+01 8.336234e+01 8.561450e+01 1.043292e+02 7.339007e+01 4.984235e+01 9.257121e-02 2.045337e+00 2.687034e+00 2.858175e+00 3.639467e+00 4.303408e+00 4.043252e+00 4.495577e+00 5.542874e+00 4.894867e+00 3.485865e+00 3.850338e+00 3.126634e+00 4.270491e-03 3.229690e-01 3.967599e-01 4.036766e-01 5.289688e-01 6.792030e-01 6.542378e-01 7.430467e-01 1.018879e+00 8.967537e-01 5.767189e-01 6.089594e-01 5.765819e-01 4.537161e-04
<GCONST> 1.172812e+02
<TRANSP> 7
 0.000000e+00 1.000000e+00 0.000000e+00 0.000000e+00 0.000000e+00 0.000000e+00 0.000000e+00
 0.000000e+00 6.000000e-01 4.000000e-01 0.000000e+00 0.000000e+00 0.000000e+00 0.000000e+00
 0.000000e+00 0.000000e+00 6.000000e-01 4.000000e-01 0.000000e+00 0.000000e+00 0.000000e+00
 0.000000e+00 0.000000e+00 0.000000e+00 6.000000e-01 4.000000e-01 0.000000e+00 0.000000e+00
 0.000000e+00 0.000000e+00 0.000000e+00 0.000000e+00 6.000000e-01 4.000000e-01 0.000000e+00
 0.000000e+00 0.000000e+00 0.000000e+00 0.000000e+00 0.000000e+00 6.000000e-01 4.000000e-01
 0.000000e+00 0.000000e+00 0.000000e+00 0.000000e+00 0.000000e+00 0.000000e+00 0.000000e+00
<ENDHMM>
