~o
<STREAMINFO> 1 39
<VECSIZE> 39<NULLD><MFCC_E_D_A><DIAGC>
~h "KAKTUS"
<BEGINHMM>
<NUMSTATES> 7
<STATE> 2
<MEAN> 39
 -1.008439e+01 -1.047688e+01 -1.935381e+00 -5.804047e+00 -1.249224e+01 -4.148477e+00 -1.809363e+00 -9.531345e+00 -3.872679e-01 1.063238e+00 -2.959104e+00 -1.109269e+00 6.249394e-01 -3.791401e-02 1.390974e-01 -8.226264e-02 1.321660e-01 9.484725e-03 3.744434e-02 -6.890167e-02 -4.042909e-02 -2.198290e-02 -6.605832e-02 1.126497e-02 2.728591e-02 -5.638337e-03 -3.807904e-03 2.318785e-03 1.133267e-02 -5.684245e-04 9.602567e-04 -1.292401e-02 -2.252547e-02 -2.303000e-04 1.736959e-02 2.588410e-03 2.080767e-02 -3.124658e-03 -4.197426e-04
<VARIANCE> 39
 7.446223e+01 9.454269e+01 5.906970e+01 6.360820e+01 1.430430e+02 2.230729e+02 6.951825e+01 8.380270e+01 1.090398e+02 6.475492e+01 5.546527e+01 8.494961e+01 5.183086e-02 2.513361e+00 2.183062e+00 3.636580e+00 3.235099e+00 6.132452e+00 6.855644e+00 4.640231e+00 4.275454e+00 3.881276e+00 3.936369e+00 3.779432e+00 2.890283e+00 2.172619e-03 3.606288e-01 3.305367e-01 6.108252e-01 5.505022e-01 1.171209e+00 8.928356e-01 7.933194e-01 7.183114e-01 6.458755e-01 6.990916e-01 7.119159e-01 5.220714e-01 3.117123e-04
<GCONST> 1.184556e+02
<STATE> 3
<MEAN> 39
 -1.008439e+01 -1.047688e+01 -1.935381e+00 -5.804047e+00 -1.249224e+01 -4.148477e+00 -1.809363e+00 -9.531345e+00 -3.872679e-01 1.063238e+00 -2.959104e+00 -1.109269e+00 6.249394e-01 -3.791401e-02 1.390974e-01 -8.226264e-02 1.321660e-01 9.484725e-03 3.744434e-02 -6.890167e-02 -4.042909e-02 -2.198290e-02 -6.605832e-02 1.126497e-02 2.728591e-02 -5.638337e-03 -3.807904e-03 2.318785e-03 1.133267e-02 -5.684245e-04 9.602567e-04 -1.292401e-02 -2.252547e-02 -2.303000e-04 1.736959e-02 2.588410e-03 2.080767e-02 -3.124658e-03 -4.197426e-04
<VARIANCE> 39
 7.446223e+01 9.454269e+01 5.906970e+01 6.360820e+01 1.430430e+02 2.230729e+02 6.951825e+01 8.380270e+01 1.090398e+02 6.475492e+01 5.546527e+01 8.494961e+01 5.183086e-02 2.513361e+00 2.183062e+00 3.636580e+00 3.235099e+00 6.132452e+00 6.855644e+00 4.640231e+00 4.275454e+00 3.881276e+00 3.936369e+00 3.779432e+00 2.890283e+00 2.172619e-03 3.606288e-01 3.305367e-01 6.108252e-01 5.505022e-01 1.171209e+00 8.928356e-01 7.933194e-01 7.183114e-01 6.458755e-01 6.990916e-01 7.119159e-01 5.220714e-01 3.117123e-04
<GCONST> 1.184556e+02
<STATE> 4
<MEAN> 39
 -1.008439e+01 -1.047688e+01 -1.935381e+00 -5.804047e+00 -1.249224e+01 -4.148477e+00 -1.809363e+00 -9.531345e+00 -3.872679e-01 1.063238e+00 -2.959104e+00 -1.109269e+00 6.249394e-01 -3.791401e-02 1.390974e-01 -8.226264e-02 1.321660e-01 9.484725e-03 3.744434e-02 -6.890167e-02 -4.042909e-02 -2.198290e-02 -6.605832e-02 1.126497e-02 2.728591e-02 -5.638337e-03 -3.807904e-03 2.318785e-03 1.133267e-02 -5.684245e-04 9.602567e-04 -1.292401e-02 -2.252547e-02 -2.303000e-04 1.736959e-02 2.588410e-03 2.080767e-02 -3.124658e-03 -4.197426e-04
<VARIANCE> 39
 7.446223e+01 9.454269e+01 5.906970e+01 6.360820e+01 1.430430e+02 2.230729e+02 6.951825e+01 8.380270e+01 1.090398e+02 6.475492e+01 5.546527e+01 8.494961e+01 5.183086e-02 2.513361e+00 2.183062e+00 3.636580e+00 3.235099e+00 6.132452e+00 6.855644e+00 4.640231e+00 4.275454e+00 3.881276e+00 3.936369e+00 3.779432e+00 2.890283e+00 2.172619e-03 3.606288e-01 3.305367e-01 6.108252e-01 5.505022e-01 1.171209e+00 8.928356e-01 7.933194e-01 7.183114e-01 6.458755e-01 6.990916e-01 7.119159e-01 5.220714e-01 3.117123e-04
<GCONST> 1.184556e+02
<STATE> 5
<MEAN> 39
 -1.008439e+01 -1.047688e+01 -1.935381e+00 -5.804047e+00 -1.249224e+01 -4.148477e+00 -1.809363e+00 -9.531345e+00 -3.872679e-01 1.063238e+00 -2.959104e+00 -1.109269e+00 6.249394e-01 -3.791401e-02 1.390974e-01 -8.226264e-02 1.321660e-01 9.484725e-03 3.744434e-02 -6.890167e-02 -4.042909e-02 -2.198290e-02 -6.605832e-02 1.126497e-02 2.728591e-02 -5.638337e-03 -3.807904e-03 2.318785e-03 1.133267e-02 -5.684245e-04 9.602567e-04 -1.292401e-02 -2.252547e-02 -2.303000e-04 1.736959e-02 2.588410e-03 2.080767e-02 -3.124658e-03 -4.197426e-04
<VARIANCE> 39
 7.446223e+01 9.454269e+01 5.906970e+01 6.360820e+01 1.430430e+02 2.230729e+02 6.951825e+01 8.380270e+01 1.090398e+02 6.475492e+01 5.546527e+01 8.494961e+01 5.183086e-02 2.513361e+00 2.183062e+00 3.636580e+00 3.235099e+00 6.132452e+00 6.855644e+00 4.640231e+00 4.275454e+00 3.881276e+00 3.936369e+00 3.779432e+00 2.890283e+00 2.172619e-03 3.606288e-01 3.305367e-01 6.108252e-01 5.505022e-01 1.171209e+00 8.928356e-01 7.933194e-01 7.183114e-01 6.458755e-01 6.990916e-01 7.119159e-01 5.220714e-01 3.117123e-04
<GCONST> 1.184556e+02
<STATE> 6
<MEAN> 39
 -1.008439e+01 -1.047688e+01 -1.935381e+00 -5.804047e+00 -1.249224e+01 -4.148477e+00 -1.809363e+00 -9.531345e+00 -3.872679e-01 1.063238e+00 -2.959104e+00 -1.109269e+00 6.249394e-01 -3.791401e-02 1.390974e-01 -8.226264e-02 1.321660e-01 9.484725e-03 3.744434e-02 -6.890167e-02 -4.042909e-02 -2.198290e-02 -6.605832e-02 1.126497e-02 2.728591e-02 -5.638337e-03 -3.807904e-03 2.318785e-03 1.133267e-02 -5.684245e-04 9.602567e-04 -1.292401e-02 -2.252547e-02 -2.303000e-04 1.736959e-02 2.588410e-03 2.080767e-02 -3.124658e-03 -4.197426e-04
<VARIANCE> 39
 7.446223e+01 9.454269e+01 5.906970e+01 6.360820e+01 1.430430e+02 2.230729e+02 6.951825e+01 8.380270e+01 1.090398e+02 6.475492e+01 5.546527e+01 8.494961e+01 5.183086e-02 2.513361e+00 2.183062e+00 3.636580e+00 3.235099e+00 6.132452e+00 6.855644e+00 4.640231e+00 4.275454e+00 3.881276e+00 3.936369e+00 3.779432e+00 2.890283e+00 2.172619e-03 3.606288e-01 3.305367e-01 6.108252e-01 5.505022e-01 1.171209e+00 8.928356e-01 7.933194e-01 7.183114e-01 6.458755e-01 6.990916e-01 7.119159e-01 5.220714e-01 3.117123e-04
<GCONST> 1.184556e+02
<TRANSP> 7
 0.000000e+00 1.000000e+00 0.000000e+00 0.000000e+00 0.000000e+00 0.000000e+00 0.000000e+00
 0.000000e+00 6.000000e-01 4.000000e-01 0.000000e+00 0.000000e+00 0.000000e+00 0.000000e+00
 0.000000e+00 0.000000e+00 6.000000e-01 4.000000e-01 0.000000e+00 0.000000e+00 0.000000e+00
 0.000000e+00 0.000000e+00 0.000000e+00 6.000000e-01 4.000000e-01 0.000000e+00 0.000000e+00
 0.000000e+00 0.000000e+00 0.000000e+00 0.000000e+00 6.000000e-01 4.000000e-01 0.000000e+00
 0.000000e+00 0.000000e+00 0.000000e+00 0.000000e+00 0.000000e+00 6.000000e-01 4.000000e-01
 0.000000e+00 0.000000e+00 0.000000e+00 0.000000e+00 0.000000e+00 0.000000e+00 0.000000e+00
<ENDHMM>
