~o
<STREAMINFO> 1 39
<VECSIZE> 39<NULLD><MFCC_E_D_A><DIAGC>
~h "KAKTUS"
<BEGINHMM>
<NUMSTATES> 7
<STATE> 2
<MEAN> 39
 -1.268949e+01 -1.062082e+01 -3.182637e+00 -6.158604e+00 -1.093976e+01 -3.845465e+00 -2.408026e+00 -8.305881e+00 1.381879e+00 -1.171633e+00 -3.614656e+00 -1.860979e+00 4.038891e-01 6.029468e-03 5.055983e-02 7.736077e-02 -1.898423e-02 6.162689e-02 -6.113596e-02 -8.458247e-03 -7.770639e-02 -4.242438e-02 4.802236e-02 -4.388637e-02 -1.883641e-02 -1.195882e-03 1.202435e-02 1.240670e-02 2.137380e-02 1.993531e-02 2.166197e-02 4.057002e-02 2.248899e-02 5.998136e-02 -6.465289e-03 3.001549e-03 4.248395e-02 1.615728e-02 3.216163e-03
<VARIANCE> 39
 6.382710e+01 8.050072e+01 5.725366e+01 5.954103e+01 1.099344e+02 1.684201e+02 6.098040e+01 7.304681e+01 8.213966e+01 6.929958e+01 5.086550e+01 6.728957e+01 8.844467e-02 1.925752e+00 2.123264e+00 3.802680e+00 3.136438e+00 5.738294e+00 5.870441e+00 4.468046e+00 4.930459e+00 3.710891e+00 3.639357e+00 4.160861e+00 2.828566e+00 4.635179e-03 2.832009e-01 3.042112e-01 6.917076e-01 5.231965e-01 1.064204e+00 7.949498e-01 8.041375e-01 8.095876e-01 6.527788e-01 6.474682e-01 7.702535e-01 4.968043e-01 5.204130e-04
<GCONST> 1.176874e+02
<STATE> 3
<MEAN> 39
 -1.268949e+01 -1.062082e+01 -3.182637e+00 -6.158604e+00 -1.093976e+01 -3.845465e+00 -2.408026e+00 -8.305881e+00 1.381879e+00 -1.171633e+00 -3.614656e+00 -1.860979e+00 4.038891e-01 6.029468e-03 5.055983e-02 7.736077e-02 -1.898423e-02 6.162689e-02 -6.113596e-02 -8.458247e-03 -7.770639e-02 -4.242438e-02 4.802236e-02 -4.388637e-02 -1.883641e-02 -1.195882e-03 1.202435e-02 1.240670e-02 2.137380e-02 1.993531e-02 2.166197e-02 4.057002e-02 2.248899e-02 5.998136e-02 -6.465289e-03 3.001549e-03 4.248395e-02 1.615728e-02 3.216163e-03
<VARIANCE> 39
 6.382710e+01 8.050072e+01 5.725366e+01 5.954103e+01 1.099344e+02 1.684201e+02 6.098040e+01 7.304681e+01 8.213966e+01 6.929958e+01 5.086550e+01 6.728957e+01 8.844467e-02 1.925752e+00 2.123264e+00 3.802680e+00 3.136438e+00 5.738294e+00 5.870441e+00 4.468046e+00 4.930459e+00 3.710891e+00 3.639357e+00 4.160861e+00 2.828566e+00 4.635179e-03 2.832009e-01 3.042112e-01 6.917076e-01 5.231965e-01 1.064204e+00 7.949498e-01 8.041375e-01 8.095876e-01 6.527788e-01 6.474682e-01 7.702535e-01 4.968043e-01 5.204130e-04
<GCONST> 1.176874e+02
<STATE> 4
<MEAN> 39
 -1.268949e+01 -1.062082e+01 -3.182637e+00 -6.158604e+00 -1.093976e+01 -3.845465e+00 -2.408026e+00 -8.305881e+00 1.381879e+00 -1.171633e+00 -3.614656e+00 -1.860979e+00 4.038891e-01 6.029468e-03 5.055983e-02 7.736077e-02 -1.898423e-02 6.162689e-02 -6.113596e-02 -8.458247e-03 -7.770639e-02 -4.242438e-02 4.802236e-02 -4.388637e-02 -1.883641e-02 -1.195882e-03 1.202435e-02 1.240670e-02 2.137380e-02 1.993531e-02 2.166197e-02 4.057002e-02 2.248899e-02 5.998136e-02 -6.465289e-03 3.001549e-03 4.248395e-02 1.615728e-02 3.216163e-03
<VARIANCE> 39
 6.382710e+01 8.050072e+01 5.725366e+01 5.954103e+01 1.099344e+02 1.684201e+02 6.098040e+01 7.304681e+01 8.213966e+01 6.929958e+01 5.086550e+01 6.728957e+01 8.844467e-02 1.925752e+00 2.123264e+00 3.802680e+00 3.136438e+00 5.738294e+00 5.870441e+00 4.468046e+00 4.930459e+00 3.710891e+00 3.639357e+00 4.160861e+00 2.828566e+00 4.635179e-03 2.832009e-01 3.042112e-01 6.917076e-01 5.231965e-01 1.064204e+00 7.949498e-01 8.041375e-01 8.095876e-01 6.527788e-01 6.474682e-01 7.702535e-01 4.968043e-01 5.204130e-04
<GCONST> 1.176874e+02
<STATE> 5
<MEAN> 39
 -1.268949e+01 -1.062082e+01 -3.182637e+00 -6.158604e+00 -1.093976e+01 -3.845465e+00 -2.408026e+00 -8.305881e+00 1.381879e+00 -1.171633e+00 -3.614656e+00 -1.860979e+00 4.038891e-01 6.029468e-03 5.055983e-02 7.736077e-02 -1.898423e-02 6.162689e-02 -6.113596e-02 -8.458247e-03 -7.770639e-02 -4.242438e-02 4.802236e-02 -4.388637e-02 -1.883641e-02 -1.195882e-03 1.202435e-02 1.240670e-02 2.137380e-02 1.993531e-02 2.166197e-02 4.057002e-02 2.248899e-02 5.998136e-02 -6.465289e-03 3.001549e-03 4.248395e-02 1.615728e-02 3.216163e-03
<VARIANCE> 39
 6.382710e+01 8.050072e+01 5.725366e+01 5.954103e+01 1.099344e+02 1.684201e+02 6.098040e+01 7.304681e+01 8.213966e+01 6.929958e+01 5.086550e+01 6.728957e+01 8.844467e-02 1.925752e+00 2.123264e+00 3.802680e+00 3.136438e+00 5.738294e+00 5.870441e+00 4.468046e+00 4.930459e+00 3.710891e+00 3.639357e+00 4.160861e+00 2.828566e+00 4.635179e-03 2.832009e-01 3.042112e-01 6.917076e-01 5.231965e-01 1.064204e+00 7.949498e-01 8.041375e-01 8.095876e-01 6.527788e-01 6.474682e-01 7.702535e-01 4.968043e-01 5.204130e-04
<GCONST> 1.176874e+02
<STATE> 6
<MEAN> 39
 -1.268949e+01 -1.062082e+01 -3.182637e+00 -6.158604e+00 -1.093976e+01 -3.845465e+00 -2.408026e+00 -8.305881e+00 1.381879e+00 -1.171633e+00 -3.614656e+00 -1.860979e+00 4.038891e-01 6.029468e-03 5.055983e-02 7.736077e-02 -1.898423e-02 6.162689e-02 -6.113596e-02 -8.458247e-03 -7.770639e-02 -4.242438e-02 4.802236e-02 -4.388637e-02 -1.883641e-02 -1.195882e-03 1.202435e-02 1.240670e-02 2.137380e-02 1.993531e-02 2.166197e-02 4.057002e-02 2.248899e-02 5.998136e-02 -6.465289e-03 3.001549e-03 4.248395e-02 1.615728e-02 3.216163e-03
<VARIANCE> 39
 6.382710e+01 8.050072e+01 5.725366e+01 5.954103e+01 1.099344e+02 1.684201e+02 6.098040e+01 7.304681e+01 8.213966e+01 6.929958e+01 5.086550e+01 6.728957e+01 8.844467e-02 1.925752e+00 2.123264e+00 3.802680e+00 3.136438e+00 5.738294e+00 5.870441e+00 4.468046e+00 4.930459e+00 3.710891e+00 3.639357e+00 4.160861e+00 2.828566e+00 4.635179e-03 2.832009e-01 3.042112e-01 6.917076e-01 5.231965e-01 1.064204e+00 7.949498e-01 8.041375e-01 8.095876e-01 6.527788e-01 6.474682e-01 7.702535e-01 4.968043e-01 5.204130e-04
<GCONST> 1.176874e+02
<TRANSP> 7
 0.000000e+00 1.000000e+00 0.000000e+00 0.000000e+00 0.000000e+00 0.000000e+00 0.000000e+00
 0.000000e+00 6.000000e-01 4.000000e-01 0.000000e+00 0.000000e+00 0.000000e+00 0.000000e+00
 0.000000e+00 0.000000e+00 6.000000e-01 4.000000e-01 0.000000e+00 0.000000e+00 0.000000e+00
 0.000000e+00 0.000000e+00 0.000000e+00 6.000000e-01 4.000000e-01 0.000000e+00 0.000000e+00
 0.000000e+00 0.000000e+00 0.000000e+00 0.000000e+00 6.000000e-01 4.000000e-01 0.000000e+00
 0.000000e+00 0.000000e+00 0.000000e+00 0.000000e+00 0.000000e+00 6.000000e-01 4.000000e-01
 0.000000e+00 0.000000e+00 0.000000e+00 0.000000e+00 0.000000e+00 0.000000e+00 0.000000e+00
<ENDHMM>
