~o
<STREAMINFO> 1 39
<VECSIZE> 39<NULLD><MFCC_E_D_A><DIAGC>
~h "KAKTUS"
<BEGINHMM>
<NUMSTATES> 7
<STATE> 2
<MEAN> 39
 -1.026024e+01 -1.031697e+01 -1.874106e+00 -5.643990e+00 -1.219271e+01 -4.028906e+00 -1.712345e+00 -9.039330e+00 -4.462675e-01 1.206761e+00 -2.792573e+00 -9.288522e-01 4.822105e-01 -7.357069e-03 1.368840e-01 3.741491e-02 4.049103e-02 2.163665e-01 -1.184137e-01 -6.243399e-02 1.131675e-02 -9.631508e-02 4.136960e-02 2.940182e-02 -1.360351e-02 2.156088e-03 -7.372809e-03 2.072159e-02 -2.157880e-02 2.844304e-02 7.236942e-02 1.002174e-02 -1.286863e-02 1.149837e-01 -7.449535e-03 3.290958e-02 7.653858e-02 2.595428e-02 3.494459e-03
<VARIANCE> 39
 7.302948e+01 9.531522e+01 5.766102e+01 5.922261e+01 1.418890e+02 2.138077e+02 6.568556e+01 8.684447e+01 1.063912e+02 6.405051e+01 5.441968e+01 8.212545e+01 5.675361e-02 2.713161e+00 2.537392e+00 3.864152e+00 3.347063e+00 7.253734e+00 7.439867e+00 4.458329e+00 5.475314e+00 4.070197e+00 3.958546e+00 4.476283e+00 2.965593e+00 4.250595e-03 3.763334e-01 3.826276e-01 7.337445e-01 5.466806e-01 1.259694e+00 9.374675e-01 7.516670e-01 7.825718e-01 6.742159e-01 7.029194e-01 8.028083e-01 4.920799e-01 5.246265e-04
<GCONST> 1.211261e+02
<STATE> 3
<MEAN> 39
 -1.026024e+01 -1.031697e+01 -1.874106e+00 -5.643990e+00 -1.219271e+01 -4.028906e+00 -1.712345e+00 -9.039330e+00 -4.462675e-01 1.206761e+00 -2.792573e+00 -9.288522e-01 4.822105e-01 -7.357069e-03 1.368840e-01 3.741491e-02 4.049103e-02 2.163665e-01 -1.184137e-01 -6.243399e-02 1.131675e-02 -9.631508e-02 4.136960e-02 2.940182e-02 -1.360351e-02 2.156088e-03 -7.372809e-03 2.072159e-02 -2.157880e-02 2.844304e-02 7.236942e-02 1.002174e-02 -1.286863e-02 1.149837e-01 -7.449535e-03 3.290958e-02 7.653858e-02 2.595428e-02 3.494459e-03
<VARIANCE> 39
 7.302948e+01 9.531522e+01 5.766102e+01 5.922261e+01 1.418890e+02 2.138077e+02 6.568556e+01 8.684447e+01 1.063912e+02 6.405051e+01 5.441968e+01 8.212545e+01 5.675361e-02 2.713161e+00 2.537392e+00 3.864152e+00 3.347063e+00 7.253734e+00 7.439867e+00 4.458329e+00 5.475314e+00 4.070197e+00 3.958546e+00 4.476283e+00 2.965593e+00 4.250595e-03 3.763334e-01 3.826276e-01 7.337445e-01 5.466806e-01 1.259694e+00 9.374675e-01 7.516670e-01 7.825718e-01 6.742159e-01 7.029194e-01 8.028083e-01 4.920799e-01 5.246265e-04
<GCONST> 1.211261e+02
<STATE> 4
<MEAN> 39
 -1.026024e+01 -1.031697e+01 -1.874106e+00 -5.643990e+00 -1.219271e+01 -4.028906e+00 -1.712345e+00 -9.039330e+00 -4.462675e-01 1.206761e+00 -2.792573e+00 -9.288522e-01 4.822105e-01 -7.357069e-03 1.368840e-01 3.741491e-02 4.049103e-02 2.163665e-01 -1.184137e-01 -6.243399e-02 1.131675e-02 -9.631508e-02 4.136960e-02 2.940182e-02 -1.360351e-02 2.156088e-03 -7.372809e-03 2.072159e-02 -2.157880e-02 2.844304e-02 7.236942e-02 1.002174e-02 -1.286863e-02 1.149837e-01 -7.449535e-03 3.290958e-02 7.653858e-02 2.595428e-02 3.494459e-03
<VARIANCE> 39
 7.302948e+01 9.531522e+01 5.766102e+01 5.922261e+01 1.418890e+02 2.138077e+02 6.568556e+01 8.684447e+01 1.063912e+02 6.405051e+01 5.441968e+01 8.212545e+01 5.675361e-02 2.713161e+00 2.537392e+00 3.864152e+00 3.347063e+00 7.253734e+00 7.439867e+00 4.458329e+00 5.475314e+00 4.070197e+00 3.958546e+00 4.476283e+00 2.965593e+00 4.250595e-03 3.763334e-01 3.826276e-01 7.337445e-01 5.466806e-01 1.259694e+00 9.374675e-01 7.516670e-01 7.825718e-01 6.742159e-01 7.029194e-01 8.028083e-01 4.920799e-01 5.246265e-04
<GCONST> 1.211261e+02
<STATE> 5
<MEAN> 39
 -1.026024e+01 -1.031697e+01 -1.874106e+00 -5.643990e+00 -1.219271e+01 -4.028906e+00 -1.712345e+00 -9.039330e+00 -4.462675e-01 1.206761e+00 -2.792573e+00 -9.288522e-01 4.822105e-01 -7.357069e-03 1.368840e-01 3.741491e-02 4.049103e-02 2.163665e-01 -1.184137e-01 -6.243399e-02 1.131675e-02 -9.631508e-02 4.136960e-02 2.940182e-02 -1.360351e-02 2.156088e-03 -7.372809e-03 2.072159e-02 -2.157880e-02 2.844304e-02 7.236942e-02 1.002174e-02 -1.286863e-02 1.149837e-01 -7.449535e-03 3.290958e-02 7.653858e-02 2.595428e-02 3.494459e-03
<VARIANCE> 39
 7.302948e+01 9.531522e+01 5.766102e+01 5.922261e+01 1.418890e+02 2.138077e+02 6.568556e+01 8.684447e+01 1.063912e+02 6.405051e+01 5.441968e+01 8.212545e+01 5.675361e-02 2.713161e+00 2.537392e+00 3.864152e+00 3.347063e+00 7.253734e+00 7.439867e+00 4.458329e+00 5.475314e+00 4.070197e+00 3.958546e+00 4.476283e+00 2.965593e+00 4.250595e-03 3.763334e-01 3.826276e-01 7.337445e-01 5.466806e-01 1.259694e+00 9.374675e-01 7.516670e-01 7.825718e-01 6.742159e-01 7.029194e-01 8.028083e-01 4.920799e-01 5.246265e-04
<GCONST> 1.211261e+02
<STATE> 6
<MEAN> 39
 -1.026024e+01 -1.031697e+01 -1.874106e+00 -5.643990e+00 -1.219271e+01 -4.028906e+00 -1.712345e+00 -9.039330e+00 -4.462675e-01 1.206761e+00 -2.792573e+00 -9.288522e-01 4.822105e-01 -7.357069e-03 1.368840e-01 3.741491e-02 4.049103e-02 2.163665e-01 -1.184137e-01 -6.243399e-02 1.131675e-02 -9.631508e-02 4.136960e-02 2.940182e-02 -1.360351e-02 2.156088e-03 -7.372809e-03 2.072159e-02 -2.157880e-02 2.844304e-02 7.236942e-02 1.002174e-02 -1.286863e-02 1.149837e-01 -7.449535e-03 3.290958e-02 7.653858e-02 2.595428e-02 3.494459e-03
<VARIANCE> 39
 7.302948e+01 9.531522e+01 5.766102e+01 5.922261e+01 1.418890e+02 2.138077e+02 6.568556e+01 8.684447e+01 1.063912e+02 6.405051e+01 5.441968e+01 8.212545e+01 5.675361e-02 2.713161e+00 2.537392e+00 3.864152e+00 3.347063e+00 7.253734e+00 7.439867e+00 4.458329e+00 5.475314e+00 4.070197e+00 3.958546e+00 4.476283e+00 2.965593e+00 4.250595e-03 3.763334e-01 3.826276e-01 7.337445e-01 5.466806e-01 1.259694e+00 9.374675e-01 7.516670e-01 7.825718e-01 6.742159e-01 7.029194e-01 8.028083e-01 4.920799e-01 5.246265e-04
<GCONST> 1.211261e+02
<TRANSP> 7
 0.000000e+00 1.000000e+00 0.000000e+00 0.000000e+00 0.000000e+00 0.000000e+00 0.000000e+00
 0.000000e+00 6.000000e-01 4.000000e-01 0.000000e+00 0.000000e+00 0.000000e+00 0.000000e+00
 0.000000e+00 0.000000e+00 6.000000e-01 4.000000e-01 0.000000e+00 0.000000e+00 0.000000e+00
 0.000000e+00 0.000000e+00 0.000000e+00 6.000000e-01 4.000000e-01 0.000000e+00 0.000000e+00
 0.000000e+00 0.000000e+00 0.000000e+00 0.000000e+00 6.000000e-01 4.000000e-01 0.000000e+00
 0.000000e+00 0.000000e+00 0.000000e+00 0.000000e+00 0.000000e+00 6.000000e-01 4.000000e-01
 0.000000e+00 0.000000e+00 0.000000e+00 0.000000e+00 0.000000e+00 0.000000e+00 0.000000e+00
<ENDHMM>
