~o
<STREAMINFO> 1 39
<VECSIZE> 39<NULLD><MFCC_E_D_A><DIAGC>
~h "LOPATA"
<BEGINHMM>
<NUMSTATES> 7
<STATE> 2
<MEAN> 39
 -2.541450e+00 -1.730467e+01 -1.180128e+01 -5.593851e+00 -3.534336e+00 -8.650808e+00 7.670158e-01 -4.060918e+00 -8.244226e-01 -2.885525e+00 -4.742011e+00 -1.157711e+00 7.152385e-01 -8.166108e-02 -8.810566e-02 3.089994e-02 1.779513e-01 1.909875e-01 2.784878e-01 1.716492e-01 -2.573177e-01 -2.272601e-01 1.191259e-01 9.910323e-02 1.444292e-03 -2.028325e-03 -1.518540e-02 1.153345e-02 5.432239e-03 -5.046166e-03 -2.352618e-02 2.897807e-02 2.173345e-02 -2.077039e-02 -6.792601e-03 -2.130645e-02 -4.830678e-03 -7.307646e-03 -1.047195e-03
<VARIANCE> 39
 2.701590e+01 8.880716e+01 1.071051e+02 9.787338e+01 5.651508e+01 7.937163e+01 1.284895e+02 1.021589e+02 1.486357e+02 3.846240e+01 4.886697e+01 3.963160e+01 3.627491e-02 9.537495e-01 1.709144e+00 3.328099e+00 3.053957e+00 3.935678e+00 3.176739e+00 3.678997e+00 4.165818e+00 4.716212e+00 3.800574e+00 3.550549e+00 2.253051e+00 3.054052e-03 1.784446e-01 2.402058e-01 5.234184e-01 5.191454e-01 6.720936e-01 5.782563e-01 6.010060e-01 6.755679e-01 7.406494e-01 7.162662e-01 6.935060e-01 4.039386e-01 3.970432e-04
<GCONST> 1.107121e+02
<STATE> 3
<MEAN> 39
 -2.541450e+00 -1.730467e+01 -1.180128e+01 -5.593851e+00 -3.534336e+00 -8.650808e+00 7.670158e-01 -4.060918e+00 -8.244226e-01 -2.885525e+00 -4.742011e+00 -1.157711e+00 7.152385e-01 -8.166108e-02 -8.810566e-02 3.089994e-02 1.779513e-01 1.909875e-01 2.784878e-01 1.716492e-01 -2.573177e-01 -2.272601e-01 1.191259e-01 9.910323e-02 1.444292e-03 -2.028325e-03 -1.518540e-02 1.153345e-02 5.432239e-03 -5.046166e-03 -2.352618e-02 2.897807e-02 2.173345e-02 -2.077039e-02 -6.792601e-03 -2.130645e-02 -4.830678e-03 -7.307646e-03 -1.047195e-03
<VARIANCE> 39
 2.701590e+01 8.880716e+01 1.071051e+02 9.787338e+01 5.651508e+01 7.937163e+01 1.284895e+02 1.021589e+02 1.486357e+02 3.846240e+01 4.886697e+01 3.963160e+01 3.627491e-02 9.537495e-01 1.709144e+00 3.328099e+00 3.053957e+00 3.935678e+00 3.176739e+00 3.678997e+00 4.165818e+00 4.716212e+00 3.800574e+00 3.550549e+00 2.253051e+00 3.054052e-03 1.784446e-01 2.402058e-01 5.234184e-01 5.191454e-01 6.720936e-01 5.782563e-01 6.010060e-01 6.755679e-01 7.406494e-01 7.162662e-01 6.935060e-01 4.039386e-01 3.970432e-04
<GCONST> 1.107121e+02
<STATE> 4
<MEAN> 39
 -2.541450e+00 -1.730467e+01 -1.180128e+01 -5.593851e+00 -3.534336e+00 -8.650808e+00 7.670158e-01 -4.060918e+00 -8.244226e-01 -2.885525e+00 -4.742011e+00 -1.157711e+00 7.152385e-01 -8.166108e-02 -8.810566e-02 3.089994e-02 1.779513e-01 1.909875e-01 2.784878e-01 1.716492e-01 -2.573177e-01 -2.272601e-01 1.191259e-01 9.910323e-02 1.444292e-03 -2.028325e-03 -1.518540e-02 1.153345e-02 5.432239e-03 -5.046166e-03 -2.352618e-02 2.897807e-02 2.173345e-02 -2.077039e-02 -6.792601e-03 -2.130645e-02 -4.830678e-03 -7.307646e-03 -1.047195e-03
<VARIANCE> 39
 2.701590e+01 8.880716e+01 1.071051e+02 9.787338e+01 5.651508e+01 7.937163e+01 1.284895e+02 1.021589e+02 1.486357e+02 3.846240e+01 4.886697e+01 3.963160e+01 3.627491e-02 9.537495e-01 1.709144e+00 3.328099e+00 3.053957e+00 3.935678e+00 3.176739e+00 3.678997e+00 4.165818e+00 4.716212e+00 3.800574e+00 3.550549e+00 2.253051e+00 3.054052e-03 1.784446e-01 2.402058e-01 5.234184e-01 5.191454e-01 6.720936e-01 5.782563e-01 6.010060e-01 6.755679e-01 7.406494e-01 7.162662e-01 6.935060e-01 4.039386e-01 3.970432e-04
<GCONST> 1.107121e+02
<STATE> 5
<MEAN> 39
 -2.541450e+00 -1.730467e+01 -1.180128e+01 -5.593851e+00 -3.534336e+00 -8.650808e+00 7.670158e-01 -4.060918e+00 -8.244226e-01 -2.885525e+00 -4.742011e+00 -1.157711e+00 7.152385e-01 -8.166108e-02 -8.810566e-02 3.089994e-02 1.779513e-01 1.909875e-01 2.784878e-01 1.716492e-01 -2.573177e-01 -2.272601e-01 1.191259e-01 9.910323e-02 1.444292e-03 -2.028325e-03 -1.518540e-02 1.153345e-02 5.432239e-03 -5.046166e-03 -2.352618e-02 2.897807e-02 2.173345e-02 -2.077039e-02 -6.792601e-03 -2.130645e-02 -4.830678e-03 -7.307646e-03 -1.047195e-03
<VARIANCE> 39
 2.701590e+01 8.880716e+01 1.071051e+02 9.787338e+01 5.651508e+01 7.937163e+01 1.284895e+02 1.021589e+02 1.486357e+02 3.846240e+01 4.886697e+01 3.963160e+01 3.627491e-02 9.537495e-01 1.709144e+00 3.328099e+00 3.053957e+00 3.935678e+00 3.176739e+00 3.678997e+00 4.165818e+00 4.716212e+00 3.800574e+00 3.550549e+00 2.253051e+00 3.054052e-03 1.784446e-01 2.402058e-01 5.234184e-01 5.191454e-01 6.720936e-01 5.782563e-01 6.010060e-01 6.755679e-01 7.406494e-01 7.162662e-01 6.935060e-01 4.039386e-01 3.970432e-04
<GCONST> 1.107121e+02
<STATE> 6
<MEAN> 39
 -2.541450e+00 -1.730467e+01 -1.180128e+01 -5.593851e+00 -3.534336e+00 -8.650808e+00 7.670158e-01 -4.060918e+00 -8.244226e-01 -2.885525e+00 -4.742011e+00 -1.157711e+00 7.152385e-01 -8.166108e-02 -8.810566e-02 3.089994e-02 1.779513e-01 1.909875e-01 2.784878e-01 1.716492e-01 -2.573177e-01 -2.272601e-01 1.191259e-01 9.910323e-02 1.444292e-03 -2.028325e-03 -1.518540e-02 1.153345e-02 5.432239e-03 -5.046166e-03 -2.352618e-02 2.897807e-02 2.173345e-02 -2.077039e-02 -6.792601e-03 -2.130645e-02 -4.830678e-03 -7.307646e-03 -1.047195e-03
<VARIANCE> 39
 2.701590e+01 8.880716e+01 1.071051e+02 9.787338e+01 5.651508e+01 7.937163e+01 1.284895e+02 1.021589e+02 1.486357e+02 3.846240e+01 4.886697e+01 3.963160e+01 3.627491e-02 9.537495e-01 1.709144e+00 3.328099e+00 3.053957e+00 3.935678e+00 3.176739e+00 3.678997e+00 4.165818e+00 4.716212e+00 3.800574e+00 3.550549e+00 2.253051e+00 3.054052e-03 1.784446e-01 2.402058e-01 5.234184e-01 5.191454e-01 6.720936e-01 5.782563e-01 6.010060e-01 6.755679e-01 7.406494e-01 7.162662e-01 6.935060e-01 4.039386e-01 3.970432e-04
<GCONST> 1.107121e+02
<TRANSP> 7
 0.000000e+00 1.000000e+00 0.000000e+00 0.000000e+00 0.000000e+00 0.000000e+00 0.000000e+00
 0.000000e+00 6.000000e-01 4.000000e-01 0.000000e+00 0.000000e+00 0.000000e+00 0.000000e+00
 0.000000e+00 0.000000e+00 6.000000e-01 4.000000e-01 0.000000e+00 0.000000e+00 0.000000e+00
 0.000000e+00 0.000000e+00 0.000000e+00 6.000000e-01 4.000000e-01 0.000000e+00 0.000000e+00
 0.000000e+00 0.000000e+00 0.000000e+00 0.000000e+00 6.000000e-01 4.000000e-01 0.000000e+00
 0.000000e+00 0.000000e+00 0.000000e+00 0.000000e+00 0.000000e+00 6.000000e-01 4.000000e-01
 0.000000e+00 0.000000e+00 0.000000e+00 0.000000e+00 0.000000e+00 0.000000e+00 0.000000e+00
<ENDHMM>
