~o
<STREAMINFO> 1 39
<VECSIZE> 39<NULLD><MFCC_E_D_A><DIAGC>
~h "LOPATA"
<BEGINHMM>
<NUMSTATES> 7
<STATE> 2
<MEAN> 39
 -3.078356e+00 -1.691359e+01 -1.120318e+01 -5.379777e+00 -3.499562e+00 -8.249701e+00 8.138376e-01 -3.954427e+00 -7.811863e-01 -2.507257e+00 -4.205719e+00 -8.589618e-01 5.706401e-01 -1.181799e-01 8.718278e-02 1.476763e-01 3.821196e-02 1.858836e-01 2.987522e-02 2.435500e-02 -6.179328e-02 -5.496205e-02 1.552119e-01 9.349127e-03 4.661239e-03 4.042255e-03 -9.974757e-02 7.975673e-02 8.156446e-02 2.083148e-02 1.060137e-02 1.108665e-01 1.061973e-02 4.248745e-02 -1.388918e-02 3.380753e-02 8.146227e-02 3.820115e-02 3.741326e-03
<VARIANCE> 39
 3.064254e+01 9.731995e+01 1.149246e+02 9.564900e+01 5.779100e+01 7.901868e+01 1.249719e+02 9.864281e+01 1.455159e+02 4.053541e+01 5.003587e+01 3.945193e+01 4.219794e-02 1.919194e+00 3.249578e+00 4.727627e+00 4.215089e+00 4.566975e+00 5.174778e+00 4.890167e+00 5.436980e+00 5.426667e+00 4.026708e+00 4.220440e+00 2.485216e+00 4.582648e-03 2.402519e-01 3.393494e-01 6.470348e-01 6.280631e-01 8.306838e-01 7.814364e-01 7.459674e-01 8.363252e-01 7.874598e-01 7.787960e-01 7.379540e-01 4.481757e-01 5.824832e-04
<GCONST> 1.178935e+02
<STATE> 3
<MEAN> 39
 -3.078356e+00 -1.691359e+01 -1.120318e+01 -5.379777e+00 -3.499562e+00 -8.249701e+00 8.138376e-01 -3.954427e+00 -7.811863e-01 -2.507257e+00 -4.205719e+00 -8.589618e-01 5.706401e-01 -1.181799e-01 8.718278e-02 1.476763e-01 3.821196e-02 1.858836e-01 2.987522e-02 2.435500e-02 -6.179328e-02 -5.496205e-02 1.552119e-01 9.349127e-03 4.661239e-03 4.042255e-03 -9.974757e-02 7.975673e-02 8.156446e-02 2.083148e-02 1.060137e-02 1.108665e-01 1.061973e-02 4.248745e-02 -1.388918e-02 3.380753e-02 8.146227e-02 3.820115e-02 3.741326e-03
<VARIANCE> 39
 3.064254e+01 9.731995e+01 1.149246e+02 9.564900e+01 5.779100e+01 7.901868e+01 1.249719e+02 9.864281e+01 1.455159e+02 4.053541e+01 5.003587e+01 3.945193e+01 4.219794e-02 1.919194e+00 3.249578e+00 4.727627e+00 4.215089e+00 4.566975e+00 5.174778e+00 4.890167e+00 5.436980e+00 5.426667e+00 4.026708e+00 4.220440e+00 2.485216e+00 4.582648e-03 2.402519e-01 3.393494e-01 6.470348e-01 6.280631e-01 8.306838e-01 7.814364e-01 7.459674e-01 8.363252e-01 7.874598e-01 7.787960e-01 7.379540e-01 4.481757e-01 5.824832e-04
<GCONST> 1.178935e+02
<STATE> 4
<MEAN> 39
 -3.078356e+00 -1.691359e+01 -1.120318e+01 -5.379777e+00 -3.499562e+00 -8.249701e+00 8.138376e-01 -3.954427e+00 -7.811863e-01 -2.507257e+00 -4.205719e+00 -8.589618e-01 5.706401e-01 -1.181799e-01 8.718278e-02 1.476763e-01 3.821196e-02 1.858836e-01 2.987522e-02 2.435500e-02 -6.179328e-02 -5.496205e-02 1.552119e-01 9.349127e-03 4.661239e-03 4.042255e-03 -9.974757e-02 7.975673e-02 8.156446e-02 2.083148e-02 1.060137e-02 1.108665e-01 1.061973e-02 4.248745e-02 -1.388918e-02 3.380753e-02 8.146227e-02 3.820115e-02 3.741326e-03
<VARIANCE> 39
 3.064254e+01 9.731995e+01 1.149246e+02 9.564900e+01 5.779100e+01 7.901868e+01 1.249719e+02 9.864281e+01 1.455159e+02 4.053541e+01 5.003587e+01 3.945193e+01 4.219794e-02 1.919194e+00 3.249578e+00 4.727627e+00 4.215089e+00 4.566975e+00 5.174778e+00 4.890167e+00 5.436980e+00 5.426667e+00 4.026708e+00 4.220440e+00 2.485216e+00 4.582648e-03 2.402519e-01 3.393494e-01 6.470348e-01 6.280631e-01 8.306838e-01 7.814364e-01 7.459674e-01 8.363252e-01 7.874598e-01 7.787960e-01 7.379540e-01 4.481757e-01 5.824832e-04
<GCONST> 1.178935e+02
<STATE> 5
<MEAN> 39
 -3.078356e+00 -1.691359e+01 -1.120318e+01 -5.379777e+00 -3.499562e+00 -8.249701e+00 8.138376e-01 -3.954427e+00 -7.811863e-01 -2.507257e+00 -4.205719e+00 -8.589618e-01 5.706401e-01 -1.181799e-01 8.718278e-02 1.476763e-01 3.821196e-02 1.858836e-01 2.987522e-02 2.435500e-02 -6.179328e-02 -5.496205e-02 1.552119e-01 9.349127e-03 4.661239e-03 4.042255e-03 -9.974757e-02 7.975673e-02 8.156446e-02 2.083148e-02 1.060137e-02 1.108665e-01 1.061973e-02 4.248745e-02 -1.388918e-02 3.380753e-02 8.146227e-02 3.820115e-02 3.741326e-03
<VARIANCE> 39
 3.064254e+01 9.731995e+01 1.149246e+02 9.564900e+01 5.779100e+01 7.901868e+01 1.249719e+02 9.864281e+01 1.455159e+02 4.053541e+01 5.003587e+01 3.945193e+01 4.219794e-02 1.919194e+00 3.249578e+00 4.727627e+00 4.215089e+00 4.566975e+00 5.174778e+00 4.890167e+00 5.436980e+00 5.426667e+00 4.026708e+00 4.220440e+00 2.485216e+00 4.582648e-03 2.402519e-01 3.393494e-01 6.470348e-01 6.280631e-01 8.306838e-01 7.814364e-01 7.459674e-01 8.363252e-01 7.874598e-01 7.787960e-01 7.379540e-01 4.481757e-01 5.824832e-04
<GCONST> 1.178935e+02
<STATE> 6
<MEAN> 39
 -3.078356e+00 -1.691359e+01 -1.120318e+01 -5.379777e+00 -3.499562e+00 -8.249701e+00 8.138376e-01 -3.954427e+00 -7.811863e-01 -2.507257e+00 -4.205719e+00 -8.589618e-01 5.706401e-01 -1.181799e-01 8.718278e-02 1.476763e-01 3.821196e-02 1.858836e-01 2.987522e-02 2.435500e-02 -6.179328e-02 -5.496205e-02 1.552119e-01 9.349127e-03 4.661239e-03 4.042255e-03 -9.974757e-02 7.975673e-02 8.156446e-02 2.083148e-02 1.060137e-02 1.108665e-01 1.061973e-02 4.248745e-02 -1.388918e-02 3.380753e-02 8.146227e-02 3.820115e-02 3.741326e-03
<VARIANCE> 39
 3.064254e+01 9.731995e+01 1.149246e+02 9.564900e+01 5.779100e+01 7.901868e+01 1.249719e+02 9.864281e+01 1.455159e+02 4.053541e+01 5.003587e+01 3.945193e+01 4.219794e-02 1.919194e+00 3.249578e+00 4.727627e+00 4.215089e+00 4.566975e+00 5.174778e+00 4.890167e+00 5.436980e+00 5.426667e+00 4.026708e+00 4.220440e+00 2.485216e+00 4.582648e-03 2.402519e-01 3.393494e-01 6.470348e-01 6.280631e-01 8.306838e-01 7.814364e-01 7.459674e-01 8.363252e-01 7.874598e-01 7.787960e-01 7.379540e-01 4.481757e-01 5.824832e-04
<GCONST> 1.178935e+02
<TRANSP> 7
 0.000000e+00 1.000000e+00 0.000000e+00 0.000000e+00 0.000000e+00 0.000000e+00 0.000000e+00
 0.000000e+00 6.000000e-01 4.000000e-01 0.000000e+00 0.000000e+00 0.000000e+00 0.000000e+00
 0.000000e+00 0.000000e+00 6.000000e-01 4.000000e-01 0.000000e+00 0.000000e+00 0.000000e+00
 0.000000e+00 0.000000e+00 0.000000e+00 6.000000e-01 4.000000e-01 0.000000e+00 0.000000e+00
 0.000000e+00 0.000000e+00 0.000000e+00 0.000000e+00 6.000000e-01 4.000000e-01 0.000000e+00
 0.000000e+00 0.000000e+00 0.000000e+00 0.000000e+00 0.000000e+00 6.000000e-01 4.000000e-01
 0.000000e+00 0.000000e+00 0.000000e+00 0.000000e+00 0.000000e+00 0.000000e+00 0.000000e+00
<ENDHMM>
