~o
<STREAMINFO> 1 39
<VECSIZE> 39<NULLD><MFCC_E_D_A><DIAGC>
~h "LOPATA"
<BEGINHMM>
<NUMSTATES> 7
<STATE> 2
<MEAN> 39
 -8.132915e+00 -1.492097e+01 -8.925797e+00 -4.711356e+00 -4.820233e+00 -6.008912e+00 3.229460e-01 -5.446094e+00 -1.203430e+00 -3.664632e+00 -3.548733e+00 -2.327211e+00 4.398997e-01 4.953471e-03 3.543619e-02 6.105929e-02 -1.007590e-02 6.679472e-02 -5.499075e-02 -7.369384e-04 -6.885790e-02 -5.116247e-02 4.927132e-02 -2.815611e-03 -1.303633e-02 -9.008340e-04 7.101461e-03 1.374818e-03 2.921743e-02 2.258714e-02 -1.175967e-03 3.170776e-02 2.511169e-02 4.690359e-02 5.402262e-04 1.697681e-02 2.742000e-02 2.848344e-02 3.160904e-03
<VARIANCE> 39
 6.891319e+01 8.827533e+01 9.342418e+01 8.836050e+01 5.462619e+01 9.682317e+01 1.102598e+02 9.003385e+01 1.127313e+02 4.460891e+01 5.778918e+01 3.941096e+01 1.004409e-01 1.304699e+00 2.042102e+00 3.229275e+00 3.324920e+00 3.939076e+00 4.160611e+00 4.200739e+00 4.797021e+00 4.490898e+00 3.737563e+00 4.061420e+00 2.767289e+00 4.372699e-03 1.759062e-01 3.061522e-01 5.273302e-01 5.334791e-01 6.863740e-01 6.944801e-01 7.373899e-01 7.632064e-01 7.452374e-01 6.900533e-01 7.538046e-01 5.157354e-01 4.961665e-04
<GCONST> 1.153782e+02
<STATE> 3
<MEAN> 39
 -8.132915e+00 -1.492097e+01 -8.925797e+00 -4.711356e+00 -4.820233e+00 -6.008912e+00 3.229460e-01 -5.446094e+00 -1.203430e+00 -3.664632e+00 -3.548733e+00 -2.327211e+00 4.398997e-01 4.953471e-03 3.543619e-02 6.105929e-02 -1.007590e-02 6.679472e-02 -5.499075e-02 -7.369384e-04 -6.885790e-02 -5.116247e-02 4.927132e-02 -2.815611e-03 -1.303633e-02 -9.008340e-04 7.101461e-03 1.374818e-03 2.921743e-02 2.258714e-02 -1.175967e-03 3.170776e-02 2.511169e-02 4.690359e-02 5.402262e-04 1.697681e-02 2.742000e-02 2.848344e-02 3.160904e-03
<VARIANCE> 39
 6.891319e+01 8.827533e+01 9.342418e+01 8.836050e+01 5.462619e+01 9.682317e+01 1.102598e+02 9.003385e+01 1.127313e+02 4.460891e+01 5.778918e+01 3.941096e+01 1.004409e-01 1.304699e+00 2.042102e+00 3.229275e+00 3.324920e+00 3.939076e+00 4.160611e+00 4.200739e+00 4.797021e+00 4.490898e+00 3.737563e+00 4.061420e+00 2.767289e+00 4.372699e-03 1.759062e-01 3.061522e-01 5.273302e-01 5.334791e-01 6.863740e-01 6.944801e-01 7.373899e-01 7.632064e-01 7.452374e-01 6.900533e-01 7.538046e-01 5.157354e-01 4.961665e-04
<GCONST> 1.153782e+02
<STATE> 4
<MEAN> 39
 -8.132915e+00 -1.492097e+01 -8.925797e+00 -4.711356e+00 -4.820233e+00 -6.008912e+00 3.229460e-01 -5.446094e+00 -1.203430e+00 -3.664632e+00 -3.548733e+00 -2.327211e+00 4.398997e-01 4.953471e-03 3.543619e-02 6.105929e-02 -1.007590e-02 6.679472e-02 -5.499075e-02 -7.369384e-04 -6.885790e-02 -5.116247e-02 4.927132e-02 -2.815611e-03 -1.303633e-02 -9.008340e-04 7.101461e-03 1.374818e-03 2.921743e-02 2.258714e-02 -1.175967e-03 3.170776e-02 2.511169e-02 4.690359e-02 5.402262e-04 1.697681e-02 2.742000e-02 2.848344e-02 3.160904e-03
<VARIANCE> 39
 6.891319e+01 8.827533e+01 9.342418e+01 8.836050e+01 5.462619e+01 9.682317e+01 1.102598e+02 9.003385e+01 1.127313e+02 4.460891e+01 5.778918e+01 3.941096e+01 1.004409e-01 1.304699e+00 2.042102e+00 3.229275e+00 3.324920e+00 3.939076e+00 4.160611e+00 4.200739e+00 4.797021e+00 4.490898e+00 3.737563e+00 4.061420e+00 2.767289e+00 4.372699e-03 1.759062e-01 3.061522e-01 5.273302e-01 5.334791e-01 6.863740e-01 6.944801e-01 7.373899e-01 7.632064e-01 7.452374e-01 6.900533e-01 7.538046e-01 5.157354e-01 4.961665e-04
<GCONST> 1.153782e+02
<STATE> 5
<MEAN> 39
 -8.132915e+00 -1.492097e+01 -8.925797e+00 -4.711356e+00 -4.820233e+00 -6.008912e+00 3.229460e-01 -5.446094e+00 -1.203430e+00 -3.664632e+00 -3.548733e+00 -2.327211e+00 4.398997e-01 4.953471e-03 3.543619e-02 6.105929e-02 -1.007590e-02 6.679472e-02 -5.499075e-02 -7.369384e-04 -6.885790e-02 -5.116247e-02 4.927132e-02 -2.815611e-03 -1.303633e-02 -9.008340e-04 7.101461e-03 1.374818e-03 2.921743e-02 2.258714e-02 -1.175967e-03 3.170776e-02 2.511169e-02 4.690359e-02 5.402262e-04 1.697681e-02 2.742000e-02 2.848344e-02 3.160904e-03
<VARIANCE> 39
 6.891319e+01 8.827533e+01 9.342418e+01 8.836050e+01 5.462619e+01 9.682317e+01 1.102598e+02 9.003385e+01 1.127313e+02 4.460891e+01 5.778918e+01 3.941096e+01 1.004409e-01 1.304699e+00 2.042102e+00 3.229275e+00 3.324920e+00 3.939076e+00 4.160611e+00 4.200739e+00 4.797021e+00 4.490898e+00 3.737563e+00 4.061420e+00 2.767289e+00 4.372699e-03 1.759062e-01 3.061522e-01 5.273302e-01 5.334791e-01 6.863740e-01 6.944801e-01 7.373899e-01 7.632064e-01 7.452374e-01 6.900533e-01 7.538046e-01 5.157354e-01 4.961665e-04
<GCONST> 1.153782e+02
<STATE> 6
<MEAN> 39
 -8.132915e+00 -1.492097e+01 -8.925797e+00 -4.711356e+00 -4.820233e+00 -6.008912e+00 3.229460e-01 -5.446094e+00 -1.203430e+00 -3.664632e+00 -3.548733e+00 -2.327211e+00 4.398997e-01 4.953471e-03 3.543619e-02 6.105929e-02 -1.007590e-02 6.679472e-02 -5.499075e-02 -7.369384e-04 -6.885790e-02 -5.116247e-02 4.927132e-02 -2.815611e-03 -1.303633e-02 -9.008340e-04 7.101461e-03 1.374818e-03 2.921743e-02 2.258714e-02 -1.175967e-03 3.170776e-02 2.511169e-02 4.690359e-02 5.402262e-04 1.697681e-02 2.742000e-02 2.848344e-02 3.160904e-03
<VARIANCE> 39
 6.891319e+01 8.827533e+01 9.342418e+01 8.836050e+01 5.462619e+01 9.682317e+01 1.102598e+02 9.003385e+01 1.127313e+02 4.460891e+01 5.778918e+01 3.941096e+01 1.004409e-01 1.304699e+00 2.042102e+00 3.229275e+00 3.324920e+00 3.939076e+00 4.160611e+00 4.200739e+00 4.797021e+00 4.490898e+00 3.737563e+00 4.061420e+00 2.767289e+00 4.372699e-03 1.759062e-01 3.061522e-01 5.273302e-01 5.334791e-01 6.863740e-01 6.944801e-01 7.373899e-01 7.632064e-01 7.452374e-01 6.900533e-01 7.538046e-01 5.157354e-01 4.961665e-04
<GCONST> 1.153782e+02
<TRANSP> 7
 0.000000e+00 1.000000e+00 0.000000e+00 0.000000e+00 0.000000e+00 0.000000e+00 0.000000e+00
 0.000000e+00 6.000000e-01 4.000000e-01 0.000000e+00 0.000000e+00 0.000000e+00 0.000000e+00
 0.000000e+00 0.000000e+00 6.000000e-01 4.000000e-01 0.000000e+00 0.000000e+00 0.000000e+00
 0.000000e+00 0.000000e+00 0.000000e+00 6.000000e-01 4.000000e-01 0.000000e+00 0.000000e+00
 0.000000e+00 0.000000e+00 0.000000e+00 0.000000e+00 6.000000e-01 4.000000e-01 0.000000e+00
 0.000000e+00 0.000000e+00 0.000000e+00 0.000000e+00 0.000000e+00 6.000000e-01 4.000000e-01
 0.000000e+00 0.000000e+00 0.000000e+00 0.000000e+00 0.000000e+00 0.000000e+00 0.000000e+00
<ENDHMM>
