~o
<STREAMINFO> 1 39
<VECSIZE> 39<NULLD><MFCC_E_D_A><DIAGC>
~h "PES"
<BEGINHMM>
<NUMSTATES> 7
<STATE> 2
<MEAN> 39
 -1.200605e+01 -9.591539e+00 -2.588179e+00 -1.667601e+01 -6.594173e+00 2.622463e+00 8.360895e-01 -3.098759e+00 1.349762e+00 -2.430293e+00 -9.995833e+00 1.054139e+00 6.923772e-01 -1.543554e-01 2.208878e-01 1.482886e-02 2.257933e-01 -3.980027e-02 6.509990e-02 -1.662527e-01 1.276761e-01 6.273156e-02 -1.935986e-01 -5.204686e-02 -3.565116e-02 -8.415543e-03 -3.082666e-03 1.389227e-03 1.119618e-02 4.024232e-02 -3.120231e-02 -4.323659e-03 1.004876e-02 2.233222e-02 4.696007e-02 1.375253e-02 5.171962e-02 3.579589e-02 -1.985432e-03
<VARIANCE> 39
 4.767090e+01 3.626302e+01 5.731342e+01 7.467938e+01 4.139320e+01 8.768229e+01 1.077249e+02 4.013966e+01 5.260122e+01 3.024009e+01 7.029482e+01 6.506081e+01 5.437836e-02 7.977703e-01 1.081455e+00 1.641668e+00 3.146169e+00 2.617500e+00 3.105016e+00 2.611508e+00 2.627864e+00 2.907466e+00 2.108294e+00 2.846418e+00 2.394946e+00 1.526950e-03 1.294183e-01 1.740480e-01 2.591546e-01 4.197895e-01 4.228595e-01 4.774345e-01 4.329813e-01 4.195611e-01 4.939210e-01 3.359828e-01 4.222969e-01 3.882996e-01 1.464467e-04
<GCONST> 9.796463e+01
<STATE> 3
<MEAN> 39
 -1.200605e+01 -9.591539e+00 -2.588179e+00 -1.667601e+01 -6.594173e+00 2.622463e+00 8.360895e-01 -3.098759e+00 1.349762e+00 -2.430293e+00 -9.995833e+00 1.054139e+00 6.923772e-01 -1.543554e-01 2.208878e-01 1.482886e-02 2.257933e-01 -3.980027e-02 6.509990e-02 -1.662527e-01 1.276761e-01 6.273156e-02 -1.935986e-01 -5.204686e-02 -3.565116e-02 -8.415543e-03 -3.082666e-03 1.389227e-03 1.119618e-02 4.024232e-02 -3.120231e-02 -4.323659e-03 1.004876e-02 2.233222e-02 4.696007e-02 1.375253e-02 5.171962e-02 3.579589e-02 -1.985432e-03
<VARIANCE> 39
 4.767090e+01 3.626302e+01 5.731342e+01 7.467938e+01 4.139320e+01 8.768229e+01 1.077249e+02 4.013966e+01 5.260122e+01 3.024009e+01 7.029482e+01 6.506081e+01 5.437836e-02 7.977703e-01 1.081455e+00 1.641668e+00 3.146169e+00 2.617500e+00 3.105016e+00 2.611508e+00 2.627864e+00 2.907466e+00 2.108294e+00 2.846418e+00 2.394946e+00 1.526950e-03 1.294183e-01 1.740480e-01 2.591546e-01 4.197895e-01 4.228595e-01 4.774345e-01 4.329813e-01 4.195611e-01 4.939210e-01 3.359828e-01 4.222969e-01 3.882996e-01 1.464467e-04
<GCONST> 9.796463e+01
<STATE> 4
<MEAN> 39
 -1.200605e+01 -9.591539e+00 -2.588179e+00 -1.667601e+01 -6.594173e+00 2.622463e+00 8.360895e-01 -3.098759e+00 1.349762e+00 -2.430293e+00 -9.995833e+00 1.054139e+00 6.923772e-01 -1.543554e-01 2.208878e-01 1.482886e-02 2.257933e-01 -3.980027e-02 6.509990e-02 -1.662527e-01 1.276761e-01 6.273156e-02 -1.935986e-01 -5.204686e-02 -3.565116e-02 -8.415543e-03 -3.082666e-03 1.389227e-03 1.119618e-02 4.024232e-02 -3.120231e-02 -4.323659e-03 1.004876e-02 2.233222e-02 4.696007e-02 1.375253e-02 5.171962e-02 3.579589e-02 -1.985432e-03
<VARIANCE> 39
 4.767090e+01 3.626302e+01 5.731342e+01 7.467938e+01 4.139320e+01 8.768229e+01 1.077249e+02 4.013966e+01 5.260122e+01 3.024009e+01 7.029482e+01 6.506081e+01 5.437836e-02 7.977703e-01 1.081455e+00 1.641668e+00 3.146169e+00 2.617500e+00 3.105016e+00 2.611508e+00 2.627864e+00 2.907466e+00 2.108294e+00 2.846418e+00 2.394946e+00 1.526950e-03 1.294183e-01 1.740480e-01 2.591546e-01 4.197895e-01 4.228595e-01 4.774345e-01 4.329813e-01 4.195611e-01 4.939210e-01 3.359828e-01 4.222969e-01 3.882996e-01 1.464467e-04
<GCONST> 9.796463e+01
<STATE> 5
<MEAN> 39
 -1.200605e+01 -9.591539e+00 -2.588179e+00 -1.667601e+01 -6.594173e+00 2.622463e+00 8.360895e-01 -3.098759e+00 1.349762e+00 -2.430293e+00 -9.995833e+00 1.054139e+00 6.923772e-01 -1.543554e-01 2.208878e-01 1.482886e-02 2.257933e-01 -3.980027e-02 6.509990e-02 -1.662527e-01 1.276761e-01 6.273156e-02 -1.935986e-01 -5.204686e-02 -3.565116e-02 -8.415543e-03 -3.082666e-03 1.389227e-03 1.119618e-02 4.024232e-02 -3.120231e-02 -4.323659e-03 1.004876e-02 2.233222e-02 4.696007e-02 1.375253e-02 5.171962e-02 3.579589e-02 -1.985432e-03
<VARIANCE> 39
 4.767090e+01 3.626302e+01 5.731342e+01 7.467938e+01 4.139320e+01 8.768229e+01 1.077249e+02 4.013966e+01 5.260122e+01 3.024009e+01 7.029482e+01 6.506081e+01 5.437836e-02 7.977703e-01 1.081455e+00 1.641668e+00 3.146169e+00 2.617500e+00 3.105016e+00 2.611508e+00 2.627864e+00 2.907466e+00 2.108294e+00 2.846418e+00 2.394946e+00 1.526950e-03 1.294183e-01 1.740480e-01 2.591546e-01 4.197895e-01 4.228595e-01 4.774345e-01 4.329813e-01 4.195611e-01 4.939210e-01 3.359828e-01 4.222969e-01 3.882996e-01 1.464467e-04
<GCONST> 9.796463e+01
<STATE> 6
<MEAN> 39
 -1.200605e+01 -9.591539e+00 -2.588179e+00 -1.667601e+01 -6.594173e+00 2.622463e+00 8.360895e-01 -3.098759e+00 1.349762e+00 -2.430293e+00 -9.995833e+00 1.054139e+00 6.923772e-01 -1.543554e-01 2.208878e-01 1.482886e-02 2.257933e-01 -3.980027e-02 6.509990e-02 -1.662527e-01 1.276761e-01 6.273156e-02 -1.935986e-01 -5.204686e-02 -3.565116e-02 -8.415543e-03 -3.082666e-03 1.389227e-03 1.119618e-02 4.024232e-02 -3.120231e-02 -4.323659e-03 1.004876e-02 2.233222e-02 4.696007e-02 1.375253e-02 5.171962e-02 3.579589e-02 -1.985432e-03
<VARIANCE> 39
 4.767090e+01 3.626302e+01 5.731342e+01 7.467938e+01 4.139320e+01 8.768229e+01 1.077249e+02 4.013966e+01 5.260122e+01 3.024009e+01 7.029482e+01 6.506081e+01 5.437836e-02 7.977703e-01 1.081455e+00 1.641668e+00 3.146169e+00 2.617500e+00 3.105016e+00 2.611508e+00 2.627864e+00 2.907466e+00 2.108294e+00 2.846418e+00 2.394946e+00 1.526950e-03 1.294183e-01 1.740480e-01 2.591546e-01 4.197895e-01 4.228595e-01 4.774345e-01 4.329813e-01 4.195611e-01 4.939210e-01 3.359828e-01 4.222969e-01 3.882996e-01 1.464467e-04
<GCONST> 9.796463e+01
<TRANSP> 7
 0.000000e+00 1.000000e+00 0.000000e+00 0.000000e+00 0.000000e+00 0.000000e+00 0.000000e+00
 0.000000e+00 6.000000e-01 4.000000e-01 0.000000e+00 0.000000e+00 0.000000e+00 0.000000e+00
 0.000000e+00 0.000000e+00 6.000000e-01 4.000000e-01 0.000000e+00 0.000000e+00 0.000000e+00
 0.000000e+00 0.000000e+00 0.000000e+00 6.000000e-01 4.000000e-01 0.000000e+00 0.000000e+00
 0.000000e+00 0.000000e+00 0.000000e+00 0.000000e+00 6.000000e-01 4.000000e-01 0.000000e+00
 0.000000e+00 0.000000e+00 0.000000e+00 0.000000e+00 0.000000e+00 6.000000e-01 4.000000e-01
 0.000000e+00 0.000000e+00 0.000000e+00 0.000000e+00 0.000000e+00 0.000000e+00 0.000000e+00
<ENDHMM>
