~o
<STREAMINFO> 1 39
<VECSIZE> 39<NULLD><MFCC_E_D_A><DIAGC>
~h "PES"
<BEGINHMM>
<NUMSTATES> 7
<STATE> 2
<MEAN> 39
 -1.553500e+01 -9.743805e+00 -3.211107e+00 -9.506765e+00 -6.970139e+00 -9.609683e-01 -3.310970e-01 -5.208534e+00 6.487305e-01 -4.049601e+00 -7.741353e+00 -1.512092e-01 3.537399e-01 7.923015e-03 4.735703e-02 7.304932e-02 -1.202428e-02 7.248526e-02 -3.130901e-02 -6.340001e-04 -1.027446e-01 -2.699952e-02 5.455344e-02 -3.985367e-02 -1.778216e-02 -1.081935e-03 2.212613e-02 2.099444e-02 5.903398e-03 2.296992e-02 1.492504e-03 2.898853e-02 2.837779e-02 6.208808e-02 -6.940730e-03 2.828380e-02 4.921723e-02 1.678155e-02 3.331685e-03
<VARIANCE> 39
 4.393547e+01 5.024090e+01 5.368792e+01 9.845779e+01 3.672596e+01 1.270008e+02 6.869680e+01 5.689317e+01 4.241238e+01 4.125251e+01 7.379099e+01 6.231866e+01 1.018146e-01 1.076905e+00 1.905047e+00 1.793318e+00 2.880167e+00 2.311258e+00 3.913499e+00 3.216108e+00 3.118894e+00 2.786228e+00 2.893150e+00 3.612552e+00 2.844673e+00 3.647443e-03 1.662606e-01 2.618651e-01 3.144684e-01 4.221047e-01 4.260060e-01 6.630490e-01 5.860294e-01 4.982980e-01 5.209804e-01 4.984578e-01 5.509150e-01 4.895369e-01 3.939600e-04
<GCONST> 1.058091e+02
<STATE> 3
<MEAN> 39
 -1.553500e+01 -9.743805e+00 -3.211107e+00 -9.506765e+00 -6.970139e+00 -9.609683e-01 -3.310970e-01 -5.208534e+00 6.487305e-01 -4.049601e+00 -7.741353e+00 -1.512092e-01 3.537399e-01 7.923015e-03 4.735703e-02 7.304932e-02 -1.202428e-02 7.248526e-02 -3.130901e-02 -6.340001e-04 -1.027446e-01 -2.699952e-02 5.455344e-02 -3.985367e-02 -1.778216e-02 -1.081935e-03 2.212613e-02 2.099444e-02 5.903398e-03 2.296992e-02 1.492504e-03 2.898853e-02 2.837779e-02 6.208808e-02 -6.940730e-03 2.828380e-02 4.921723e-02 1.678155e-02 3.331685e-03
<VARIANCE> 39
 4.393547e+01 5.024090e+01 5.368792e+01 9.845779e+01 3.672596e+01 1.270008e+02 6.869680e+01 5.689317e+01 4.241238e+01 4.125251e+01 7.379099e+01 6.231866e+01 1.018146e-01 1.076905e+00 1.905047e+00 1.793318e+00 2.880167e+00 2.311258e+00 3.913499e+00 3.216108e+00 3.118894e+00 2.786228e+00 2.893150e+00 3.612552e+00 2.844673e+00 3.647443e-03 1.662606e-01 2.618651e-01 3.144684e-01 4.221047e-01 4.260060e-01 6.630490e-01 5.860294e-01 4.982980e-01 5.209804e-01 4.984578e-01 5.509150e-01 4.895369e-01 3.939600e-04
<GCONST> 1.058091e+02
<STATE> 4
<MEAN> 39
 -1.553500e+01 -9.743805e+00 -3.211107e+00 -9.506765e+00 -6.970139e+00 -9.609683e-01 -3.310970e-01 -5.208534e+00 6.487305e-01 -4.049601e+00 -7.741353e+00 -1.512092e-01 3.537399e-01 7.923015e-03 4.735703e-02 7.304932e-02 -1.202428e-02 7.248526e-02 -3.130901e-02 -6.340001e-04 -1.027446e-01 -2.699952e-02 5.455344e-02 -3.985367e-02 -1.778216e-02 -1.081935e-03 2.212613e-02 2.099444e-02 5.903398e-03 2.296992e-02 1.492504e-03 2.898853e-02 2.837779e-02 6.208808e-02 -6.940730e-03 2.828380e-02 4.921723e-02 1.678155e-02 3.331685e-03
<VARIANCE> 39
 4.393547e+01 5.024090e+01 5.368792e+01 9.845779e+01 3.672596e+01 1.270008e+02 6.869680e+01 5.689317e+01 4.241238e+01 4.125251e+01 7.379099e+01 6.231866e+01 1.018146e-01 1.076905e+00 1.905047e+00 1.793318e+00 2.880167e+00 2.311258e+00 3.913499e+00 3.216108e+00 3.118894e+00 2.786228e+00 2.893150e+00 3.612552e+00 2.844673e+00 3.647443e-03 1.662606e-01 2.618651e-01 3.144684e-01 4.221047e-01 4.260060e-01 6.630490e-01 5.860294e-01 4.982980e-01 5.209804e-01 4.984578e-01 5.509150e-01 4.895369e-01 3.939600e-04
<GCONST> 1.058091e+02
<STATE> 5
<MEAN> 39
 -1.553500e+01 -9.743805e+00 -3.211107e+00 -9.506765e+00 -6.970139e+00 -9.609683e-01 -3.310970e-01 -5.208534e+00 6.487305e-01 -4.049601e+00 -7.741353e+00 -1.512092e-01 3.537399e-01 7.923015e-03 4.735703e-02 7.304932e-02 -1.202428e-02 7.248526e-02 -3.130901e-02 -6.340001e-04 -1.027446e-01 -2.699952e-02 5.455344e-02 -3.985367e-02 -1.778216e-02 -1.081935e-03 2.212613e-02 2.099444e-02 5.903398e-03 2.296992e-02 1.492504e-03 2.898853e-02 2.837779e-02 6.208808e-02 -6.940730e-03 2.828380e-02 4.921723e-02 1.678155e-02 3.331685e-03
<VARIANCE> 39
 4.393547e+01 5.024090e+01 5.368792e+01 9.845779e+01 3.672596e+01 1.270008e+02 6.869680e+01 5.689317e+01 4.241238e+01 4.125251e+01 7.379099e+01 6.231866e+01 1.018146e-01 1.076905e+00 1.905047e+00 1.793318e+00 2.880167e+00 2.311258e+00 3.913499e+00 3.216108e+00 3.118894e+00 2.786228e+00 2.893150e+00 3.612552e+00 2.844673e+00 3.647443e-03 1.662606e-01 2.618651e-01 3.144684e-01 4.221047e-01 4.260060e-01 6.630490e-01 5.860294e-01 4.982980e-01 5.209804e-01 4.984578e-01 5.509150e-01 4.895369e-01 3.939600e-04
<GCONST> 1.058091e+02
<STATE> 6
<MEAN> 39
 -1.553500e+01 -9.743805e+00 -3.211107e+00 -9.506765e+00 -6.970139e+00 -9.609683e-01 -3.310970e-01 -5.208534e+00 6.487305e-01 -4.049601e+00 -7.741353e+00 -1.512092e-01 3.537399e-01 7.923015e-03 4.735703e-02 7.304932e-02 -1.202428e-02 7.248526e-02 -3.130901e-02 -6.340001e-04 -1.027446e-01 -2.699952e-02 5.455344e-02 -3.985367e-02 -1.778216e-02 -1.081935e-03 2.212613e-02 2.099444e-02 5.903398e-03 2.296992e-02 1.492504e-03 2.898853e-02 2.837779e-02 6.208808e-02 -6.940730e-03 2.828380e-02 4.921723e-02 1.678155e-02 3.331685e-03
<VARIANCE> 39
 4.393547e+01 5.024090e+01 5.368792e+01 9.845779e+01 3.672596e+01 1.270008e+02 6.869680e+01 5.689317e+01 4.241238e+01 4.125251e+01 7.379099e+01 6.231866e+01 1.018146e-01 1.076905e+00 1.905047e+00 1.793318e+00 2.880167e+00 2.311258e+00 3.913499e+00 3.216108e+00 3.118894e+00 2.786228e+00 2.893150e+00 3.612552e+00 2.844673e+00 3.647443e-03 1.662606e-01 2.618651e-01 3.144684e-01 4.221047e-01 4.260060e-01 6.630490e-01 5.860294e-01 4.982980e-01 5.209804e-01 4.984578e-01 5.509150e-01 4.895369e-01 3.939600e-04
<GCONST> 1.058091e+02
<TRANSP> 7
 0.000000e+00 1.000000e+00 0.000000e+00 0.000000e+00 0.000000e+00 0.000000e+00 0.000000e+00
 0.000000e+00 6.000000e-01 4.000000e-01 0.000000e+00 0.000000e+00 0.000000e+00 0.000000e+00
 0.000000e+00 0.000000e+00 6.000000e-01 4.000000e-01 0.000000e+00 0.000000e+00 0.000000e+00
 0.000000e+00 0.000000e+00 0.000000e+00 6.000000e-01 4.000000e-01 0.000000e+00 0.000000e+00
 0.000000e+00 0.000000e+00 0.000000e+00 0.000000e+00 6.000000e-01 4.000000e-01 0.000000e+00
 0.000000e+00 0.000000e+00 0.000000e+00 0.000000e+00 0.000000e+00 6.000000e-01 4.000000e-01
 0.000000e+00 0.000000e+00 0.000000e+00 0.000000e+00 0.000000e+00 0.000000e+00 0.000000e+00
<ENDHMM>
