~o
<STREAMINFO> 1 39
<VECSIZE> 39<NULLD><MFCC_E_D_A><DIAGC>
~h "PES"
<BEGINHMM>
<NUMSTATES> 7
<STATE> 2
<MEAN> 39
 -1.208725e+01 -8.977740e+00 -2.146824e+00 -1.552900e+01 -6.230751e+00 2.544346e+00 8.883734e-01 -2.700359e+00 1.145014e+00 -1.876890e+00 -9.002029e+00 1.140598e+00 5.620483e-01 -6.044704e-02 2.213929e-01 1.369005e-01 1.454435e-01 2.383025e-01 -1.835009e-01 -1.047193e-01 -6.781313e-02 -5.669123e-02 1.399149e-01 2.191666e-02 -1.145661e-01 3.532217e-03 -2.911209e-02 7.119948e-02 3.952492e-02 1.641237e-01 3.792996e-02 -2.527901e-02 -1.111622e-02 1.314258e-01 1.259688e-02 4.510758e-02 2.066544e-01 1.548087e-02 5.234520e-03
<VARIANCE> 39
 4.480936e+01 3.377592e+01 5.411005e+01 8.148537e+01 3.964298e+01 7.605354e+01 9.258189e+01 3.955108e+01 5.003162e+01 3.303815e+01 7.009252e+01 5.901219e+01 6.043106e-02 1.315791e+00 1.566367e+00 1.870994e+00 5.094625e+00 3.011930e+00 3.346042e+00 3.122415e+00 3.534293e+00 3.230650e+00 2.911770e+00 6.331806e+00 3.081553e+00 4.784961e-03 1.924262e-01 2.469005e-01 2.527805e-01 5.786126e-01 4.784698e-01 5.654820e-01 5.081530e-01 5.403670e-01 5.323989e-01 4.014053e-01 8.977985e-01 4.124776e-01 4.809488e-04
<GCONST> 1.063538e+02
<STATE> 3
<MEAN> 39
 -1.208725e+01 -8.977740e+00 -2.146824e+00 -1.552900e+01 -6.230751e+00 2.544346e+00 8.883734e-01 -2.700359e+00 1.145014e+00 -1.876890e+00 -9.002029e+00 1.140598e+00 5.620483e-01 -6.044704e-02 2.213929e-01 1.369005e-01 1.454435e-01 2.383025e-01 -1.835009e-01 -1.047193e-01 -6.781313e-02 -5.669123e-02 1.399149e-01 2.191666e-02 -1.145661e-01 3.532217e-03 -2.911209e-02 7.119948e-02 3.952492e-02 1.641237e-01 3.792996e-02 -2.527901e-02 -1.111622e-02 1.314258e-01 1.259688e-02 4.510758e-02 2.066544e-01 1.548087e-02 5.234520e-03
<VARIANCE> 39
 4.480936e+01 3.377592e+01 5.411005e+01 8.148537e+01 3.964298e+01 7.605354e+01 9.258189e+01 3.955108e+01 5.003162e+01 3.303815e+01 7.009252e+01 5.901219e+01 6.043106e-02 1.315791e+00 1.566367e+00 1.870994e+00 5.094625e+00 3.011930e+00 3.346042e+00 3.122415e+00 3.534293e+00 3.230650e+00 2.911770e+00 6.331806e+00 3.081553e+00 4.784961e-03 1.924262e-01 2.469005e-01 2.527805e-01 5.786126e-01 4.784698e-01 5.654820e-01 5.081530e-01 5.403670e-01 5.323989e-01 4.014053e-01 8.977985e-01 4.124776e-01 4.809488e-04
<GCONST> 1.063538e+02
<STATE> 4
<MEAN> 39
 -1.208725e+01 -8.977740e+00 -2.146824e+00 -1.552900e+01 -6.230751e+00 2.544346e+00 8.883734e-01 -2.700359e+00 1.145014e+00 -1.876890e+00 -9.002029e+00 1.140598e+00 5.620483e-01 -6.044704e-02 2.213929e-01 1.369005e-01 1.454435e-01 2.383025e-01 -1.835009e-01 -1.047193e-01 -6.781313e-02 -5.669123e-02 1.399149e-01 2.191666e-02 -1.145661e-01 3.532217e-03 -2.911209e-02 7.119948e-02 3.952492e-02 1.641237e-01 3.792996e-02 -2.527901e-02 -1.111622e-02 1.314258e-01 1.259688e-02 4.510758e-02 2.066544e-01 1.548087e-02 5.234520e-03
<VARIANCE> 39
 4.480936e+01 3.377592e+01 5.411005e+01 8.148537e+01 3.964298e+01 7.605354e+01 9.258189e+01 3.955108e+01 5.003162e+01 3.303815e+01 7.009252e+01 5.901219e+01 6.043106e-02 1.315791e+00 1.566367e+00 1.870994e+00 5.094625e+00 3.011930e+00 3.346042e+00 3.122415e+00 3.534293e+00 3.230650e+00 2.911770e+00 6.331806e+00 3.081553e+00 4.784961e-03 1.924262e-01 2.469005e-01 2.527805e-01 5.786126e-01 4.784698e-01 5.654820e-01 5.081530e-01 5.403670e-01 5.323989e-01 4.014053e-01 8.977985e-01 4.124776e-01 4.809488e-04
<GCONST> 1.063538e+02
<STATE> 5
<MEAN> 39
 -1.208725e+01 -8.977740e+00 -2.146824e+00 -1.552900e+01 -6.230751e+00 2.544346e+00 8.883734e-01 -2.700359e+00 1.145014e+00 -1.876890e+00 -9.002029e+00 1.140598e+00 5.620483e-01 -6.044704e-02 2.213929e-01 1.369005e-01 1.454435e-01 2.383025e-01 -1.835009e-01 -1.047193e-01 -6.781313e-02 -5.669123e-02 1.399149e-01 2.191666e-02 -1.145661e-01 3.532217e-03 -2.911209e-02 7.119948e-02 3.952492e-02 1.641237e-01 3.792996e-02 -2.527901e-02 -1.111622e-02 1.314258e-01 1.259688e-02 4.510758e-02 2.066544e-01 1.548087e-02 5.234520e-03
<VARIANCE> 39
 4.480936e+01 3.377592e+01 5.411005e+01 8.148537e+01 3.964298e+01 7.605354e+01 9.258189e+01 3.955108e+01 5.003162e+01 3.303815e+01 7.009252e+01 5.901219e+01 6.043106e-02 1.315791e+00 1.566367e+00 1.870994e+00 5.094625e+00 3.011930e+00 3.346042e+00 3.122415e+00 3.534293e+00 3.230650e+00 2.911770e+00 6.331806e+00 3.081553e+00 4.784961e-03 1.924262e-01 2.469005e-01 2.527805e-01 5.786126e-01 4.784698e-01 5.654820e-01 5.081530e-01 5.403670e-01 5.323989e-01 4.014053e-01 8.977985e-01 4.124776e-01 4.809488e-04
<GCONST> 1.063538e+02
<STATE> 6
<MEAN> 39
 -1.208725e+01 -8.977740e+00 -2.146824e+00 -1.552900e+01 -6.230751e+00 2.544346e+00 8.883734e-01 -2.700359e+00 1.145014e+00 -1.876890e+00 -9.002029e+00 1.140598e+00 5.620483e-01 -6.044704e-02 2.213929e-01 1.369005e-01 1.454435e-01 2.383025e-01 -1.835009e-01 -1.047193e-01 -6.781313e-02 -5.669123e-02 1.399149e-01 2.191666e-02 -1.145661e-01 3.532217e-03 -2.911209e-02 7.119948e-02 3.952492e-02 1.641237e-01 3.792996e-02 -2.527901e-02 -1.111622e-02 1.314258e-01 1.259688e-02 4.510758e-02 2.066544e-01 1.548087e-02 5.234520e-03
<VARIANCE> 39
 4.480936e+01 3.377592e+01 5.411005e+01 8.148537e+01 3.964298e+01 7.605354e+01 9.258189e+01 3.955108e+01 5.003162e+01 3.303815e+01 7.009252e+01 5.901219e+01 6.043106e-02 1.315791e+00 1.566367e+00 1.870994e+00 5.094625e+00 3.011930e+00 3.346042e+00 3.122415e+00 3.534293e+00 3.230650e+00 2.911770e+00 6.331806e+00 3.081553e+00 4.784961e-03 1.924262e-01 2.469005e-01 2.527805e-01 5.786126e-01 4.784698e-01 5.654820e-01 5.081530e-01 5.403670e-01 5.323989e-01 4.014053e-01 8.977985e-01 4.124776e-01 4.809488e-04
<GCONST> 1.063538e+02
<TRANSP> 7
 0.000000e+00 1.000000e+00 0.000000e+00 0.000000e+00 0.000000e+00 0.000000e+00 0.000000e+00
 0.000000e+00 6.000000e-01 4.000000e-01 0.000000e+00 0.000000e+00 0.000000e+00 0.000000e+00
 0.000000e+00 0.000000e+00 6.000000e-01 4.000000e-01 0.000000e+00 0.000000e+00 0.000000e+00
 0.000000e+00 0.000000e+00 0.000000e+00 6.000000e-01 4.000000e-01 0.000000e+00 0.000000e+00
 0.000000e+00 0.000000e+00 0.000000e+00 0.000000e+00 6.000000e-01 4.000000e-01 0.000000e+00
 0.000000e+00 0.000000e+00 0.000000e+00 0.000000e+00 0.000000e+00 6.000000e-01 4.000000e-01
 0.000000e+00 0.000000e+00 0.000000e+00 0.000000e+00 0.000000e+00 0.000000e+00 0.000000e+00
<ENDHMM>
