~o
<STREAMINFO> 1 39
<VECSIZE> 39<NULLD><MFCC_E_D_A><DIAGC>
~h "VODA"
<BEGINHMM>
<NUMSTATES> 7
<STATE> 2
<MEAN> 39
 -6.347777e+00 -1.193842e+01 -5.995368e+00 -7.936213e+00 -4.862775e+00 -1.057331e+01 -9.745497e-01 -6.854378e+00 -1.343633e+00 9.615266e-01 -5.493679e+00 -2.297535e+00 6.084460e-01 -2.128757e-02 8.096412e-02 1.310085e-01 1.609699e-03 1.131786e-01 -5.603914e-02 -1.063315e-02 -1.027514e-01 -1.205853e-01 6.425808e-02 -3.521026e-02 -6.479877e-03 -7.441356e-04 -6.607047e-02 4.444418e-02 7.801200e-02 3.914040e-02 -1.649695e-02 1.083474e-01 3.869259e-03 1.044712e-01 -1.914332e-02 9.539194e-03 1.023974e-01 3.381216e-02 3.904802e-03
<VARIANCE> 39
 3.967478e+01 5.020264e+01 7.421444e+01 3.987560e+01 5.375702e+01 7.944498e+01 1.160976e+02 7.069060e+01 1.028110e+02 8.926715e+01 5.277138e+01 4.826231e+01 5.315429e-02 1.539551e+00 2.520478e+00 5.493756e+00 2.913722e+00 3.088795e+00 5.804445e+00 4.027483e+00 5.259703e+00 5.133484e+00 3.895563e+00 4.266310e+00 2.966951e+00 3.398214e-03 2.061485e-01 2.819108e-01 8.520188e-01 4.493682e-01 5.483905e-01 7.010369e-01 6.259449e-01 8.422498e-01 8.596675e-01 6.700312e-01 6.826453e-01 5.384228e-01 4.483667e-04
<GCONST> 1.139257e+02
<STATE> 3
<MEAN> 39
 -6.347777e+00 -1.193842e+01 -5.995368e+00 -7.936213e+00 -4.862775e+00 -1.057331e+01 -9.745497e-01 -6.854378e+00 -1.343633e+00 9.615266e-01 -5.493679e+00 -2.297535e+00 6.084460e-01 -2.128757e-02 8.096412e-02 1.310085e-01 1.609699e-03 1.131786e-01 -5.603914e-02 -1.063315e-02 -1.027514e-01 -1.205853e-01 6.425808e-02 -3.521026e-02 -6.479877e-03 -7.441356e-04 -6.607047e-02 4.444418e-02 7.801200e-02 3.914040e-02 -1.649695e-02 1.083474e-01 3.869259e-03 1.044712e-01 -1.914332e-02 9.539194e-03 1.023974e-01 3.381216e-02 3.904802e-03
<VARIANCE> 39
 3.967478e+01 5.020264e+01 7.421444e+01 3.987560e+01 5.375702e+01 7.944498e+01 1.160976e+02 7.069060e+01 1.028110e+02 8.926715e+01 5.277138e+01 4.826231e+01 5.315429e-02 1.539551e+00 2.520478e+00 5.493756e+00 2.913722e+00 3.088795e+00 5.804445e+00 4.027483e+00 5.259703e+00 5.133484e+00 3.895563e+00 4.266310e+00 2.966951e+00 3.398214e-03 2.061485e-01 2.819108e-01 8.520188e-01 4.493682e-01 5.483905e-01 7.010369e-01 6.259449e-01 8.422498e-01 8.596675e-01 6.700312e-01 6.826453e-01 5.384228e-01 4.483667e-04
<GCONST> 1.139257e+02
<STATE> 4
<MEAN> 39
 -6.347777e+00 -1.193842e+01 -5.995368e+00 -7.936213e+00 -4.862775e+00 -1.057331e+01 -9.745497e-01 -6.854378e+00 -1.343633e+00 9.615266e-01 -5.493679e+00 -2.297535e+00 6.084460e-01 -2.128757e-02 8.096412e-02 1.310085e-01 1.609699e-03 1.131786e-01 -5.603914e-02 -1.063315e-02 -1.027514e-01 -1.205853e-01 6.425808e-02 -3.521026e-02 -6.479877e-03 -7.441356e-04 -6.607047e-02 4.444418e-02 7.801200e-02 3.914040e-02 -1.649695e-02 1.083474e-01 3.869259e-03 1.044712e-01 -1.914332e-02 9.539194e-03 1.023974e-01 3.381216e-02 3.904802e-03
<VARIANCE> 39
 3.967478e+01 5.020264e+01 7.421444e+01 3.987560e+01 5.375702e+01 7.944498e+01 1.160976e+02 7.069060e+01 1.028110e+02 8.926715e+01 5.277138e+01 4.826231e+01 5.315429e-02 1.539551e+00 2.520478e+00 5.493756e+00 2.913722e+00 3.088795e+00 5.804445e+00 4.027483e+00 5.259703e+00 5.133484e+00 3.895563e+00 4.266310e+00 2.966951e+00 3.398214e-03 2.061485e-01 2.819108e-01 8.520188e-01 4.493682e-01 5.483905e-01 7.010369e-01 6.259449e-01 8.422498e-01 8.596675e-01 6.700312e-01 6.826453e-01 5.384228e-01 4.483667e-04
<GCONST> 1.139257e+02
<STATE> 5
<MEAN> 39
 -6.347777e+00 -1.193842e+01 -5.995368e+00 -7.936213e+00 -4.862775e+00 -1.057331e+01 -9.745497e-01 -6.854378e+00 -1.343633e+00 9.615266e-01 -5.493679e+00 -2.297535e+00 6.084460e-01 -2.128757e-02 8.096412e-02 1.310085e-01 1.609699e-03 1.131786e-01 -5.603914e-02 -1.063315e-02 -1.027514e-01 -1.205853e-01 6.425808e-02 -3.521026e-02 -6.479877e-03 -7.441356e-04 -6.607047e-02 4.444418e-02 7.801200e-02 3.914040e-02 -1.649695e-02 1.083474e-01 3.869259e-03 1.044712e-01 -1.914332e-02 9.539194e-03 1.023974e-01 3.381216e-02 3.904802e-03
<VARIANCE> 39
 3.967478e+01 5.020264e+01 7.421444e+01 3.987560e+01 5.375702e+01 7.944498e+01 1.160976e+02 7.069060e+01 1.028110e+02 8.926715e+01 5.277138e+01 4.826231e+01 5.315429e-02 1.539551e+00 2.520478e+00 5.493756e+00 2.913722e+00 3.088795e+00 5.804445e+00 4.027483e+00 5.259703e+00 5.133484e+00 3.895563e+00 4.266310e+00 2.966951e+00 3.398214e-03 2.061485e-01 2.819108e-01 8.520188e-01 4.493682e-01 5.483905e-01 7.010369e-01 6.259449e-01 8.422498e-01 8.596675e-01 6.700312e-01 6.826453e-01 5.384228e-01 4.483667e-04
<GCONST> 1.139257e+02
<STATE> 6
<MEAN> 39
 -6.347777e+00 -1.193842e+01 -5.995368e+00 -7.936213e+00 -4.862775e+00 -1.057331e+01 -9.745497e-01 -6.854378e+00 -1.343633e+00 9.615266e-01 -5.493679e+00 -2.297535e+00 6.084460e-01 -2.128757e-02 8.096412e-02 1.310085e-01 1.609699e-03 1.131786e-01 -5.603914e-02 -1.063315e-02 -1.027514e-01 -1.205853e-01 6.425808e-02 -3.521026e-02 -6.479877e-03 -7.441356e-04 -6.607047e-02 4.444418e-02 7.801200e-02 3.914040e-02 -1.649695e-02 1.083474e-01 3.869259e-03 1.044712e-01 -1.914332e-02 9.539194e-03 1.023974e-01 3.381216e-02 3.904802e-03
<VARIANCE> 39
 3.967478e+01 5.020264e+01 7.421444e+01 3.987560e+01 5.375702e+01 7.944498e+01 1.160976e+02 7.069060e+01 1.028110e+02 8.926715e+01 5.277138e+01 4.826231e+01 5.315429e-02 1.539551e+00 2.520478e+00 5.493756e+00 2.913722e+00 3.088795e+00 5.804445e+00 4.027483e+00 5.259703e+00 5.133484e+00 3.895563e+00 4.266310e+00 2.966951e+00 3.398214e-03 2.061485e-01 2.819108e-01 8.520188e-01 4.493682e-01 5.483905e-01 7.010369e-01 6.259449e-01 8.422498e-01 8.596675e-01 6.700312e-01 6.826453e-01 5.384228e-01 4.483667e-04
<GCONST> 1.139257e+02
<TRANSP> 7
 0.000000e+00 1.000000e+00 0.000000e+00 0.000000e+00 0.000000e+00 0.000000e+00 0.000000e+00
 0.000000e+00 6.000000e-01 4.000000e-01 0.000000e+00 0.000000e+00 0.000000e+00 0.000000e+00
 0.000000e+00 0.000000e+00 6.000000e-01 4.000000e-01 0.000000e+00 0.000000e+00 0.000000e+00
 0.000000e+00 0.000000e+00 0.000000e+00 6.000000e-01 4.000000e-01 0.000000e+00 0.000000e+00
 0.000000e+00 0.000000e+00 0.000000e+00 0.000000e+00 6.000000e-01 4.000000e-01 0.000000e+00
 0.000000e+00 0.000000e+00 0.000000e+00 0.000000e+00 0.000000e+00 6.000000e-01 4.000000e-01
 0.000000e+00 0.000000e+00 0.000000e+00 0.000000e+00 0.000000e+00 0.000000e+00 0.000000e+00
<ENDHMM>
