~o
<STREAMINFO> 1 39
<VECSIZE> 39<NULLD><MFCC_E_D_A><DIAGC>
~h "VODA"
<BEGINHMM>
<NUMSTATES> 7
<STATE> 2
<MEAN> 39
 -6.130368e+00 -1.228333e+01 -6.462695e+00 -8.335712e+00 -5.069233e+00 -1.112635e+01 -1.040839e+00 -7.314673e+00 -1.184779e+00 9.641699e-01 -5.795139e+00 -2.489520e+00 6.785994e-01 -7.735588e-02 -9.174153e-02 4.332460e-02 4.889707e-02 -5.089818e-03 9.213031e-02 1.508796e-01 -6.206659e-02 -1.891641e-01 -6.426234e-02 5.907221e-02 6.446608e-02 -2.443758e-03 -1.290112e-02 4.604954e-03 -1.366460e-02 -1.175075e-03 -7.378013e-03 -8.840659e-04 -6.817678e-04 1.412861e-02 2.907612e-02 8.220182e-03 6.237024e-03 -1.696969e-02 -9.473381e-04
<VARIANCE> 39
 4.024130e+01 5.203125e+01 7.573473e+01 4.223012e+01 5.685920e+01 7.362303e+01 1.190703e+02 6.760927e+01 1.094193e+02 9.160909e+01 5.060901e+01 4.989558e+01 4.946005e-02 1.030647e+00 1.531091e+00 3.527601e+00 3.158991e+00 3.296710e+00 3.870091e+00 3.422596e+00 4.251423e+00 4.818161e+00 2.997731e+00 3.024920e+00 2.408970e+00 1.625118e-03 1.762037e-01 2.234328e-01 5.125735e-01 5.358227e-01 6.183012e-01 5.855638e-01 5.836263e-01 7.456447e-01 7.781612e-01 5.406051e-01 5.445262e-01 4.467828e-01 1.660202e-04
<GCONST> 1.077348e+02
<STATE> 3
<MEAN> 39
 -6.130368e+00 -1.228333e+01 -6.462695e+00 -8.335712e+00 -5.069233e+00 -1.112635e+01 -1.040839e+00 -7.314673e+00 -1.184779e+00 9.641699e-01 -5.795139e+00 -2.489520e+00 6.785994e-01 -7.735588e-02 -9.174153e-02 4.332460e-02 4.889707e-02 -5.089818e-03 9.213031e-02 1.508796e-01 -6.206659e-02 -1.891641e-01 -6.426234e-02 5.907221e-02 6.446608e-02 -2.443758e-03 -1.290112e-02 4.604954e-03 -1.366460e-02 -1.175075e-03 -7.378013e-03 -8.840659e-04 -6.817678e-04 1.412861e-02 2.907612e-02 8.220182e-03 6.237024e-03 -1.696969e-02 -9.473381e-04
<VARIANCE> 39
 4.024130e+01 5.203125e+01 7.573473e+01 4.223012e+01 5.685920e+01 7.362303e+01 1.190703e+02 6.760927e+01 1.094193e+02 9.160909e+01 5.060901e+01 4.989558e+01 4.946005e-02 1.030647e+00 1.531091e+00 3.527601e+00 3.158991e+00 3.296710e+00 3.870091e+00 3.422596e+00 4.251423e+00 4.818161e+00 2.997731e+00 3.024920e+00 2.408970e+00 1.625118e-03 1.762037e-01 2.234328e-01 5.125735e-01 5.358227e-01 6.183012e-01 5.855638e-01 5.836263e-01 7.456447e-01 7.781612e-01 5.406051e-01 5.445262e-01 4.467828e-01 1.660202e-04
<GCONST> 1.077348e+02
<STATE> 4
<MEAN> 39
 -6.130368e+00 -1.228333e+01 -6.462695e+00 -8.335712e+00 -5.069233e+00 -1.112635e+01 -1.040839e+00 -7.314673e+00 -1.184779e+00 9.641699e-01 -5.795139e+00 -2.489520e+00 6.785994e-01 -7.735588e-02 -9.174153e-02 4.332460e-02 4.889707e-02 -5.089818e-03 9.213031e-02 1.508796e-01 -6.206659e-02 -1.891641e-01 -6.426234e-02 5.907221e-02 6.446608e-02 -2.443758e-03 -1.290112e-02 4.604954e-03 -1.366460e-02 -1.175075e-03 -7.378013e-03 -8.840659e-04 -6.817678e-04 1.412861e-02 2.907612e-02 8.220182e-03 6.237024e-03 -1.696969e-02 -9.473381e-04
<VARIANCE> 39
 4.024130e+01 5.203125e+01 7.573473e+01 4.223012e+01 5.685920e+01 7.362303e+01 1.190703e+02 6.760927e+01 1.094193e+02 9.160909e+01 5.060901e+01 4.989558e+01 4.946005e-02 1.030647e+00 1.531091e+00 3.527601e+00 3.158991e+00 3.296710e+00 3.870091e+00 3.422596e+00 4.251423e+00 4.818161e+00 2.997731e+00 3.024920e+00 2.408970e+00 1.625118e-03 1.762037e-01 2.234328e-01 5.125735e-01 5.358227e-01 6.183012e-01 5.855638e-01 5.836263e-01 7.456447e-01 7.781612e-01 5.406051e-01 5.445262e-01 4.467828e-01 1.660202e-04
<GCONST> 1.077348e+02
<STATE> 5
<MEAN> 39
 -6.130368e+00 -1.228333e+01 -6.462695e+00 -8.335712e+00 -5.069233e+00 -1.112635e+01 -1.040839e+00 -7.314673e+00 -1.184779e+00 9.641699e-01 -5.795139e+00 -2.489520e+00 6.785994e-01 -7.735588e-02 -9.174153e-02 4.332460e-02 4.889707e-02 -5.089818e-03 9.213031e-02 1.508796e-01 -6.206659e-02 -1.891641e-01 -6.426234e-02 5.907221e-02 6.446608e-02 -2.443758e-03 -1.290112e-02 4.604954e-03 -1.366460e-02 -1.175075e-03 -7.378013e-03 -8.840659e-04 -6.817678e-04 1.412861e-02 2.907612e-02 8.220182e-03 6.237024e-03 -1.696969e-02 -9.473381e-04
<VARIANCE> 39
 4.024130e+01 5.203125e+01 7.573473e+01 4.223012e+01 5.685920e+01 7.362303e+01 1.190703e+02 6.760927e+01 1.094193e+02 9.160909e+01 5.060901e+01 4.989558e+01 4.946005e-02 1.030647e+00 1.531091e+00 3.527601e+00 3.158991e+00 3.296710e+00 3.870091e+00 3.422596e+00 4.251423e+00 4.818161e+00 2.997731e+00 3.024920e+00 2.408970e+00 1.625118e-03 1.762037e-01 2.234328e-01 5.125735e-01 5.358227e-01 6.183012e-01 5.855638e-01 5.836263e-01 7.456447e-01 7.781612e-01 5.406051e-01 5.445262e-01 4.467828e-01 1.660202e-04
<GCONST> 1.077348e+02
<STATE> 6
<MEAN> 39
 -6.130368e+00 -1.228333e+01 -6.462695e+00 -8.335712e+00 -5.069233e+00 -1.112635e+01 -1.040839e+00 -7.314673e+00 -1.184779e+00 9.641699e-01 -5.795139e+00 -2.489520e+00 6.785994e-01 -7.735588e-02 -9.174153e-02 4.332460e-02 4.889707e-02 -5.089818e-03 9.213031e-02 1.508796e-01 -6.206659e-02 -1.891641e-01 -6.426234e-02 5.907221e-02 6.446608e-02 -2.443758e-03 -1.290112e-02 4.604954e-03 -1.366460e-02 -1.175075e-03 -7.378013e-03 -8.840659e-04 -6.817678e-04 1.412861e-02 2.907612e-02 8.220182e-03 6.237024e-03 -1.696969e-02 -9.473381e-04
<VARIANCE> 39
 4.024130e+01 5.203125e+01 7.573473e+01 4.223012e+01 5.685920e+01 7.362303e+01 1.190703e+02 6.760927e+01 1.094193e+02 9.160909e+01 5.060901e+01 4.989558e+01 4.946005e-02 1.030647e+00 1.531091e+00 3.527601e+00 3.158991e+00 3.296710e+00 3.870091e+00 3.422596e+00 4.251423e+00 4.818161e+00 2.997731e+00 3.024920e+00 2.408970e+00 1.625118e-03 1.762037e-01 2.234328e-01 5.125735e-01 5.358227e-01 6.183012e-01 5.855638e-01 5.836263e-01 7.456447e-01 7.781612e-01 5.406051e-01 5.445262e-01 4.467828e-01 1.660202e-04
<GCONST> 1.077348e+02
<TRANSP> 7
 0.000000e+00 1.000000e+00 0.000000e+00 0.000000e+00 0.000000e+00 0.000000e+00 0.000000e+00
 0.000000e+00 6.000000e-01 4.000000e-01 0.000000e+00 0.000000e+00 0.000000e+00 0.000000e+00
 0.000000e+00 0.000000e+00 6.000000e-01 4.000000e-01 0.000000e+00 0.000000e+00 0.000000e+00
 0.000000e+00 0.000000e+00 0.000000e+00 6.000000e-01 4.000000e-01 0.000000e+00 0.000000e+00
 0.000000e+00 0.000000e+00 0.000000e+00 0.000000e+00 6.000000e-01 4.000000e-01 0.000000e+00
 0.000000e+00 0.000000e+00 0.000000e+00 0.000000e+00 0.000000e+00 6.000000e-01 4.000000e-01
 0.000000e+00 0.000000e+00 0.000000e+00 0.000000e+00 0.000000e+00 0.000000e+00 0.000000e+00
<ENDHMM>
