~o
<STREAMINFO> 1 39
<VECSIZE> 39<NULLD><MFCC_E_D_A><DIAGC>
~h "VODA"
<BEGINHMM>
<NUMSTATES> 7
<STATE> 2
<MEAN> 39
 -1.034932e+01 -1.161515e+01 -7.589861e+00 -6.622392e+00 -6.091572e+00 -8.039825e+00 -1.203142e+00 -7.484668e+00 -1.702849e+00 6.623950e-01 -3.821495e+00 -1.952551e+00 4.002660e-01 7.766504e-03 4.277786e-02 7.428874e-02 -1.128625e-02 7.963436e-02 -5.141632e-02 3.310968e-03 -7.507564e-02 -3.943447e-02 7.243590e-02 -1.392959e-02 -1.617406e-02 -1.391601e-03 1.914593e-02 1.272151e-02 3.402754e-02 1.044500e-02 -3.026350e-03 3.807066e-02 1.457519e-02 6.074068e-02 5.855213e-03 1.655523e-02 3.882853e-02 3.650803e-02 3.269942e-03
<VARIANCE> 39
 5.965232e+01 5.176752e+01 7.862862e+01 5.866776e+01 5.927866e+01 1.099341e+02 1.244192e+02 6.464563e+01 8.850332e+01 8.548836e+01 7.376595e+01 5.356842e+01 1.272592e-01 1.546761e+00 2.099244e+00 3.513521e+00 3.392723e+00 4.087716e+00 5.026327e+00 4.272994e+00 5.063048e+00 5.111066e+00 4.150607e+00 3.798535e+00 3.407563e+00 3.834504e-03 2.321027e-01 3.198052e-01 5.117235e-01 5.762963e-01 7.296095e-01 7.747991e-01 7.412773e-01 8.252283e-01 9.119104e-01 7.838042e-01 6.430736e-01 6.237413e-01 3.914293e-04
<GCONST> 1.169015e+02
<STATE> 3
<MEAN> 39
 -1.034932e+01 -1.161515e+01 -7.589861e+00 -6.622392e+00 -6.091572e+00 -8.039825e+00 -1.203142e+00 -7.484668e+00 -1.702849e+00 6.623950e-01 -3.821495e+00 -1.952551e+00 4.002660e-01 7.766504e-03 4.277786e-02 7.428874e-02 -1.128625e-02 7.963436e-02 -5.141632e-02 3.310968e-03 -7.507564e-02 -3.943447e-02 7.243590e-02 -1.392959e-02 -1.617406e-02 -1.391601e-03 1.914593e-02 1.272151e-02 3.402754e-02 1.044500e-02 -3.026350e-03 3.807066e-02 1.457519e-02 6.074068e-02 5.855213e-03 1.655523e-02 3.882853e-02 3.650803e-02 3.269942e-03
<VARIANCE> 39
 5.965232e+01 5.176752e+01 7.862862e+01 5.866776e+01 5.927866e+01 1.099341e+02 1.244192e+02 6.464563e+01 8.850332e+01 8.548836e+01 7.376595e+01 5.356842e+01 1.272592e-01 1.546761e+00 2.099244e+00 3.513521e+00 3.392723e+00 4.087716e+00 5.026327e+00 4.272994e+00 5.063048e+00 5.111066e+00 4.150607e+00 3.798535e+00 3.407563e+00 3.834504e-03 2.321027e-01 3.198052e-01 5.117235e-01 5.762963e-01 7.296095e-01 7.747991e-01 7.412773e-01 8.252283e-01 9.119104e-01 7.838042e-01 6.430736e-01 6.237413e-01 3.914293e-04
<GCONST> 1.169015e+02
<STATE> 4
<MEAN> 39
 -1.034932e+01 -1.161515e+01 -7.589861e+00 -6.622392e+00 -6.091572e+00 -8.039825e+00 -1.203142e+00 -7.484668e+00 -1.702849e+00 6.623950e-01 -3.821495e+00 -1.952551e+00 4.002660e-01 7.766504e-03 4.277786e-02 7.428874e-02 -1.128625e-02 7.963436e-02 -5.141632e-02 3.310968e-03 -7.507564e-02 -3.943447e-02 7.243590e-02 -1.392959e-02 -1.617406e-02 -1.391601e-03 1.914593e-02 1.272151e-02 3.402754e-02 1.044500e-02 -3.026350e-03 3.807066e-02 1.457519e-02 6.074068e-02 5.855213e-03 1.655523e-02 3.882853e-02 3.650803e-02 3.269942e-03
<VARIANCE> 39
 5.965232e+01 5.176752e+01 7.862862e+01 5.866776e+01 5.927866e+01 1.099341e+02 1.244192e+02 6.464563e+01 8.850332e+01 8.548836e+01 7.376595e+01 5.356842e+01 1.272592e-01 1.546761e+00 2.099244e+00 3.513521e+00 3.392723e+00 4.087716e+00 5.026327e+00 4.272994e+00 5.063048e+00 5.111066e+00 4.150607e+00 3.798535e+00 3.407563e+00 3.834504e-03 2.321027e-01 3.198052e-01 5.117235e-01 5.762963e-01 7.296095e-01 7.747991e-01 7.412773e-01 8.252283e-01 9.119104e-01 7.838042e-01 6.430736e-01 6.237413e-01 3.914293e-04
<GCONST> 1.169015e+02
<STATE> 5
<MEAN> 39
 -1.034932e+01 -1.161515e+01 -7.589861e+00 -6.622392e+00 -6.091572e+00 -8.039825e+00 -1.203142e+00 -7.484668e+00 -1.702849e+00 6.623950e-01 -3.821495e+00 -1.952551e+00 4.002660e-01 7.766504e-03 4.277786e-02 7.428874e-02 -1.128625e-02 7.963436e-02 -5.141632e-02 3.310968e-03 -7.507564e-02 -3.943447e-02 7.243590e-02 -1.392959e-02 -1.617406e-02 -1.391601e-03 1.914593e-02 1.272151e-02 3.402754e-02 1.044500e-02 -3.026350e-03 3.807066e-02 1.457519e-02 6.074068e-02 5.855213e-03 1.655523e-02 3.882853e-02 3.650803e-02 3.269942e-03
<VARIANCE> 39
 5.965232e+01 5.176752e+01 7.862862e+01 5.866776e+01 5.927866e+01 1.099341e+02 1.244192e+02 6.464563e+01 8.850332e+01 8.548836e+01 7.376595e+01 5.356842e+01 1.272592e-01 1.546761e+00 2.099244e+00 3.513521e+00 3.392723e+00 4.087716e+00 5.026327e+00 4.272994e+00 5.063048e+00 5.111066e+00 4.150607e+00 3.798535e+00 3.407563e+00 3.834504e-03 2.321027e-01 3.198052e-01 5.117235e-01 5.762963e-01 7.296095e-01 7.747991e-01 7.412773e-01 8.252283e-01 9.119104e-01 7.838042e-01 6.430736e-01 6.237413e-01 3.914293e-04
<GCONST> 1.169015e+02
<STATE> 6
<MEAN> 39
 -1.034932e+01 -1.161515e+01 -7.589861e+00 -6.622392e+00 -6.091572e+00 -8.039825e+00 -1.203142e+00 -7.484668e+00 -1.702849e+00 6.623950e-01 -3.821495e+00 -1.952551e+00 4.002660e-01 7.766504e-03 4.277786e-02 7.428874e-02 -1.128625e-02 7.963436e-02 -5.141632e-02 3.310968e-03 -7.507564e-02 -3.943447e-02 7.243590e-02 -1.392959e-02 -1.617406e-02 -1.391601e-03 1.914593e-02 1.272151e-02 3.402754e-02 1.044500e-02 -3.026350e-03 3.807066e-02 1.457519e-02 6.074068e-02 5.855213e-03 1.655523e-02 3.882853e-02 3.650803e-02 3.269942e-03
<VARIANCE> 39
 5.965232e+01 5.176752e+01 7.862862e+01 5.866776e+01 5.927866e+01 1.099341e+02 1.244192e+02 6.464563e+01 8.850332e+01 8.548836e+01 7.376595e+01 5.356842e+01 1.272592e-01 1.546761e+00 2.099244e+00 3.513521e+00 3.392723e+00 4.087716e+00 5.026327e+00 4.272994e+00 5.063048e+00 5.111066e+00 4.150607e+00 3.798535e+00 3.407563e+00 3.834504e-03 2.321027e-01 3.198052e-01 5.117235e-01 5.762963e-01 7.296095e-01 7.747991e-01 7.412773e-01 8.252283e-01 9.119104e-01 7.838042e-01 6.430736e-01 6.237413e-01 3.914293e-04
<GCONST> 1.169015e+02
<TRANSP> 7
 0.000000e+00 1.000000e+00 0.000000e+00 0.000000e+00 0.000000e+00 0.000000e+00 0.000000e+00
 0.000000e+00 6.000000e-01 4.000000e-01 0.000000e+00 0.000000e+00 0.000000e+00 0.000000e+00
 0.000000e+00 0.000000e+00 6.000000e-01 4.000000e-01 0.000000e+00 0.000000e+00 0.000000e+00
 0.000000e+00 0.000000e+00 0.000000e+00 6.000000e-01 4.000000e-01 0.000000e+00 0.000000e+00
 0.000000e+00 0.000000e+00 0.000000e+00 0.000000e+00 6.000000e-01 4.000000e-01 0.000000e+00
 0.000000e+00 0.000000e+00 0.000000e+00 0.000000e+00 0.000000e+00 6.000000e-01 4.000000e-01
 0.000000e+00 0.000000e+00 0.000000e+00 0.000000e+00 0.000000e+00 0.000000e+00 0.000000e+00
<ENDHMM>
